#include <stdint.h>
#include <ap_fixed.h>
#include <cmath>


using namespace std;

static const ap_fixed<8,4> at1_convolution_weights[64*8]={
    87, 26, 9, 45, -105, 15, -30, 104, -127, 39, 117, -126, -22, -23, 126, -77, 14, 87, -89, -122, 113, -50, 98, 107, -40, -111, -37, -65, -40, 97, -45, 118, 65, -127, -101, -109, -115, -57, -118, 125, -36, -121, 30, 58, 47, -97, 126, 8, -113, 19, -16, 76, 38, -115, -84, -1, 34, 101, -85, -99, -2, -102, 31, -46, -27, 5, -47, 14, 84, 84, -105, 33, -111, 22, 1, 118, -69, -46, -29, 18, -88, 118, -127, -57, -109, 82, -67, 41, -34, -81, 49, 106, -95, -27, -20, 81, -14, -104, -37, 38, -61, -115, 23, 92, -50, 109, 92, 51, -2, -1, 30, -53, 102, -95, -84, -54, -58, -73, 107, 18, -88, -97, -38, 9, -48, -84, 95, -95, 57, 70, -12, 69, 21, -48, -5, 16, -82, -68, 0, -10, 115, 13, 25, -89, -109, 59, 0, -10, 116, -50, -79, -86, -102, -71, 101, -126, 36, 62, 78, -12, -6, 48, -98, 111, -80, 78, 93, -110, 69, -40, -102, -11, 33, -31, -100, 106, -62, -102, -2, 100, -76, 75, 20, -85, -36, 68, 5, -11, 70, 71, -88, 95, -40, 15, 12, 14, 28, 51, 52, 8, -51, 82, 24, -99, 49, 59, 121, 2, 89, 33, 59, 105, -70, 107, 73, -35, 103, -35, 85, 127, 46, 13, 81, -16, 101, -105, -73, 123, -97, -61, -80, -124, -90, -2, 52, -64, 98, 54, 117, -25, 43, -31, 1, -45, -32, -85, 126, 98, 31, -14, -58, -48, -77, -80, -96, 61, 59, -52, 99, 70, -40, -93, -69, 113, -91, 42, -97, 62, 16, 28, 103, 123, 118, -76, 74, 26, -45, -7, 96, -117, 72, 54, -3, 23, 37, -81, -101, -87, 77, -101, 2, 13, -103, 104, -38, 47, 18, -86, 84, -35, 50, 46, -26, 23, 31, 35, -81, 105, 10, -3, -50, -11, 124, -47, 102, -13, 108, -93, -53, -44, 47, -19, 59, 102, 61, 124, -95, -38, 104, -124, -68, 100, 57, -99, -66, 91, -64, 88, -12, -85, -28, -60, 84, -49, -94, -4, 91, -69, 113, -9, 89, 100, -107, -53, -91, 80, 98, -86, 58, -75, -5, 67, 91, 25, -59, -12, 39, 5, -122, -36, -12, 87, 50, 59, -76, 53, 82, 69, 6, -31, 60, -69, -77, 119, -90, 1, 41, -53, 66, -7, -104, 32, -18, 43, 1, 68, 89, -52, 104, 60, 40, -83, -49, -76, 28, 30, 7, 94, 73, -100, -117, -102, -95, -91, 10, -69, 105, -54, 76, -110, 20, -68, -74, 74, -125, -54, -36, 52, -50, 73, -68, 112, -40, 47, -126, 43, -3, -102, 114, 84, -115, -18, 58, -33, 8, -40, 111, 72, -107, 50, 120, 74, -31, 111, -124, 20, 28, -58, -67, -81, -27, 106, 101, -73, 125, -20, 36, 7, 36, 96, -1, -46, 15, -50, -18, 117, -115, -94, 90, -15, 19, 92, 52, 51, 50, -21, -103, -46, 101, 59, 29, 86, -120, 2, -94, 26, -12, -80, -112, 107, 9, 86, 33, 35, -72, 119, 96, -5, 98, 59, -81, -83
};
static const ap_fixed<8,4> at1_convolution_biases[8]={
    127, -127, 18, -127, -127, 127, 127, 121
};

static const ap_fixed<8,4> at1_fc1_weights[8*64]={
    90, -60, -38, 48, -2, 79, 39, -62, -124, -99, 24, -31, -72, -24, 85, 125, -100, 42, -72, 97, -32, -51, -108, -8, -84, 60, 98, 42, -124, -91, -79, -96, -122, -49, -94, -93, -39, -21, -80, -56, -115, 38, -113, 104, 5, 108, 91, 70, 107, 76, 94, -47, 107, -34, 97, -71, -105, -43, 37, -59, 122, 122, -97, -104, -108, 94, 100, 42, -40, 102, -49, 79, 7, -29, -47, -103, -31, -33, -88, 87, -49, -11, 16, 13, -31, -41, -120, 85, 72, 46, 58, -110, -26, 57, 6, 4, -117, 54, -119, 0, 10, -12, 53, -44, 88, 94, -94, 51, 103, -74, -29, 3, 126, 35, 117, -33, -96, -89, 90, -20, 103, -13, -47, 46, -11, -93, 34, -91, 124, -83, -45, 37, 77, -43, -35, -125, 5, -15, -79, -31, -109, -121, -67, -94, 89, -20, -107, -26, -93, -22, -24, -16, -39, 48, 105, -107, -123, -38, -104, 72, 92, -3, 30, 6, 126, -112, 16, 0, -56, -32, -7, -43, -29, 34, -53, 95, 36, -111, -127, -119, -13, 66, -119, -101, -57, 45, 36, 51, 95, 52, -98, -74, 123, -97, 97, 39, -84, 78, 2, -1, -8, 6, -112, -9, 74, -101, -7, 48, -82, 32, -10, 11, 106, 56, 17, 46, 78, -12, 116, 51, 113, 65, -12, 26, -91, -15, -45, 87, 3, -13, 6, 24, -73, -30, 45, 80, 30, -26, 25, -7, -84, 31, -54, 48, 55, -80, 6, -48, -51, -93, -30, -75, -35, 77, 87, 79, -124, -103, 40, 71, 121, 41, -67, -74, -16, -115, -69, 34, -18, 118, -12, -74, 112, 56, -116, -12, 66, 92, -12, -30, 21, -126, 53, 13, 120, 60, 64, -83, 118, -114, 95, -7, 70, -34, -93, -119, -83, 16, 72, 119, 58, 1, 115, -109, -123, -45, -64, 3, -116, -107, 4, 43, -127, 80, -96, -97, -13, -26, 59, -29, 127, 35, 116, -96, -36, -49, 79, -88, -108, -12, 115, -29, 49, -20, -72, 66, 39, -86, -26, 16, 17, -27, 121, -52, -24, -29, -126, -114, 9, 59, 113, 71, -62, 62, 26, 15, -84, -37, -105, -51, -59, 96, 54, 125, -9, 96, 59, 99, 83, -116, 74, -119, -9, 88, -53, 115, 9, 58, 65, -63, 79, 54, 124, 47, 35, 110, -103, -118, -80, -84, 66, -105, -45, -75, -109, -104, 60, -41, -12, 70, -78, -101, -98, -98, 20, 5, 106, -49, -98, -26, 21, 123, -65, -126, -10, 6, 127, -68, 61, 3, -13, 15, -75, -125, 13, 6, -27, 79, 108, 105, 2, 107, -95, 19, 50, -80, -86, 98, -54, 83, 118, 72, 6, 28, 107, 90, 61, -44, -124, 8, 61, 64, -60, 80, -38, 39, -86, 103, -45, 23, -5, -113, -54, 76, 0, 111, -85, 26, -44, 69, -90, 0, -30, -56, 54, -62, -68, -6, 9, 14, -77, 30, -79, -121, -83, 27, 113, 20, -46, -47, 89, 107, 13, -85, 5, -115, -77, 74, -109, -101, 12, 80, 110, -86, 125, 68, 121, 54, -8, -36, 85, -42
};
static const ap_fixed<8,4> at1_fc1_biases[64]={
    127, -127, -127, -127, 0, -127, -122, 0, 0, 0, 0, 0, 0, 0, 0, -125, 0, 0, 0, 127, -127, 0, 0, -127, -127, -127, -127, 0, 0, -127, -124, 0, 0, 0, 0, 0, 0, 0, 0, 0, 0, -126, 0, 127, -127, -127, 127, 127, 127, -125, -127, 0, 0, 0, 127, 0, 0, 0, 0, 0, 127, -127, 127, 0

};

static const ap_fixed<8,4> at1_fc2_weights[64*64]={
    63, -25, -38, -47, -39, -79, -103, 52, -16, 36, 19, -122, -59, -21, -94, 28, 106, -72, -67, 103, 73, -39, -23, 94, 113, -70, -19, -88, 90, -49, 71, -106, 120, -9, -109, -127, -68, 85, -56, -88, 88, 99, 24, -88, 93, 86, -34, 126, 38, -49, 68, 55, -110, -29, -93, -94, -65, -108, -1, 113, -122, -60, 12, -111, -120, 27, -121, -78, 117, 115, 72, 28, 73, 55, 1, 116, -72, -83, -110, 94, 27, -67, -19, 84, -100, 30, 81, -66, -28, 107, 89, 61, 7, 34, -66, -20, -23, -96, -125, 112, 35, -67, 102, 98, 10, 15, 58, -41, -110, 62, 60, 39, -55, 44, -105, -33, 57, 32, 14, -69, -60, 67, 89, -37, -18, 51, 19, 76, -56, 73, 54, -69, 122, 8, 105, 111, 120, -110, 127, -5, -69, 50, 83, 7, -81, -39, -124, -27, -33, -34, 112, 83, 93, 80, 3, -32, 32, 3, -57, -95, -110, 79, 111, 29, -44, -93, -115, -66, -95, -37, -99, 9, 40, 43, 23, 39, -34, -43, -114, 106, 65, 61, 110, -43, 15, -74, -17, 80, 91, 70, 76, 18, 45, -17, 29, 103, -118, 127, -25, 31, 45, 122, -37, 5, -61, 106, -124, 27, 92, 42, 84, -23, -38, -31, 87, 44, -51, -113, 57, -124, -81, -75, -90, 1, -73, 67, -103, 94, -58, -69, 30, -45, 95, -66, -47, 116, 11, -52, 42, -118, 9, -93, 15, -114, 73, -34, 117, -9, -121, -11, -59, -107, 71, 34, 72, -107, 44, 87, -96, -32, -48, -87, -43, 3, -61, 114, -18, 17, 115, -51, 14, -12, -60, -75, 97, -41, 103, -118, 88, 23, 76, -20, 30, 30, 22, 34, -42, 92, -35, 67, 110, 38, -16, 33, -76, 19, -3, 91, -48, -102, 11, -47, -76, 98, -90, 96, 98, 49, 56, -65, 16, 53, 70, 37, -37, -3, 38, 49, 114, 77, -107, -19, -83, 13, 55, -76, -11, -119, -5, -72, 94, 59, 74, -105, -62, -30, -122, -100, -88, -87, -117, 12, -125, 8, -30, -107, -85, -124, -22, -5, -116, 110, 42, 70, -90, 45, -30, 93, 78, 92, -118, -7, 71, -53, -5, 107, -18, -115, 3, 110, -22, -78, 85, -72, 15, -10, 100, 7, 91, 80, 83, -82, -3, 92, -76, 63, 81, 0, 109, -111, 62, -22, 34, 44, 64, 52, 5, -82, 59, -13, 104, 74, -88, 23, -115, 95, 16, 49, -14, -112, -79, -116, 18, 53, -84, -46, -63, 88, 119, -100, -43, 89, 23, -108, 54, -75, 101, -109, -29, 52, -120, 88, -105, -30, 22, 25, 109, -117, -88, 40, 44, 19, -93, -105, -59, 101, 5, 76, -47, -95, -22, -84, 110, -39, 20, 81, -84, -60, -14, 22, 101, -26, -62, -70, 79, -123, -93, -96, -46, 109, -84, -97, 33, 120, -110, -112, 48, 72, 73, -22, -26, 14, 71, 29, -12, -80, 5, 57, -124, -88, 50, 71, 71, 74, 0, -60, 81, -67, 34, 2, 42, -107, 57, -14, 51, 25, 51, -28, -84, -47, 65, -12, 37, -118, 45, -93, 54, 47, 11, -117, 93, -93, -76, -21, 113, -66, -84, 7, 90, 45, -110, -55, 83, 44, -76, -86, 43, -8, 14, 16, -73, -7, 76, 73, 68, -100, -21, 69, 62, -57, 84, 95, 87, -15, -92, 56, -23, 90, 87, 13, 41, 121, 62, 27, -27, 66, -75, -45, -6, -40, -49, 74, 24, -28, 61, 13, -33, -71, 11, -74, 68, 60, 70, -28, 11, 19, -68, -90, 75, 82, 13, -61, 90, -87, -124, 7, 6, -15, 99, 46, 54, 62, 116, 22, 33, -94, 69, 95, -44, -79, -35, -82, 100, -105, 20, 19, -105, -37, -63, 56, -33, 96, 71, -114, 58, 54, 24, -77, -84, -20, 109, 5, -13, 13, -123, 79, 81, 46, 45, -62, -119, 16, 74, 26, 17, -1, 122, -124, 39, 101, 36, -58, -63, 33, 84, -63, 113, -2, -3, -71, 64, 109, 77, -37, -90, 64, 9, -46, -32, -55, 72, -50, 64, 113, -7, 45, -36, -21, -105, -42, -19, -106, 22, -52, 84, -94, 86, -111, -24, -99, -25, 72, 87, -60, 89, -25, -1, -114, -45, 43, -119, -12, 13, 113, 73, 80, -98, -43, -122, -32, 13, -35, 113, -92, -100, 1, 13, -115, -47, -21, -66, -98, -5, 104, -70, -54, -52, -117, 40, -113, 23, -83, 1, 74, 83, 22, 38, 74, -99, 45, -100, -113, 53, -91, 84, 71, -109, -87, -21, -3, 49, 123, -96, -63, -87, 45, 29, 45, -65, 107, 57, 27, 48, 39, -85, 36, 34, 13, -69, -36, 68, 123, -73, -94, -109, 115, 42, -36, 119, -3, 103, -88, -96, -89, -29, -14, 90, -39, -24, -50, 93, 80, -93, 96, -92, -89, -71, -117, 65, -81, 16, -121, 43, 27, -76, 34, 114, -43, 107, -38, 113, 45, 97, -10, -90, 2, -104, -21, -66, -109, 90, -42, -17, 8, -101, -4, -43, -98, -78, -38, -94, 114, -116, 50, -10, 118, 85, -93, 108, -108, 102, -103, -105, 51, -41, -117, 40, 78, 6, -96, 32, 105, -86, -3, -36, 116, -54, -54, -114, 3, -89, -29, 29, 4, -39, -58, -12, -21, -52, -34, 124, -87, -100, 23, 34, -49, 42, -6, 13, 102, -68, 56, -14, -109, -1, -101, 70, 52, -69, 105, -61, 111, 101, 57, -57, -58, 9, -92, 98, 34, -117, -84, 12, 10, 106, -24, -53, 39, -71, 73, 63, -52, 106, -79, -19, -58, -123, 113, 83, -95, -40, 59, -24, -114, 26, -42, -18, 37, 19, -26, -71, -12, -95, 29, -82, -99, -17, 10, 101, 47, 108, 16, -80, -22, 20, -48, 6, -14, -40, -67, 90, 4, -99, -64, 92, 72, -31, -112, -118, 34, 71, -46, 95, -5, 123, 79, -105, -116, -104, 31, 98, -24, -18, -7, 67, 52, -94, -105, 45, 100, 39, -81, -112, 108, -63, 56, 48, -73, 43, -58, -119, -118, -99, -48, -89, 17, -111, 39, 86, 34, 5, 40, -29, 28, 102, -64, -85, -3, 117, -69, -29, 66, -14, 76, -60, 40, 28, 25, 56, 99, -101, 83, -85, 47, 5, -84, -5, 47, 85, -115, -79, -104, -67, 119, -104, 59, -113, 63, 16, -71, 116, 100, -64, 2, 122, -103, -25, 84, 61, -110, -16, -60, 102, 32, 3, -26, 25, 59, -120, -45, 101, -52, 47, -95, 86, 80, -14, 40, 8, -47, 80, 60, -107, -50, -91, 31, -61, -117, -71, 119, 70, -74, -108, -56, 106, -43, 112, 104, -56, 118, -97, 118, -122, -5, -59, -30, -54, -92, -93, 109, 21, -103, -21, 118, 121, -30, 117, 121, -9, 98, 6, 3, -96, -5, 108, -73, 74, -123, 93, 59, -37, 44, -117, -91, 7, 47, -45, 113, 80, -111, 56, 80, -64, -115, 24, -113, 63, -59, 4, -69, -55, 93, -99, -87, -60, -50, 20, -37, 4, 105, 114, -95, 117, -115, -118, 65, 10, -102, 57, 95, 116, -86, -116, -111, 68, 43, 17, -44, 96, -69, -106, 67, -62, -111, 32, -72, 57, 34, 105, -82, 43, -92, -28, -20, 99, -111, 6, 30, 14, -14, -109, 0, 109, -81, -15, -85, 22, -17, -109, 103, 107, -54, -108, -67, -96, -105, 24, -112, 57, -66, 60, 109, -40, -113, 75, -41, 4, 65, 73, -48, -69, 112, 57, -56, -114, 13, 97, 57, 84, -6, 40, -30, 50, -38, 4, -109, -28, -20, 8, 53, 70, -84, 0, -98, -3, -104, 32, 105, 28, 120, 52, -27, -24, -51, -29, 112, -118, 49, -34, 125, -91, -106, 26, 84, 25, 117, -90, 103, 32, -45, 66, 107, -59, -26, 72, -122, 108, 102, 11, 12, 39, 123, 59, 93, 82, 16, -61, 48, 67, 70, -65, -122, 71, -127, 121, -107, -80, 95, -80, 30, 2, -98, 17, 10, -76, 20, 11, -102, -47, 13, -13, -102, -47, 104, -10, 31, 124, 21, 70, 105, -54, -116, -103, -91, 43, 106, -12, 51, 115, 80, 27, 77, 0, 107, 44, 111, 16, -71, 55, -69, -55, 4, -95, -121, -101, -10, -88, -39, -46, 45, -3, -54, -2, 15, -3, -2, -39, -104, -55, -67, -75, -70, 95, 66, 49, -92, -68, 15, -66, -123, 22, 15, 121, -111, -22, 69, 5, -35, -90, 37, -66, -26, -113, 88, 11, 29, 66, -64, -32, -2, -84, 27, 87, -19, 114, 105, 18, 34, 108, 35, -36, 114, -39, -38, -19, 34, -73, 11, -5, -76, 113, 97, 99, 19, -108, 86, 14, 112, -87, 47, 46, 64, -53, -105, -60, -35, -20, 88, -62, 73, 107, -123, -81, -122, 12, 117, -121, -46, -43, 108, 110, -120, 54, 63, -124, -26, -10, 61, -25, 61, -76, -57, 73, -122, 45, -95, -3, 93, 37, 89, 122, 3, -7, 77, 46, 83, -103, -119, 50, 6, 107, 50, -32, -40, -70, 120, 92, 60, 103, -64, 124, 7, -5, 13, 10, 102, 101, -52, 68, 51, 56, 33, 8, 40, -67, -63, -75, -73, 69, 22, 39, 8, -29, -98, 0, -48, 113, 101, 93, -70, 72, 75, -95, 88, -67, 123, -28, 46, -101, -68, 100, -89, 0, -34, 86, -2, -31, -113, -92, 94, 7, -72, 107, 34, 42, 83, -50, 46, 110, -45, 18, 122, 53, 0, -30, 80, -109, 105, -47, -65, 13, -59, -40, 98, -39, -73, 19, 39, -51, 38, 83, -94, -13, -112, -30, 120, -116, 94, -35, 29, -94, 81, 37, -104, 62, -73, 92, 86, 105, -71, -6, 77, -103, 88, -111, -89, -105, 71, 89, -104, -35, -114, -100, 54, -61, 60, -18, -48, -95, 8, 80, -74, 102, 68, -19, -51, -63, 0, -103, -86, -65, 82, -77, -63, 4, 78, 31, 112, 8, -16, -62, -115, 79, -103, 36, 13, -105, 106, 0, -33, 47, 127, 121, 78, -97, -42, 32, -8, -37, -82, 109, 42, -118, 38, -97, -41, 92, -107, -52, -82, -85, 55, 63, -20, -93, 90, 2, 99, 69, -76, -60, -121, -2, 104, 93, 73, 52, 96, 110, -102, -4, -78, 66, -21, -19, -114, -3, -104, 64, -79, -76, -104, -40, -97, -67, -44, 108, -23, -44, 15, -9, -75, 115, 40, -85, -81, 14, -116, 68, 107, 74, 98, -90, 92, 98, -112, 42, 43, -83, -64, -99, 126, 10, -48, 46, 80, 4, 47, -75, -27, -44, -1, 62, 57, -111, -15, 34, 71, 47, 23, -83, 2, 84, -44, 20, -53, -94, -81, 4, -8, -100, -43, 60, -47, -69, -8, 31, 106, 50, 94, -95, -62, 123, -41, -32, -44, -52, -114, -41, 7, 69, 103, 83, 53, 55, -39, -116, 19, 64, 37, -59, -57, -96, -122, 29, 122, -119, 45, -63, -111, 15, 81, -7, 64, 9, -123, 11, -92, -67, -117, -124, -36, -107, 40, 46, 66, 121, 96, -31, -62, -42, -45, 40, -88, 8, 39, -97, 36, 88, -65, -74, 67, -27, 87, 37, 16, 47, 12, 6, -109, -109, -14, -100, -55, 32, -77, 59, -115, 99, 99, -88, -86, 28, -80, -115, -38, 58, 102, 58, 88, -16, -51, -101, 96, -9, 83, 81, 54, 91, -73, -21, -38, 69, -91, -58, -40, -70, 0, 24, -118, 10, -76, -43, -94, 72, -31, 88, -60, -54, -13, -23, -22, -23, 31, -62, 49, -14, -47, -90, 82, -69, -57, 111, -16, -17, -85, 38, 30, -32, 4, 112, 55, -120, -89, 5, -101, -38, 27, 121, -31, -46, -99, -19, 98, -39, -38, -53, -65, 113, 88, 58, 29, -90, -32, 97, -118, -70, -53, -23, -103, 34, 98, 13, 39, 113, -21, 92, -44, 90, 33, -97, 59, 121, 108, 8, 44, 12, -43, -20, 15, 20, 0, 10, 71, -62, -123, -111, 9, 72, 19, 17, -76, 3, 116, 20, -99, 26, 110, -1, 12, 48, -17, 59, 18, 35, 119, 115, 14, 32, 75, -62, -51, 74, 13, 33, -26, 66, 47, 44, 15, -90, 108, 74, 11, 85, 90, -8, -34, -85, 24, -36, 78, 84, 90, 80, -47, 83, -41, -122, -27, 13, 88, 66, -122, 32, 25, -121, -40, 36, -60, -2, -79, -98, 119, -36, 44, -36, -108, -83, -37, 25, 52, -75, 28, 4, -107, -95, -109, 54, -53, 109, -58, 90, 67, 47, 19, -20, 60, -73, 22, 5, 67, 97, 14, -116, -35, -38, -32, -29, -52, 4, -67, -77, 117, 28, -2, -32, 98, 5, 0, -96, 118, 87, -73, 52, 40, 2, 96, 28, -53, 102, 44, 86, 124, 98, -65, 106, -121, 102, -117, -25, -117, -86, 74, -33, 25, 49, 105, -2, 84, 76, 50, -3, 42, -66, 37, -80, -72, 113, 99, 36, -24, 12, -84, 58, -9, -97, -55, 104, -90, 63, -118, -71, 53, -91, -31, -110, 103, -44, 92, -31, -13, 119, 101, -17, 80, 78, -111, -24, 15, 110, 53, 41, 119, 78, -7, 87, 118, -110, -8, 100, 122, -91, 106, 53, -20, 72, 36, -46, 4, -77, 103, -37, -100, 91, 114, 117, 6, -104, -51, 112, 85, -84, -79, 73, 62, 17, 65, -63, 18, -17, 77, -54, 106, 102, -121, -68, -50, 49, -30, -78, -72, 34, -83, 74, -82, 25, -69, 59, -84, 19, 120, -9, -44, -114, -88, 51, 63, 15, -22, 70, 33, 82, -14, 38, -59, -90, -61, 89, 94, 60, -70, 76, 9, 46, -68, -49, 66, -21, 97, 110, -38, -41, -71, -103, -40, 19, -5, -38, -51, -19, 49, -79, 5, -79, 55, -122, 86, -33, -19, -121, 110, 66, -120, -99, -14, 122, -5, 115, 71, 77, 5, -34, -6, -104, 51, -120, -43, 23, 113, 69, -74, 37, 18, 43, 82, 82, -32, 115, -76, -75, -44, -13, 50, -42, 117, 1, -97, 37, 26, -98, 114, -43, -4, -13, -99, -95, -86, -101, -45, -66, -21, -83, 30, 85, 120, -86, 11, -46, 122, 43, 27, 12, 75, 109, -58, -31, 99, 93, -12, 99, -13, -16, -84, 20, 37, -44, 12, 105, 62, -93, 96, -110, 42, 27, -112, 78, -8, -51, 100, -12, -50, 13, -21, -50, 89, 18, -96, 42, 15, -48, 44, -82, -42, -17, -5, -34, -45, -4, -114, 2, -113, 106, 46, -101, 76, -76, -22, 7, -9, 84, -107, 24, -101, -55, 37, 53, -99, -20, -25, 74, 79, 41, 40, 11, -118, 103, -22, 57, 33, -44, -1, -16, -68, -29, 27, 65, -93, 51, -104, 10, -44, -16, 17, 0, 28, 77, 22, -114, -90, -60, -94, -57, -120, -34, -42, 54, -34, 83, 122, -107, 67, -17, -81, -38, 75, 73, 101, -112, 84, -43, -120, 107, -47, 97, -22, -55, 117, -77, -93, -101, -56, -47, 58, -95, -50, -15, -31, -20, 57, -75, -21, 74, -57, -35, -23, 118, 95, 87, -61, -12, 76, 92, 11, 73, 121, 5, -40, -85, 11, -55, -44, 115, -7, -31, 61, 83, 70, 5, 80, 57, -67, -25, -47, -42, -71, -107, 57, 59, -121, 47, 8, 55, -85, -34, 25, 27, 64, -70, 8, -100, 49, 71, -89, -109, -115, -5, 102, -71, -88, 35, 23, -61, 87, 0, -115, -83, -121, -26, 40, -101, -106, 79, 28, -59, 13, -36, 21, -107, 15, -66, 0, 114, 28, -58, -82, -11, 42, 17, -1, 105, 87, -119, 56, 86, 71, 119, -122, -49, 108, 21, 45, 97, -108, 102, -9, 45, -124, 92, -20, 56, -73, 80, -42, 31, -105, -47, -27, -89, 41, 93, -106, -113, -122, 32, 25, 2, -59, -42, 118, -40, 81, -3, 89, 74, 80, 5, 110, 26, -112, -65, -49, 112, 61, 89, -70, -2, 79, 47, -89, -30, -11, 15, -36, -87, -17, 75, 73, -16, 14, -64, -78, -57, 23, 61, -98, 53, 96, -31, 93, -34, 91, -61, -79, -115, 73, 71, 81, -64, 33, -95, 110, -3, -34, 56, -99, 64, 95, 76, -49, -4, 89, 44, 87, -60, -17, -81, -83, -102, 101, -42, -86, 52, 14, -103, -92, -4, -14, -8, -85, 107, 89, -99, -76, -124, 48, 45, 31, -37, -18, 44, 33, -55, -63, 14, -41, -13, -57, -107, -61, -51, -47, 22, 97, -112, -107, -23, -8, 111, 41, -36, 54, -21, -124, -36, -121, 33, -115, 54, 54, 84, 113, 65, 69, -92, -76, -12, -17, -29, 120, 4, 11, 36, -64, 88, -30, -25, 69, -52, 9, 113, -42, 59, 59, 96, -47, -65, -115, 86, -52, 84, 117, 52, -78, 13, 113, 1, -111, -21, 28, -27, -5, 57, -49, -17, 94, -22, -56, -76, -86, 6, -32, 108, -13, 14, -111, -41, -35, -9, 9, -79, 34, 72, -78, -62, -92, -80, -67, 32, -48, 118, 114, -72, 116, -37, 98, 55, -15, -1, 86, 112, -114, 35, 83, 80, 39, 112, 118, 115, 41, 67, -101, -97, 96, 71, -73, -40, -103, -103, -17, -96, 50, 8, 116, 106, -13, -118, -87, 117, 101, -31, 37, -95, -10, -59, -77, 44, -120, -70, -106, 121, -123, -86, 93, 38, 16, -9, 67, -79, -91, -118, 78, 76, -49, 67, 58, -82, -4, 67, 62, 6, -12, 100, 37, 85, 61, -92, 23, 70, -47, 80, 87, -61, 70, 35, -94, 112, 123, 63, 96, -29, 9, -48, 55, 4, -90, -101, 23, 60, -69, 27, 66, 73, -117, -56, 26, 118, 46, 0, 95, -52, 74, -96, -98, 20, -110, -112, -74, 107, 22, -46, 72, -30, -40, 25, -61, 4, 39, -117, 100, 36, -18, -60, -52, -116, -96, -33, 34, 39, -110, 101, -58, 4, 13, 35, 33, 101, -97, -108, -38, 122, -40, 47, 51, -116, 76, 124, -30, -77, -108, 43, -31, -74, -16, -55, -41, 63, -73, 42, -19, -56, 1, -46, -49, -64, 76, 121, 93, -27, 79, -96, 83, -20, 14, -119, -27, -28, -7, -35, -112, 3, -46, -44, 118, -43, -33, 56, -68, 76, -89, -71, -77, 54, -10, -10, -49, -121, -100, -35, 100, 40, -73, -23, -17, 90, -43, 21, -55, -38, -126, -71, -74, -59, 57, -116, 22, 53, 88, -92, -105, -113, 5, -27, -101, -3, -70, 119, -51, 51, 46, -77, 44, -33, -47, 69, 88, 50, 61, 84, -79, 72, 27, 16, -66, -24, -69, -82, -113, -77, 102, 84, -50, 44, 49, -118, -46, 93, 55, 88, -60, -8, 4, -7, -22, -98, -64, 109, -2, 83, 107, 14, -32, -10, -117, 56, -17, 22, -53, -104, 20, -126, 117, 65, 39, -33, 91, 114, 0, 23, 14, 50, -93, -119, -91, 44, -83, 107, 22, -89, -123, -83, -32, -51, -99, 51, 60, -29, 51, 59, -41, 52, -92, -106, -27, 63, 83, 98, 41, 100, -80, 84, -23, 41, -2, 60, 44, 69, -40, -59, -108, 4, -75, 6, -100, 33, -22, -117, -104, -117, -113, 56, -39, 121, 46, -9, -118, 5, 101, -82, -41, 42, -15, 107, 81, -61, 35, -97, -34, -111, -69, 78, -65, -78, 109, 76, 113, 47, -95, 20, 42, 15, 64, -59, 1, -10, 58, 20, -98, -52, 19, 63, 45, 45, -64, -62, -100, -61, 116, 66, -36, -68, -70, 2, 36, -59, 62, 24, -18, -82, -57, 74, -28, -116, 19, -95, 70, 12, -71, 54, 83, 12, -7, 53, -41, -56, -8, -106, -85, 99, -38, 41, -23, -98, 100, -107, -91, -83, 14, -104, -91, 84, 78, -57, -15, 119, -47, -63, -48, -99, -31, -17, 47, -29, 21, -22, -92, 42, 36, -120, 35, 23, -55, -114, -95, 118, 50, -11, -28, -68, -106, -50, -40, 6, 27, 11, 37, -75, 103, -113, -59, 92, 76, 109, 94, -5, -85, 52, -114, -24, 60, 74, 12, 8, -97, 109, 51, -45, 57, -43, -42, 25, 88, 56, -19, -7, 38, -31, 123, -121, 53, 3, 78, 90, 58, -92, -2, -87, 29, 26, 75, -2, 93, 117, -102, 118, 86, 81, -35, 27, 105, 17, -100, -81, -44, 43, 1, 20, -72, -29, 82, -91, 52, -1, 123, 122, 101, 36, -78, -17, -64, 110, -31, -123, 55, -26, 86, -118, -89, 116, -100, -108, -22, -44, -95, -79, -104, -14, -18, -117, -50, -121, -30, 87, -44, -14, 86, -108, -113, 8, -101, 90, 86, -114, -59, -59, 31, -85, -111, 105, 88, 85, 2, -40, 114, 61, 48, -2, 18, -122, -53, -120, 26, -121, -1, 95, 66, -6, 73, 115, 61, -89, -34, 44, -58, 124, 76, -75, -55, -32, 22, -88, 89, -21, -93, -115, 106, 73, 88, 100, 48, 29, -1, -104, -89, 49, 72, 95, 115, 100, -96, -25, -31, -97, -116, 1, -14, 108, -18, 65, 62, -101, 29, 99, -84, -78, -57, -108, -12, 62, -118, -49, 17, -73, -68, 80, 77, -29, -7, 33, 108, -92, 16, -40, -90, -49, -76, 118, -19, 109, 37, 98, -102, 51, -4, -72, -91, 55, -26, -80, 117, -61, 57, 74, 35, 122, -115, -9, 17, -6, 59, 49, -119, 21, -87, -28, -64, -31, 105, 9, 115, -67, 55, -110, 37, -15, 88, 50, -119, 79, 4, -31, -121, 32, -59, -80, -47, 23, -68, -88, 83, 34, 55, 20, 47, 7, -21, 40, 111, -3, 36, -95, 60, -102, 21, 10, -110, 93, 20, -106, 41, -63, -10, -85, -21, -5, 55, -57, -74, 10, 108, 39, 13, 53, 38, 29, -92, -120, 8, -55, 18, -109, -88, 112, -24, -84, -6, 41, 68, 72, 78, -77, 91, -40, 66, -124, 73, -92, 114, 61, -50, -90, 13, 112, -110, 83, 114, -64, 57, -104, -111, -117, -70, 120, -90, 24, -17, -107, -104, 101, -103, -59, 105, -95, -51, -66, 32, 9, 64, -6, 11, -28, 7, -25, 65, 2, 114, 80, -109, 101, -62, 4, -65, -44, 39, 77, -27, -96, -23, 87, -68, 29, -5, -7, -6, -124, 95, -57, -119, 63, -75, 63, 66, 120, -90, 27, -58, -62, -112, 102, -116, -37, -72, -72, -97, -2, -47, 92, 117, -67, -101, -48, 63, -64, -68, 59, 50, -57, -55, -56, -16, 55, 22, 22, -107, -42, -20, 107, -78, 66, 112, 112, 12, 8, 48, -61, -112, -61, -42, -2, -28, 72, -118, 105, 30, -28, 113, 119, 9, -36, 9, -96, -82, 58, 75, 59, -109, -50, -107, -45, 101, 81, 52, -11, -50, 15, -34, -18, -63, -59, 25, -34, 37, 17, 58, 61, -36, 10, -105, -68, 107, -27, -110, -24, -110, -86, -89, 95, 77, -58, -86, -16, -86, 20, -92, 44, -36, 61, -41, -100, 58, 40, 62, -53, -87, -8, -65, 78, 95, -80, -60, -80, 36, -47, 71, -15, -19, -83, 114, -31, 105, 22, -26, 70, 100, 98, 102, -121, 122, 117, -41, 107, -27, 52, -45, -70, -79, -68, 63, -116, -82, -64, 122, 108, -73, 32, 33, -70, 71, -21, 11, -59, -73, 84, -90, -61, 18, 81, -86, 18, 95, 26, -30, -38, 6, -38, -59, 31, -27, 109, 100, -20, 101, 19, -8, -12, -94, -20, 48, -16, -73, 55, -62, 124, -28, 45, 62, 34, 87, 0, 111, -71, 3, -119, -15, -93, -14, 54, -123, -43, -96, 66, 69, -119, 1, 13, 84, -54, -110, -121, -92, -59, 18, 14, -108, -31, -102, 45, 49, 118, 35, 6, -40, 98, -25, -53, -50, 29, 84, 110, -104, 108, -102, -49, 78, -20, 107, 12, -13, -87, 82, -120, 109, 17, 4, 81, -48, -4, -94, -98, 9, -92, -108, 116, -48, 120, 4, 97, -25, -79, 80, -97, 31, -34, -85, -86, 50, 38, -79, -23, -60, -50, 21, -96, 106, 51, -18, -45, -116, 99, -11, -72, -82, 64, 62, -60, -11, 50, 115, 79, 16, -66, -117, 10, -14, 81, -28, 77, -101, 8, 44, 39, -6, -77, 74, -110, -93, 25, 119, 104, 14, -85, 90, -15, 45, 106, -21, 18, 117, 45, 75, -69, -2, 42, 5, -84, -64, -44, 46, 72, -68, -71, -10, -110, -9, -86, 108, -58, -39, -73, 4, 102, 73, -77, -22, -37, 54, 18, -77, -53, 27, 94, -90, 1, 74, 37, -26, -113, 10, -2, -37, 123, 3, 7, -125, 34, 55, 19, 80, -53, -103, -44, 112, -32, 88, 100, -48, 117, -10, -109, 119, -66, 86, 4, -98, -65, 97, -23, 79, 96, -102, -116, 78, -123, -60, 70, -27, 97, 50, 69, 102, -101, 116, -120, 21, -106, -36, -22, -12, -74, -104, 55, 71, -20, 116, 52, -119, 11, -6, 94, 28, -90, -72, -98, -50, -112, 45, -53, -45, 33, 74, 118, -3, 108, 104, -5, 57, 19, 80, -71, 113, 70, -118, 10, 118, 116, -110, -58, -21, 87, 48, -116, 73, -34, -75, 11, 66, -10, -29, -79, -62, 31, 107, 46, 67, 37, -1, 49, 78, 58, 31, 88, -120, -7, 50, 29, 116
};
static const ap_fixed<8,4> at1_fc2_biases[64]={
    127, 125, -100, -127, 79, 101, -127, 3, 127, 127, 127, -124, 125, -126, -102, -127, -125, -64, -127, -127, -96, -71, -127, 126, -20, -103, 126, -37, -127, -10, -23, 123, 123, -124, -126, -127, 4, -103, 73, 127, 123, 119, 112, 125, -14, -100, -126, 105, -92, -127, -125, -71, -127, -127, 126, 126, 18, -114, 58, -122, 1, -124, -84, -105
};
static const ap_fixed<8,4> at2_convolution_weights[128*16]={
    -66, 50, -78, 117, 37, 41, -14, -62, 106, -103, -15, -82, -83, 90, 20, 30, 58, 19, 74, 60, -83, 100, 16, -34, -71, -25, 63, 74, 110, -31, 101, 23, 25, 26, -114, 120, 37, -4, 46, 56, -104, -91, -95, 122, -25, -22, 73, -106, -35, 9, -50, 46, -126, -75, -39, 7, -70, -12, 65, 79, -44, 113, 54, 1, -72, 85, 113, 31, -99, -80, -32, -52, -69, -57, 60, 55, 76, 108, -60, -32, -68, 90, 110, 78, 81, 27, -78, 39, -70, 111, -62, -114, 63, 95, -95, -123, -127, 8, -122, -56, -9, -83, -35, 25, 16, -28, 71, -102, 37, 2, -84, -90, -92, -47, 70, 17, -109, 67, 3, -57, -108, 125, -58, -118, 30, -33, 77, 104, -47, -22, 47, -44, 10, 65, -19, -72, 22, 92, -106, 38, -79, -114, 54, -48, -3, 28, 15, -65, -80, -126, 81, -36, -7, 90, -35, -69, -11, -41, 84, -21, 32, -119, 85, 36, 15, 22, 98, -85, -40, 111, -9, 79, 98, 10, 116, -95, -65, -69, 88, -119, 48, 124, 47, -117, 14, -48, 94, -90, 105, 63, 58, -23, 42, -91, -108, -89, 84, -12, 57, -75, 69, 108, -4, 112, -15, -81, 82, 116, 119, 74, 30, -68, -120, -11, 1, 126, 21, -65, 28, 118, 10, 47, 49, -43, 85, -21, 84, 8, 98, -125, -41, -101, 35, -90, -46, 85, 126, -37, 107, -46, -95, 12, -112, -30, 42, -87, -36, 122, -26, -125, 18, -60, 19, 60, -109, 109, -103, 121, -117, 51, 76, -62, 121, 59, -35, 118, 101, 36, -94, 79, -101, -107, 96, -114, -62, -103, -76, 87, -58, -45, -23, -9, -73, -58, -116, -65, -38, -102, 75, 98, 24, 37, 34, 105, 94, -13, 11, -45, -63, 99, -105, 63, -83, 28, -89, 10, -56, 31, 49, 7, 76, 40, 5, -79, -19, -4, -9, -105, 86, -9, -95, 79, -42, -63, -79, -5, -22, 71, 49, 87, -122, 100, -68, -71, -42, 15, -99, -1, 32, -10, -54, -126, 57, 62, -97, -103, -26, 68, 9, 82, -78, 75, -56, 63, 11, -6, 33, -58, 1, -33, -8, 113, -78, -37, -78, 105, 100, -115, 44, 106, 25, 88, 13, 72, 119, -96, -79, 92, 0, -66, -120, -100, 23, -80, -39, 100, 14, 1, -108, 62, 54, 109, -40, -4, 18, -49, 101, 102, -117, -121, -45, 40, -84, 84, -74, -20, 99, -77, 37, 33, -74, 87, -35, 97, 19, 29, -34, -40, 35, 28, -55, -33, 25, 72, -104, -31, -125, -62, -12, 42, 64, -89, -29, 56, -118, 31, -117, 4, 66, -103, 99, -101, -90, 45, -63, -14, 77, -105, 93, 89, 13, 72, -4, -43, -78, -78, 94, -37, -85, -112, -96, -80, -4, 48, -116, -117, 121, 113, -22, 23, 115, 28, -86, -82, -106, 44, 79, 56, -41, -68, -11, 65, 49, -14, -32, -30, 0, 59, -64, -96, 41, -74, 109, -2, -63, 17, 96, 111, -35, 119, 82, -125, 39, -1, -3, 46, -48, -34, 112, 29, 39, -124, -81, -89, 59, -24, -123, 46, 118, 4, -29, 37, -20, -92, 5, -23, -62, 85, -70, -26, 61, 24, 101, -31, -83, -82, -43, 82, -120, 64, -3, 11, -100, 98, -46, 16, -52, -65, 110, -108, -118, 59, 112, -43, -12, -93, -71, 77, -63, -97, -111, 9, -20, -35, -89, -78, -124, -16, 71, -33, -29, -104, 106, -113, 68, 41, -112, -45, 70, -77, -44, -73, -97, 117, -124, -4, -51, 24, -104, 24, -104, 104, -56, -35, -98, -93, -22, -104, 125, -17, -84, 108, 105, 13, 27, 47, 107, -20, 13, 68, -51, 104, 24, -3, -76, -107, -105, -52, -31, -45, 28, 75, -99, -103, 63, -85, 84, 59, -76, 22, -45, 32, 42, 10, -28, -4, -50, -22, 97, -4, 89, -106, 19, -10, 52, 111, 27, -3, 112, 3, 14, 3, -36, 57, -32, -72, -71, -10, -110, -42, -109, -107, -97, -37, -88, 119, -64, 100, 109, -21, -2, -43, -74, 94, -80, 109, -119, 96, 86, -41, -93, -27, -70, -3, 79, -34, -87, 26, -40, -22, 57, -55, 50, 21, -83, -41, 57, -21, -93, 119, -58, 19, 92, 26, -26, 89, 17, 5, -38, -17, -85, -52, 51, 32, 83, 38, 49, 32, 36, -44, -107, -42, 17, 114, 74, 58, -112, 99, -24, -42, -65, 34, -68, 81, 102, 38, -61, -27, 78, 66, 55, 4, -23, -95, -120, -114, -15, -92, -103, 54, 100, -62, -50, -62, 102, 20, 59, -93, 1, -13, -29, -112, -122, 84, -81, -32, 113, -61, -11, 120, -11, 41, -78, 12, 15, 66, 79, 21, 96, 19, 30, -39, 34, -69, 52, -15, 15, -25, 66, -5, 83, -103, 115, -98, -30, 31, -110, 77, -75, 70, 58, 87, 117, -112, -82, -67, -100, -92, -108, -88, -4, 22, -101, -70, -100, -33, 44, -28, 1, -73, 13, -34, -44, 110, 14, -102, 101, 9, -81, 29, 100, -83, -86, 16, 110, -96, -113, 103, -35, -115, 124, -69, 112, 73, 78, 47, -80, -95, -109, 37, 92, 112, -32, -105, 46, 114, 87, -28, -22, 88, 109, 50, 31, 126, 68, -66, 90, -63, -61, -116, 59, -104, -34, 75, 115, -100, -73, -81, 5, -85, 127, -47, -125, -22, 55, -57, -90, -15, 67, -4, -69, -74, 105, -37, 117, 52, 19, 73, -7, 59, -89, -63, 41, 124, -55, -34, -53, -68, -5, 23, 14, 57, 40, 21, 56, -7, -42, -64, 114, 6, 110, 117, 47, -25, -74, 80, 39, 75, 90, 68, -113, -87, -106, -21, 15, 65, 106, 60, -44, 17, -57, 49, 117, 48, -56, -79, -36, 28, 66, -43, 6, -51, -73, 109, -75, 16, 58, -21, 79, -90, -58, 110, 46, 1, 97, -36, -78, 64, -35, 122, -57, 33, 47, 116, -107, -95, -65, -44, -41, -73, -78, 35, 53, -118, -61, 26, -105, -53, -98, 22, -116, 41, -25, 71, -122, -115, -1, -92, 5, 60, 84, -96, -11, 92, -46, -118, -2, -98, 58, 53, 125, -42, 46, -104, 71, 109, -112, 71, 33, -111, -82, -87, 14, 96, -86, 74, -26, 83, 30, 110, 59, -67, 62, -80, -75, -59, -62, 63, 71, -45, -10, 79, -125, 37, 50, -118, -8, 74, 34, 81, 3, -66, -35, -4, -119, 52, -25, -120, 17, -11, -109, 70, 81, -10, -39, 15, 119, 93, 118, -66, -16, 82, 27, -45, 112, 12, -38, -82, 21, 124, 29, 30, -65, 70, -93, 107, -28, -47, -80, -116, -23, 87, -95, -21, 42, 76, 105, -71, -9, 14, -32, -10, -9, 17, -79, -48, 115, -17, 57, -88, 27, 2, 117, -74, 82, 69, 43, -1, 67, -119, -111, 84, -104, 107, 28, 40, 124, 98, -17, 30, 103, 23, -85, -34, 41, 63, 39, 26, -121, -77, -102, -33, -117, 82, 124, 6, 14, -90, -66, -109, -60, 54, 7, -108, -3, 4, 5, 24, -30, -56, -87, -48, -97, 7, -23, 104, -80, -80, -67, 79, -106, 115, 40, 90, -30, 40, 108, 100, -109, -11, 96, -58, -101, -43, 101, 51, 53, -94, -70, 6, 54, 63, -17, 54, -80, 91, 46, 26, -14, 93, 78, -12, -45, -75, 123, -14, 74, 30, -3, 101, 84, -117, 56, 89, -22, 116, -78, -13, 124, 27, -107, 89, -49, -38, -96, 42, -24, 102, -23, -48, 83, -78, -98, 61, 53, 68, 105, 47, -23, -97, -67, 119, -48, 8, 84, 114, -47, -59, -12, 39, 74, 106, 73, -119, 110, -90, 47, -76, 40, -8, 22, -85, -11, -96, 20, 58, 58, -62, -3, -17, 38, 76, 64, 45, -83, 102, -19, 20, 35, -39, 66, -116, -34, -57, 69, -122, -47, 64, -78, 8, 102, -42, 29, 121, 108, -123, -37, 55, -120, -36, 8, 1, -121, -105, -57, -96, 104, -10, -70, 50, 77, -73, -69, 25, -103, 102, 104, -90, 0, 111, -17, 118, -30, -101, -97, 94, -40, -16, 40, -21, -33, -3, 30, -41, -85, 45, 54, -36, -125, 96, -99, -110, -86, 14, 68, -103, -111, 32, -52, 1, -69, 27, 31, -92, -23, 13, 59, 78, 118, -18, -37, 55, 16, -39, -33, 99, -99, -103, -40, 125, 72, -85, -83, 17, 22, 5, 92, 93, 103, 7, -3, 51, 106, 51, 100, 47, 94, -59, -97, 90, 96, -101, -62, -103, -125, -77, 69, -39, -95, 19, 105, -98, 8, 109, 31, -5, 103, -59, 45, 114, -113, -112, 120, 54, -125, 6, 10, 55, 24, 120, -26, 93, 20, -94, -54, -86, -13, 78, -120, -86, -108, 58, 65, 115, 14, -54, 62, 45, -19, 47, 118, 46, -101, -84, -79, 110, -30, 27, 120, -81, 118, -107, -6, 74, -81, 14, -74, 32, 53, 37, 12, -52, -68, -30, 39, 116, -80, -37, -68, 70, 102, -112, 76, 88, 115, 18, -121, 37, 114, 76, 1, 37, 99, 74, 72, -107, 94, 95, 3, 59, -8, 89, -47, -36, -43, -86, 38, 17, 13, -3, 71, 125, -70, 27, 64, -83, -104, -79, -92, -107, 40, 73, -24, 87, 123, 25, 101, -108, -68, 39, -107, 78, 28, -98, 116, -18, -40, -34, 57, 97, -96, -110, -85, 102, 61, 19, 65, -100, 126, 5, 3, -85, -117, 39, 55, 7, 107, 120, -1, -100, 5, 24, 105, -109, -74, -30, 7, -100, -108, 11, -24, 33, 22, 24, -58, 94, -9, 90, 63, 77, 47, -45, 36, 39, -99, -90, 94, 51, 105, 20, -109, -28, 19, -50, 61, 80, -51, 51, 19, -64, 100, -50, -120, 98, -11, 60, -39, -124, 81, 2, 35, -24, -57, 108, 99, 9, -44, 75, 60, 47, 36, -59, -127, 29, -87, -49, 38, -112, -31, 99, 59, 14, 118, 48, 29, -49, -96, -78, -62, -105, -36, 40, -47, 10, -9, -103, 117, 43, 83, -96, -23, 17, -85, 7, 59, -17, -40, 50, 71, 107, -50, 29, 39, 100, -2, -37, 25, 119, -108, 21, 122, 114, 45, -44, -68, 83, -72, -97, -54, 9, 38, -87, 5, -102, 118, 18, 63, 20, -41, -88, -121, -69, 50, -111, 57, 56, 1, 41, 93, 78, -68, 38, -65, 52, -5, -97, 68, 26, 97, 115, 28, -99, -109, 10, -1, -99, 19, -82, 35, 62, 104, -118, -24, 36, -56, 42, 40, -119, 62, -42, 74, -51, 92, -89, 11, -74, 17, -54, -11, -1, -73, -59, -85, -79, 29, 43, 72, 33, -109, -62, 2, 78, 58, 38, -56, 51, 108, -104, 58, 30, 9, -50, 94, -99, -11, 77, -117, -31, -101, 14, 3, -68, -21, -4, 51, -94, 14, -88, -70, -123, -107, -123, -108, 97, 13, -14, 67, -122, -118, 55, 115, 122, -114, -24, 8, -2, 61, -46, 105, -66, -51, -26, 105, 32, -27, -49, -108, 49, -4, 69, 61, 110, -79, -34, 97, 115, -109, 58, 121, -88, -54, 101, 115, 92, 3, 123, 18, -112, 68, -19, 76, -70, 108, -102, 24, 108, 12, 70, 31, 27, -106, 105, -19, 78, -41, 31, 14, 1, -110, 25, -77, -62, 115, -32, -17, 3, -64, -91, -112, -6, -71, -40, 48, -29, 102, 20, -12, -115, 117, -12, 7, 87, -124, 37, 5, 5, 6, 105, -91, 41, -121, -52, 49, -82, 105, -44, -57, -97, -66, 70, 122, 77, 110, -51, 58, -41, 32, 43, -86, 53, 61, -109, -4, 41, -119, 103, -47, -24, -68, -5, -4, -11, 63, -76, -84, -68, -66, -64, -110, 12, 5, 118, 91, -38, 96, -97, -85, -4, 15, -3, -40, 62, 82, -112, -102, -70, -28, 31, 75, -31, -118, 94, 34, -98, -1, -30, 91, 62, -55, -6, 102, -111, 126, -4, 112, 122, 8, -56, 53, -64, 12, 39, 46, -83, -91, 103, 12, 33, -93, 32, 82, -57, 108, -49, 101, -19, 45, 22, 112, -52, 97, -23, -7, -25, 96, -105, -89, 75, 75, -70, 106, 70, -28, 122, 43, 5, -90, -58, -51, -17, -11, 75, 32, -27, -24, -7, 78, 102, -63, -25, 75, 67, 27, 92, 32, 27, -7, -51, -109, -1, 92, -85, 35, -42, -41, -19, 44, 35, -45, -25, 48, 32, 105, -43, -16, -51, 66, 112, 77, -56, -83, 42, -115, 99, -51, 97, -109, -92, 22, 6, -41, -72, -36, -88, 53, 121, 104, -33
};
static const ap_fixed<8,4> at2_convolution_biases[16]={
    -124, -127, 127, 126, 93, -127, -127, 124, -126, -127, -53, -127, -127, -127, 127, 126
};

static const ap_fixed<8,4> at2_fc1_weights[16*128]={
    -7, 39, -3, -17, 12, -7, -73, -37, -65, 14, 15, -73, -47, -119, 22, 95, 88, 3, 103, -67, -43, 74, -52, 42, -104, 8, 56, 95, 110, -23, 112, 18, 113, 5, -48, -100, 27, 15, 114, -81, 102, -24, 108, 30, -110, 108, -26, -93, -38, 100, 105, 20, 89, -87, -96, -102, 81, -19, 117, 35, 46, 31, 109, 69, -123, 127, -80, 17, 118, 113, -21, 71, -118, 19, -57, 51, 123, 115, -104, 58, -117, 88, 101, -120, 7, 1, 66, 49, -5, -46, -72, -35, -78, 4, 63, 73, -56, -68, 37, 53, -66, -30, -17, 89, -82, -102, 35, 30, 79, -28, 36, 74, 0, -15, -123, 34, -106, -10, 93, 13, -104, -32, -59, 47, -45, 110, -14, -102, 7, -88, 14, 0, 32, 58, 39, 88, -58, -117, 9, 86, -78, 36, 78, -31, 4, -79, 36, 95, 24, -97, -53, 16, 59, 83, -34, -76, 15, 122, -18, -92, -112, 12, -73, -13, 71, -82, -19, -101, -57, -71, 24, 56, -91, -57, -33, -47, -99, 58, -32, -103, 53, 19, 84, 99, -41, 7, 3, 111, -107, -23, -68, -4, 51, 106, 30, -34, -106, 84, 11, 89, 6, -37, -116, -63, 103, -80, 39, -11, -47, 12, 115, 31, -98, -36, 6, -7, -60, -60, -116, -70, 64, -16, 117, -107, -98, 106, 30, 100, -78, 104, 24, -39, 21, 8, -15, -23, -49, 70, -105, -31, -21, -94, 47, -16, -78, 11, -100, -84, -14, -86, 97, -42, 117, 75, 9, -67, -47, 124, -88, -8, 115, 114, 2, 112, 55, -12, -111, -1, 54, 42, 88, -122, -13, -118, 69, -87, -90, -115, 122, -34, -18, -36, 59, 110, -118, 53, 96, 27, 104, 126, 91, -104, -32, 6, 93, -14, 54, -57, -45, 26, 65, -112, -127, 3, -93, 32, 0, 84, 31, 117, -116, 75, -89, 110, 7, 112, -17, 92, -93, 102, -112, 91, -106, -54, 51, 98, 63, 49, -3, 78, 1, 60, 125, 91, -114, 73, 92, -31, -57, -53, 117, 23, -69, -33, -101, 62, 22, -20, 73, 85, -58, -70, -6, 39, -6, 85, 120, -75, -110, -1, -57, 79, -70, -120, -16, 30, 11, 26, 102, -2, -79, -54, 52, -18, 41, 125, 95, -100, -62, -78, -88, -82, -67, 105, 111, -67, 111, 6, -95, -10, -14, 31, 57, 113, 26, 20, -77, 18, -89, -86, -62, 91, 2, -34, -90, 46, 36, -107, 33, -47, -77, 69, -60, -21, -12, -58, 3, -64, 53, -19, 97, -9, -44, 12, 99, -38, 75, -123, -28, 17, 21, 17, -4, -25, 123, 68, 66, 116, 56, -78, -120, -34, 2, 70, 4, -62, -111, 75, -82, 19, 109, 119, 1, -2, -71, -114, -101, 17, -18, 54, -52, 14, -6, -103, -104, 72, -56, 71, 14, 22, -82, 69, -117, -1, -63, 75, 9, -58, -105, 85, 25, 2, 76, 66, -106, -53, 105, -87, 122, -20, -126, -106, 57, -107, -104, -88, 48, 117, 68, 81, -126, -4, 35, 28, 107, -41, 42, 32, 50, -58, -16, 43, 82, -69, 7, -9, -28, 11, -38, 22, 99, -77, -89, 93, -120, 78, -39, -82, 122, -116, 59, 52, 76, 75, -24, -58, -17, 121, -51, 68, 90, -122, 9, -47, -66, 91, -96, 117, -54, 9, -16, 55, -119, -76, 101, -120, 111, -25, -92, 78, 115, 82, -74, 31, 35, -98, 2, 109, -117, 43, 70, -87, 51, 23, -16, 78, -12, -111, 85, 60, -10, -22, 68, 23, -105, 41, 103, 53, 126, -57, 49, -71, -28, 31, -123, 118, 83, -88, -81, -72, -60, 119, -100, -48, -90, 45, 16, 114, -18, -58, -26, -103, 23, 78, 116, 10, -92, -114, 29, -84, 8, -55, -15, -62, 92, -101, 1, -16, -45, 15, -120, 103, -45, -32, 78, -91, -67, -9, 20, 91, 122, 70, -102, -118, -41, -79, 115, -98, -58, 6, -84, -88, 64, -1, -48, 31, -7, -28, 0, -59, -1, 33, 116, 5, 28, 30, -26, -9, -53, -122, -100, 1, 116, 113, -19, -40, 21, 78, 61, 31, -28, -76, 94, -95, -82, 115, -82, -45, 0, 120, -80, 112, 84, 52, 62, -113, 114, -62, 93, -84, -116, 111, -9, -104, -108, 104, -47, -50, 32, 16, -6, 117, -56, 79, 21, 63, 122, -65, 20, -43, 5, 37, 106, 102, -119, 34, -117, -5, 30, -36, 110, -79, -78, -65, -92, -69, 61, -19, -110, 118, 80, -62, 90, 0, -42, -60, -69, 8, -86, -71, -49, 78, -54, -101, -35, 55, -93, -54, 12, -7, 117, 105, 86, 27, 98, -70, 62, 107, -118, -13, -83, -115, 52, 108, -99, -80, 98, -115, -76, 44, -82, -59, 115, -94, -99, -45, 68, -109, 54, 46, -60, 116, 74, 74, -70, -10, -11, -52, 89, 62, -84, -79, -116, 5, -30, -96, 30, -8, -83, -62, -97, -52, 13, 29, 107, -54, -64, 105, -62, 10, -16, -106, -2, -38, -68, 56, 6, -83, 111, 117, -28, -28, 42, 82, 77, -14, -89, -117, -1, 69, 62, 26, -14, -83, -29, 109, -7, -117, -40, 44, 83, 39, -110, -93, 85, 8, 41, -2, -80, -102, 10, -83, 67, -54, 80, -19, 71, 81, 34, 69, 21, 123, -77, -122, 53, -84, -56, 86, -52, -5, 56, -6, -69, -90, 86, 74, -15, 80, 0, 48, -13, 109, 103, -6, 98, -100, 68, 55, -5, 115, -19, 80, 28, -98, -92, 13, 98, 80, -40, 31, -80, 88, 102, -28, 109, -83, -72, -50, 84, -27, 110, -78, -79, 68, 62, -53, 34, 81, -66, 116, 77, -88, 68, -31, 100, -24, 98, 54, 42, 112, -8, 71, 67, 31, 49, -60, 119, -51, 9, -63, 111, -13, -96, -15, -56, 82, -57, 69, -8, 59, -54, -14, 1, -81, -119, 72, 46, 93, -108, -100, 12, 113, 108, 104, -9, 95, -30, 76, 98, 118, -55, 65, 80, -88, 105, -65, 117, -78, 28, -90, 99, -85, 117, 95, 116, 96, -35, 110, -96, -28, -43, -84, 89, -1, 81, -4, 120, -85, 24, 24, 25, 75, -57, 20, 57, 25, -30, -84, -41, -73, 112, -40, 55, -118, 93, -4, 28, -36, -62, -50, 112, -109, -64, 41, 2, 59, 88, 87, 19, -36, -82, 126, 87, -106, 23, 87, 100, 106, -103, -24, -78, 6, -61, -15, 46, 2, -45, -49, -5, 42, 35, 82, -57, -42, 80, -22, -53, 8, 100, 20, 1, -77, 113, 102, 53, 29, -8, 47, -10, 65, -24, -114, 123, 120, 36, -36, 87, 29, -45, -108, 22, 45, -55, -122, -81, -84, 91, 42, 104, -115, 28, 44, 48, 24, -73, 68, -114, -111, 67, 33, -19, -11, -62, -67, -96, -10, 95, -35, -103, 110, -104, 66, 10, 67, -21, -109, 23, -88, 44, -115, 98, -69, -71, 24, -8, -39, 3, -50, 3, 60, -117, 121, -19, 47, 88, -22, 72, -38, 85, 120, 64, -85, -61, 35, 24, -33, -8, 82, 118, 56, -71, -15, -112, 87, -122, 41, -58, -24, -93, -12, 107, 73, -123, -31, -38, 68, 80, 29, -39, -56, 20, -36, 41, 61, -117, -37, -36, -55, 53, 50, -42, -97, -80, 8, 124, 97, -12, -5, 88, 57, 49, 89, 86, 64, -55, -106, 76, -12, 84, 24, 102, 4, -88, -86, 120, -67, -47, -1, 46, -43, 107, -111, -105, 0, 33, -44, -42, -50, 15, -25, 115, 49, 92, -32, -61, 20, -36, -4, 127, -71, 64, 62, 94, -30, -27, -105, -64, 31, 64, -95, -30, 127, 26, -15, 50, -123, 39, 80, -57, -76, 3, -104, 60, -7, 89, 86, -88, 101, 73, -28, 95, -108, -8, 53, 25, 40, -69, -59, 40, 31, 72, -23, -7, -2, 12, 22, 16, -99, -115, 112, -8, 27, 71, -94, 89, -85, -26, 42, 55, 6, 9, -4, -46, -51, -103, -98, 28, -47, -42, 20, -106, -83, 121, -92, 112, -4, 6, 70, 31, -29, 71, -43, 62, 59, 69, -40, 78, -33, 68, -120, 103, -89, 29, -54, 113, -62, -86, 58, -109, 111, -120, -9, 32, 117, 70, -90, 18, -75, -49, 36, 93, 46, 5, -32, 7, 77, -37, -47, 53, -32, -43, 69, 47, 69, -81, 38, 120, 43, 7, -125, -83, 102, 44, -4, -76, -58, -76, 101, 98, -8, -4, -115, -82, 86, 6, -100, 2, -34, -114, -74, -96, -121, 102, 96, -21, 110, -43, -118, 45, -57, 68, -69, 56, 101, -5, -74, -10, -12, -117, 57, -46, 11, -39, 15, -31, -49, -3, -59, 83, 70, 0, 78, -66, -5, -40, 33, -61, 96, 72, 107, 48, -1, 90, 100, 114, 22, -73, 6, 51, -4, -64, -99, -28, 67, 11, -50, -117, 98, -10, 95, 26, 15, 59, -79, -59, 110, -56, 32, 83, -27, -14, -50, 114, -36, -27, 40, 15, -84, -54, -52, -66, 102, 32, -30, 54, 88, 54, 56, -92, 113, 94, -44, -2, 65, 5, 67, 71, -116, -49, 80, -81, -30, -98, 50, 121, 84, -19, 13, -14, -11, 121, -66, 22, 99, 22, -75, 93, -5, 45, 11, 80, -107, 45, 56, -56, -3, -79, 13, -82, 122, -22, -100, 20, 53, 39, -83, 100, 117, 113, -18, -67, 113, 80, -52, -52, 96, 100, -42, 84, -72, -98, -44, -93, 46, 11, 23, 74, -88, -64, 101, 24, -100, 22, -106, -18, -111, 97, 119, 119, -38, 15, 90, 95, -101, 76, 25, -16, 51, -29, 4, 67, -110, 99, -63, -96, 40, 35, -16, -106, -78, -60, -14, 112, 3, -27, -90, -84, -33, 5, -74, -74, 77, -116, -100, -82, -107, -24, 28, 95, 6, -101, -83, 127, 60, 84, 85, 36, -112, -84, -106, -6, 48, -50, -51, 51, -91, -30, -118, 59, 85, 11, 111, -86, -125, 114, 44, 117, -57, 29, -118, -82, -67, -97, 4, -63, -87, 56, -24, -41, -107, 102, -108, 106, 100, 27, -46, -114, 77, 27, 21, -55, -2, -90, 26, -24, 65, -5, -21, 48, -77, -31, 55, -84, 48, -43, 53, -100, -45, 45, 60, 34, -69, -108, -61, 118, 54, -47, -56, -10, 27, -111, -82, 105, -71, 30, 116, 25, 28, 54, 121, 52, -35, -95, 53, 88, -15, 88, 49, 106, 85, -61, 55, -11, 23, -34, 110, -74, 8, -108, 33, -79, 12, -87, -116, -110, 110, 62, 68, -86, 119, -90, -19, 88, -64, 52, 1, -63, -57, 18, -106, -45, 79, 49, -45, -12, -90, -111, 75, -11, -68, -114, -6, 17, -59, -61, 46, -113, -115, -18, -64, 33, -90, -3, -54, -44, -96, -37, -35, -86, -36, 121, 0, -68, 16, -96, 123, 84, -123, -88, -81, 119, 45, 72, -43, 116, 0, -78, -64, 96, -92, 93, 101, 91, 125, 94, 50, 96, -63, 47, 97, 4, 75, 58, -56, 73, 107, 56, 62, 49, 83, -92, -87, 10, 11, 0, -119, 75, 81, 1, -5, 101, -41, 8, -32, -113, -13, -53, -40, 74, -92, -6, -103, -1, 66, -17, 86, 91, -33, -8, -38, 83, -116, -93, 106, 42, 71, 75, -88, 58, -88, -42, 106, 56, -104, 34, -38, 114, 105, -88, 20, 70, -52, 5, -41, -42, -105, -95, -77, 23, -54, 4, -117, 20, -23, 72, 1, 89, 92, 8, 29, 41, 75, 71, 14, 99, -116, -94, -112, -111, -76, 119, -22, -115, -102, 10, -88, -111, -105, -37, 7, 83, 22, 85, 19, 119, 34, -119, 126, -88, -42, 94, -88, 35, 44, 44, 83, 88, 46, 32, 45, -93, -16, -46, -18, -70, 4, 54, -12, 24, 28, 37, 3, -113, 97, 109, 33, 115, 42, -42, 116, 53, 45, 116, -78, 106, 7, -35, 126, 78, 11, 107, -24, -30, 101, 9, -42, -116, 92, 10, -50, -70, 89, -53, 32, -3, -87, -55, 117, -34, -76, -59, -62, -54, -40, -25, 4, 50, 61, 109, -80, -75, 104, -61, -86, 95, 69, -16, 91, -55, -39, -92, 103, 101, -7, -24, 24, -39, 30, -96, 57, 8, -56, 30, -96, -32, 110, -109, -93, -112, 97, 93, -54, 10, -115, 56, 43, 95, 78, -43, -17, -67, 32, 88, -111, 95, 73, -79, -8, 78, -35, 95, 63, -45, -81, -54, 21, 88, -75, -45, 3, -87, -103, -59, 92, 70, 56, 70, 76, -26, -46, -22, -45, -30, -16, 80, -106, 117, 77
};
static const ap_fixed<8,4> at2_fc1_biases[128]={
    127, 127, 0, 0, 127, -127, -127, -127, 0, 127, 0, -127, 0, 0, 127, 0, 0, 127, -127, -127, -125, 125, 127, -127, 127, 127, 0, 127, 0, 0, -127, -127, 0, 127, 0, 0, -127, 127, 124, 0, 0, 0, 127, 0, 0, -127, -127, 127, -127, 127, 127, 127, 127, 0, -127, -127, -127, -127, 127, 127, 0, -127, -127, -127, 0, 127, 126, 127, -127, -127, 0, -127, 0, 0, 0, -127, 127, -124, 0, 127, 127, 127, -127, 0, 0, -127, 127, -127, 0, -127, 0, 0, 127, 0, 127, -127, 0, 0, -127, 127, 127, 127, -127, 0, 0, -127, -120, 0, 0, 0, 0, 0, 127, 127, 0, 127, -125, 127, 127, 116, -127, 0, -127, -127, -127, 0, 120, 127
};

static const ap_fixed<8,4> at2_fc2_weights[128*128]={
    69, -60, -9, -25, -52, 15, 51, -67, 96, -105, 89, -27, -69, 76, -36, -34, -103, -12, 107, -104, -28, -117, -34, -85, -20, 77, -81, 113, 11, -124, -42, -1, 98, 63, 93, 34, -115, -47, -46, 41, -44, -43, 25, 100, -52, -39, -111, -63, -76, -1, -119, -100, 56, 8, -72, 51, 81, 113, 34, -88, -58, -66, 121, -38, -74, -14, 44, -68, 21, -73, 16, -61, 123, -18, 109, 86, -31, -107, -72, -45, -94, -38, -96, 72, 99, 114, 34, -79, 8, -46, -33, 21, -116, -2, -8, 13, 35, -47, 53, 76, -48, -43, 5, -59, 110, 10, 101, -103, -40, 117, -43, -82, -82, -50, -3, 44, 92, 105, -4, 52, 59, -4, 30, 14, -104, 74, -65, -105, -80, 36, -112, 72, -23, -35, 25, 98, -33, -21, 99, 42, -54, -68, 77, 109, -55, -69, 118, -46, -97, 82, -45, -31, -35, 9, -27, 43, -1, 81, -21, -112, -29, -74, -98, 8, -83, -5, -116, 50, 79, -18, 64, -86, 89, 86, 88, 13, -39, 64, -66, -57, -45, -28, 107, 106, 82, 28, 6, -44, 41, 61, 101, -46, 112, 57, 61, 49, -43, 18, 111, 67, -107, 8, -108, -107, -41, 108, -105, 107, -109, 24, 6, 67, 63, -33, -87, -9, -95, -77, -11, -115, 92, 64, -109, -25, 112, 29, -29, 17, 61, -42, -30, 89, 59, 124, -5, 37, -74, 2, -106, -28, 100, 60, -62, -103, 78, -6, -88, 28, -21, -2, -66, 80, -10, -74, 4, 90, 31, -14, -49, 56, -113, -37, -81, 1, 103, -101, 60, -92, -80, -14, 107, -96, 117, -29, 14, -71, -121, -62, 41, -62, 80, -13, -25, 18, 27, 77, 15, 14, 100, 11, -40, -46, -53, 13, -122, 115, 36, -56, 48, 59, -5, -80, -15, 29, 0, -94, -3, 102, -7, -72, 37, -93, -91, 86, 14, -83, 1, 99, 10, -102, 1, 101, -27, 88, -39, 26, 16, 88, -6, 110, -81, -61, 82, -37, -75, 52, -30, 27, 24, -9, -43, -66, -60, 27, -82, -6, 0, 76, -27, 34, -121, 18, 48, -29, 107, -18, -92, -68, -15, -116, 82, -94, 68, -21, -18, 76, 55, 121, 122, -101, -48, 56, 74, -47, 17, 56, 41, -110, -91, -65, -40, 23, 61, 65, 33, -22, 34, -31, -86, 20, 22, 48, -56, -118, 121, -2, 118, 3, 33, 71, 101, 110, -27, -33, -48, 35, 15, -110, -85, -80, 2, -8, -93, -45, 34, -80, 24, -62, -88, 41, 72, -37, 39, -86, -96, 6, 43, 27, -13, -119, -35, 34, -102, -47, 8, 62, -56, 118, 65, -58, 8, 8, 3, 25, -48, -34, -99, 8, -59, -51, -65, 21, -35, -23, -107, 107, 16, -92, -59, -39, 90, -88, -54, -118, 56, 70, 2, 87, 33, 54, 110, -102, -74, -29, -85, 8, -29, 117, -62, -54, 31, -99, 19, 33, 16, -83, 84, 116, -76, 43, 30, -111, -30, 28, 33, -81, 8, 49, 55, 27, 76, 64, 39, 44, 62, 70, -13, -64, -24, 93, -107, -50, 85, -93, -30, -8, -28, -76, -64, -6, 51, 105, -88, 42, 108, -95, -115, -111, -71, 38, -38, 122, -87, -124, 42, 72, 123, -75, 44, 36, 94, 3, 42, 105, -52, -8, -35, -65, 1, -59, 105, -67, -116, -16, 14, 122, 76, -18, -95, 23, -70, 71, 104, -123, -101, 4, -41, -56, 116, 22, 80, -107, -58, -68, -76, -7, -15, -98, -27, 106, -37, -117, 104, -87, -28, -61, 20, -87, 69, 115, -83, 118, 45, 108, -41, -37, 106, 106, -96, -57, -16, -99, 91, 91, -27, -95, 44, 121, -55, 18, 29, 8, 52, 18, -37, -11, -50, 53, -116, 100, -9, 15, 38, -80, 116, 12, 57, -112, -28, -102, 44, -123, -43, -116, -100, 71, -28, -37, -110, 46, -64, -92, -26, 11, -26, -54, -63, 87, 114, -113, -14, -111, 26, -94, -90, 74, 42, 8, 100, 123, 2, 72, 73, 85, 106, -33, 89, -4, 75, -114, 94, 28, 26, 26, -17, -126, 30, -97, 97, -16, -96, -66, -35, -39, 78, 117, 4, 12, 81, -12, 5, 30, 107, 75, 26, 35, -98, -75, -71, -121, -39, 113, 65, -22, 19, -63, 99, 51, -40, -22, 30, -113, -39, -74, 103, 10, -29, 13, -105, -73, 92, -106, 23, -112, 59, 73, -116, 42, 65, -26, -15, 124, -98, -22, 32, 52, 93, 61, 107, -70, -112, 87, -123, 3, 89, -37, -93, -116, -50, -4, 55, 88, -10, 10, -101, -44, -92, -33, 2, -74, 15, 40, 96, -16, 32, -20, -110, -5, -56, 124, -36, 33, -86, -89, 81, 90, 31, 96, -6, 65, 47, -17, 98, -71, 12, -53, 49, -107, 69, -77, 16, -57, -15, -17, 83, 75, -41, 81, 92, 120, 42, 30, -104, 50, -88, 119, 88, 100, -67, -72, -86, -40, 37, 73, 24, -36, -40, -106, 90, 100, -69, 73, -35, -35, -2, 48, -24, 31, 53, 24, 34, -13, 26, -29, 39, 47, 29, -31, -84, 44, -94, 98, 11, -26, -84, -91, -51, 35, 31, -16, 52, -72, -73, -8, 72, 6, -45, 72, 122, -33, -106, 99, -65, -112, 10, -55, -86, 25, -16, 46, -120, 36, -86, -106, -75, 30, 114, -21, 79, -18, -6, -113, -97, 115, -19, 47, 49, 35, 87, 24, -50, 98, -17, -23, -109, -77, -114, -39, 77, -98, -79, 58, 34, -54, -55, 66, -92, 113, 97, 5, 107, -36, 62, -15, -33, 1, 49, -11, -116, 49, -63, 20, 83, 102, -123, 10, -60, 55, 10, -45, -38, -113, -44, 78, -97, -29, 86, 83, 120, 27, -20, 45, 35, 18, -58, 59, 101, 65, -38, 29, -20, 44, -110, 9, -53, -108, 5, 104, -67, 30, -85, -20, 81, -39, -97, 75, -12, 14, -56, 54, -88, -13, -9, 34, 106, 112, 97, 20, -12, -24, 61, -79, 14, -100, -48, -18, -64, 5, -85, 38, -6, 3, -30, 45, 38, 66, 73, -112, -24, 22, -10, -26, 31, -32, 49, -37, 99, 39, 23, 84, -83, -14, -36, -11, -16, 32, -107, 16, -28, 66, -111, -112, 122, -1, -57, -75, -72, -114, -13, 95, -60, 111, -16, -66, 72, -46, -117, 75, -93, -29, 30, 23, -121, 54, -28, -19, 2, -43, -17, 62, -108, -77, 37, 49, 115, -57, 104, -74, 99, 86, 31, 52, 30, -35, -2, 15, -102, -11, 118, 17, -102, -110, -108, -45, -5, -35, -2, 41, -16, -3, -30, -87, 51, -49, -66, 84, -113, -3, -17, 63, -36, 27, 87, -75, 60, 33, 84, -84, 76, 43, -114, -106, 120, -50, 112, -75, 16, -71, -57, 107, -72, -71, 122, 37, 72, -91, 68, 109, 111, 70, -101, 30, -59, 14, 61, 117, -59, -106, -80, 66, 54, -76, -16, 97, 72, -26, 22, 27, -15, 28, 3, 34, 0, 103, 120, -56, -67, -99, 69, 9, -42, -73, -86, -39, -38, -95, 66, 0, -28, 9, -9, 70, 55, -85, 107, -11, 122, 113, -100, -46, -74, 10, -48, 8, 79, 118, -50, -115, -69, -52, 95, -8, -99, 62, 112, 76, -3, 45, -84, 85, 37, -79, 92, -107, 120, -8, 1, -116, 56, 59, -34, 24, -92, 18, 105, -36, 86, 8, -90, -31, 70, -66, 111, -70, 113, -29, -29, 82, 62, -23, -11, 47, 47, -39, 40, 5, -10, -29, -75, 12, -108, 32, -60, -2, -114, -100, 8, 38, -79, 38, 72, -109, -62, 11, -59, 5, -74, 27, 111, -105, -35, -20, 8, 3, -99, 82, -92, 80, -63, 45, -24, -28, -42, 10, 84, -61, 27, 26, 105, 66, 43, 30, -97, -89, 82, 12, -11, 10, 119, 48, 82, -39, -71, -116, 0, -36, 97, -24, 17, 86, -24, 97, -27, 57, -44, 45, 114, 77, 79, 84, -42, 119, -24, -76, 32, -31, -75, 28, -120, -79, -6, -34, 80, 106, 88, 90, -87, 47, -4, -36, 89, 120, 63, 28, -45, 39, -65, -113, 121, 58, -28, 12, -93, -52, 4, 0, 113, -16, 104, 3, 46, 86, 15, -12, -39, 4, 58, -62, 34, 70, -13, 14, 87, -58, -60, 14, -32, -67, 25, -36, -67, 47, 111, -2, -30, 59, 24, -86, 104, 95, 89, 2, -37, 92, 25, 111, -75, -1, -53, 87, 105, -67, -115, -24, 73, -52, -113, -115, -71, -85, 41, 104, 7, -58, 81, -22, 41, -75, 118, -31, -88, 96, -118, 59, 107, -110, -97, -30, -96, -6, 6, 97, 82, 80, 103, 17, 87, -56, -98, -11, 74, 1, -1, -40, -91, 23, -73, 43, 40, 53, -99, -113, -12, -14, 109, 66, 99, -49, 61, 49, -108, 84, 30, 117, 89, 109, 117, -6, 39, 48, 29, -25, -49, 95, -91, 10, -47, -26, -108, -42, 113, 112, -106, 9, -21, 52, 112, -13, 97, 109, 46, 34, 95, -44, 28, -103, -28, -46, -109, -24, -68, 127, -17, 45, -61, 43, -81, -72, -25, -117, -1, 89, 74, -50, 54, -113, -47, 91, 32, -117, -56, -63, 92, 57, 48, 5, 108, 106, -44, -83, 24, -12, 75, 28, -84, 123, -30, -55, -105, 17, 108, -10, 86, -52, 86, -79, -16, -122, -69, 59, -27, 19, -106, -87, -91, 125, -35, 120, -109, -41, 90, 114, 81, -105, -20, 93, 113, 97, 63, 9, 12, 61, -30, -62, -24, -116, 74, 40, -45, 60, -68, -105, -18, -107, 107, 41, -89, 113, -21, 8, -22, -63, 98, 72, 78, -103, 103, 62, 23, 77, 84, 59, 57, 37, -32, -48, 89, 45, -49, 13, -12, 42, -118, 51, 88, 112, -119, 121, 112, -40, -14, -68, -68, -6, -83, -122, -10, -26, 36, -97, -44, -41, -108, 32, -12, -3, 33, 116, 90, 96, -7, -118, 8, -60, -27, 75, -105, -51, -35, -108, -69, -56, 50, -74, -35, -50, -83, -109, 80, -41, -35, 95, -10, -42, -107, -16, 21, -60, -88, -119, 34, 53, 14, 35, 84, -31, -49, -62, -71, 7, -2, -22, 60, 110, -39, -28, -62, -78, 11, 28, -80, 71, -64, -21, -24, -75, -66, -109, -105, -81, 5, -88, 93, -80, -109, -103, 67, 80, -4, -42, 12, -67, 72, -27, -98, 2, 51, -74, -4, 42, 62, -46, -85, -87, -55, 107, -65, -89, 95, -80, 62, -15, 111, 61, 27, -79, 29, -45, 32, 96, 97, 68, 109, -1, -113, 118, -83, 40, -100, -52, -9, -74, -47, -42, -100, -78, 112, 0, -66, -66, -101, 63, -15, 58, -50, -56, 101, -70, 40, 66, 80, 34, 5, -109, 6, -20, -14, -12, -80, -105, -118, -57, 64, -68, 75, 45, 90, -22, -21, 19, 7, -86, 30, -97, -49, -80, 19, -122, 115, 21, -48, 13, 102, -73, -24, -28, 45, 74, 22, 89, 9, -74, 100, -58, 105, -62, 103, 101, 15, -36, 67, -1, -102, 77, 77, -51, -12, 84, 120, -58, -55, 75, -93, 56, 27, -71, -105, -48, -40, 56, -55, -64, 41, 123, 3, -78, -87, -86, 122, -48, 31, 101, -5, 50, -70, 110, -52, -26, -123, 32, -75, 68, 69, -9, 80, -101, 58, 70, 48, 24, -53, -9, 66, 103, 102, -37, 64, -8, -84, 46, 118, 62, -49, 115, 20, -115, -51, -68, 18, -58, 25, -81, -103, -116, -97, 91, -54, 10, 70, -101, -111, 28, -71, -107, -119, -89, -46, 18, 72, 104, -85, -96, 76, -75, -126, -33, -7, 126, 85, -8, 125, -116, 64, -122, -107, -7, 65, -43, 92, -55, 25, 96, -120, 47, 49, -82, -58, -85, -93, 79, 108, 106, -3, 57, 114, 17, 60, 31, 111, 22, 96, -59, -90, 15, -23, 92, 102, -88, -46, 47, -29, -99, 37, -100, -121, 118, 120, -68, -112, -37, 26, -26, -78, 23, -6, 113, 82, 3, 35, -105, -80, 101, -77, 83, -4, -75, -102, 38, -21, -1, 37, 40, 28, 41, -29, -109, -92, -104, -12, 120, -102, -9, 81, 78, 70, -14, -18, 110, -93, 75, -87, -29, -97, 74, -4, -87, -3, -86, -7, 10, -92, -86, -88, 69, -32, -101, 86, 78, 106, -122, 116, 122, 69, 120, 24, -74, 78, -92, -96, 28, -28, -69, -78, 98, -97, -18, 121, 13, 94, -42, 7, -30, -44, 89, -21, 94, 18, -101, -72, -55, -36, -44, -99, 7, -64, 103, -1, -76, -8, 46, 45, -68, 41, -38, 7, -95, 104, 46, -55, 95, 67, 77, -115, -104, -102, -47, -110, 37, -87, -84, -37, 74, -89, 11, 120, -28, 12, -82, 43, -81, 1, -85, -30, -115, 15, 22, 85, -29, -16, -119, 15, 54, 0, 104, 77, -48, -27, -115, -65, -88, 85, 56, 9, 39, -79, 101, 59, 54, -47, -64, 79, -78, -103, -4, 25, 3, -114, -99, -100, 32, 41, 42, 20, -91, 25, 47, 8, 98, 110, 46, -74, -97, 101, 106, 48, -26, -82, 85, 84, -87, 38, -5, -106, -71, -44, 30, 26, -10, -119, 13, 74, 74, 22, -67, -31, -57, 98, 93, 100, -103, -6, 107, 110, 13, -26, -53, -33, -98, -7, -90, -72, -96, -9, 99, 114, 13, -24, 35, -45, -41, -124, 15, 100, 34, 39, -123, -20, -8, -82, -29, -92, -27, 69, 63, 87, 17, 51, 108, 35, -114, -1, -114, -52, -13, -76, 104, 24, 27, -104, -7, 14, -71, -77, 8, 75, -42, -36, -71, 95, -45, -21, 17, 38, 41, -116, 114, -74, -30, -28, -65, 92, -86, 77, 58, -102, -26, 39, 0, -34, 1, 114, -95, -113, -47, 91, -31, 65, -37, -83, 80, -123, 27, -8, 46, -66, -83, -10, 91, -114, -2, 83, 10, -116, -109, 34, 78, -39, -112, 101, -62, -62, -85, -23, -117, -4, -117, -40, -6, -23, 33, -46, 103, -82, -35, 83, -41, 26, 63, 57, 119, -68, 61, -87, 48, 29, -89, 35, -22, -44, 95, -98, 97, -34, -101, -26, -46, 7, -81, 36, -44, 58, 122, -42, -48, -29, 91, 12, -85, 34, -27, -4, -33, -36, -66, 61, 94, -17, 69, -15, 74, -94, 103, -30, -26, -111, -111, 48, 11, 33, -18, 31, -54, -67, 94, -114, 114, 8, -60, -8, -50, 92, -113, 101, 113, -22, -71, -50, 12, -14, 124, 39, -37, -61, 107, -81, -34, -43, 64, -17, -119, 111, 77, 103, 93, 54, 105, 11, 79, 114, 16, -90, -2, 24, 88, -38, -79, 40, 16, 33, -57, 38, -6, -8, -66, 27, -61, 68, -10, 12, -51, -58, 70, 103, 99, 114, 80, -54, 72, -45, 30, 4, 119, -86, 60, 88, -51, -91, 117, -14, 54, 36, -14, 36, 64, 83, -88, 7, 27, -74, -2, 19, 55, -40, -89, -65, -61, 39, 114, 32, 86, 48, 17, 51, 73, 115, 75, -29, -51, -1, 2, -16, 86, 85, 67, -65, -104, -83, 69, -34, -101, 0, -106, -116, -76, -61, 82, 31, -53, -5, -35, 110, 26, -55, 121, -31, 8, -123, -19, 102, -34, 63, -99, 21, 40, 88, -111, 35, 32, -9, 6, 46, -127, 102, 9, -97, -91, -81, 7, -115, -11, -93, -111, 51, -33, 47, -72, -22, -120, 74, -10, -9, 76, 117, -108, 66, 67, -63, 6, -71, -125, 55, -18, -82, -14, 67, 66, -30, -10, 69, 92, -112, -94, 25, -119, -58, -74, 91, 53, -50, 33, 116, 80, 64, 39, 32, 66, 10, -125, -3, -9, -27, -105, 53, 100, -59, 121, 98, 66, -116, 95, 52, -100, -4, -43, -35, 11, 30, 72, 66, 29, -11, -8, 1, -10, 17, -117, 103, -103, -18, 115, 70, -77, 102, -51, -88, -29, -8, -43, -116, 80, -4, 4, 96, -65, 18, 93, -78, -59, 83, -24, -42, 16, 114, -39, -38, 43, 19, 101, 3, -22, 102, 4, 30, 4, 87, 46, 43, 19, -40, -84, -15, 17, -99, 31, -56, 80, -107, 76, 85, 117, 51, -81, -79, 39, -52, 90, -12, -115, -43, -51, 81, -120, 41, -106, 98, 90, -111, -21, 57, -70, -22, 1, 97, 101, 97, -38, -114, 36, -69, -39, -11, -109, -4, -100, -19, 87, -104, 26, 82, -86, 24, -86, -27, -116, -37, 91, 8, -80, -121, 34, -5, 36, 33, 69, 93, -46, -68, 94, -48, -102, -94, 3, -88, 104, -12, -89, -99, 75, -53, -9, -74, -113, -30, -115, 22, 47, 31, 10, 67, 19, -100, -114, -50, -63, -35, -114, -3, 30, 109, 105, 119, -12, 115, -120, 125, -8, -104, 108, -88, -70, 65, 17, -5, -52, 19, 23, 16, 92, -67, -1, -81, 110, -63, 18, -35, 107, -31, 41, -71, -20, -44, -81, 33, -6, -96, 23, 1, -114, 26, -54, -120, 111, 9, 2, -66, -70, 40, 123, -95, -107, 3, -34, -126, -54, 0, 15, 103, 98, -39, 62, -20, 94, -63, 43, -80, 3, 50, -117, 77, -94, 104, 6, -121, 25, -112, -47, 37, -53, 50, -16, -116, -31, 61, 40, -27, -86, -19, -99, 93, 84, -9, 110, -74, -12, 112, 55, -54, -97, -68, 90, 66, 75, 34, -101, 48, -88, -4, -49, 67, -60, -50, 37, 111, -17, -15, -115, 92, -68, -72, -103, -56, -2, 28, -98, 38, 37, 3, 78, 39, -73, -100, -11, 108, 19, 21, -113, -1, 114, 74, 112, -102, -109, 27, -97, 27, -72, 88, -82, 54, -18, 29, 84, 43, 57, 96, 65, 26, -23, -9, -83, 106, 4, -26, 80, -111, 20, 67, -53, -21, -87, -25, -25, -36, -66, -2, 75, -5, -34, 42, 79, 11, -67, -22, -124, 111, -114, -113, 114, -62, -78, 114, -5, -45, -124, 28, -3, 35, -47, -60, -59, 101, 74, -117, -45, -8, -90, 60, 98, 100, -95, 80, 75, 68, -22, -116, -52, 89, 103, 47, -117, -41, 24, -25, -21, -109, -1, -54, -106, -70, 100, -19, 11, -113, -98, -79, -45, 15, 32, 96, -13, -91, -69, -18, -78, -65, 57, -27, -114, 60, 67, -58, -107, -76, 32, -3, -32, -77, 16, -28, -80, -73, -71, 74, -46, 78, -90, 48, -104, -110, -104, 49, -46, 96, -84, 81, -49, 29, 98, 64, -91, -124, -9, 79, 63, 68, 116, 5, 33, 44, -15, 50, 5, -26, 72, -112, -99, -83, -89, 39, 84, 117, -12, 8, 72, 63, -91, -96, 13, -6, -90, -17, -93, 19, -82, -69, -18, 110, -5, -14, -115, 69, -95, 32, 81, 32, -42, 50, 93, 86, 72, -116, -20, -61, -29, -22, 43, 66, 26, -101, 20, 116, -111, -52, 8, -28, -111, 64, -28, -24, -104, 107, 13, 17, 30, 46, 10, -119, 61, -100, 55, 64, 109, -47, -103, 67, 15, -34, 27, -14, -41, -5, 17, 33, -4, -37, 80, -58, -77, 65, 127, 36, 32, -47, -44, 52, -23, -119, 14, -85, -86, 35, 96, 42, -38, -50, -96, 45, 20, 4, -54, 4, 126, 31, 0, 2, -82, -103, -110, 36, 69, 63, 69, 88, 44, 44, -85, 48, -66, 22, 120, -47, -46, 96, 9, -85, 28, 85, -22, 50, 39, -119, 101, 14, 119, -38, -75, -114, 24, 74, 4, 36, 29, 29, 83, 3, 76, -106, -2, -36, 31, -1, 19, -66, 1, 18, -85, -108, 60, 35, -51, 62, 20, 26, -69, 2, -49, 46, -88, 112, 36, -82, -92, 49, -110, -54, 105, -53, -101, 58, -73, 88, -69, -96, -48, 83, -94, -113, 29, -5, 29, 12, -13, 61, -115, 82, 31, -109, 32, -36, -117, -84, 48, -70, 99, 126, 66, -89, 99, 19, -9, 123, 77, -75, 56, 39, 11, -53, -74, 107, 91, -122, 70, 72, 119, 68, -116, 52, 112, -55, 31, 93, 35, 95, -90, 38, 2, 108, -50, -117, 108, 67, -32, 86, -37, -88, -30, 106, 91, -116, -99, 27, -34, 7, 90, 109, -98, -84, -42, 21, -45, -9, 5, -22, 76, 51, -31, 79, 107, -120, -23, -84, -58, -101, -91, -81, 61, 83, 105, 48, -68, -5, -62, 60, 27, 70, 44, -26, 21, 32, -4, 51, 30, 122, 34, -91, 64, 120, -60, 97, 26, -85, 89, 91, -40, -110, 30, 6, -45, 99, -103, 42, -121, 43, -113, -14, -56, 56, 98, -62, 12, -40, -95, -67, 68, -106, -3, 23, -44, -2, 11, -8, -89, -14, 27, -20, -40, -89, -45, 34, 115, 110, 37, 101, -5, 74, -14, -120, 23, -29, -48, 96, 49, 73, 102, -106, 49, 78, 15, 48, -56, 98, 4, -55, 75, 13, -22, 20, 10, -113, -103, 64, -27, 40, -16, -73, 118, 91, 70, -60, -112, -57, 44, 52, 104, -5, -37, 112, -56, 45, 91, -99, 117, 15, 121, 78, -41, 76, 48, -5, -92, -89, -79, 10, 87, 109, -9, 114, 79, 30, -32, 48, -90, -63, 122, -46, -89, 87, 86, 88, 59, 46, 98, -120, 40, 118, -25, -31, -89, 102, -80, 36, -98, 7, 109, 24, -57, -55, 20, -28, 50, 87, 73, 49, -95, -28, -69, -9, -61, 27, -106, 120, -94, 86, 5, 17, -102, 55, 79, -93, 55, 98, -90, 88, -71, 72, -5, -19, -12, 18, -9, 97, 68, 110, 68, 29, 22, -55, -68, 58, 13, -96, 121, 65, 3, -35, 123, -42, -26, 119, -88, 59, 124, 32, 119, 91, -5, -108, -18, 59, 35, -103, 54, 92, -50, -8, -97, -51, -98, -103, -53, 60, 10, 50, 57, -31, -20, 50, -28, -18, -12, -56, 95, 84, -21, -81, 9, -82, 125, 51, 73, -1, -5, -30, 46, 126, -93, 120, 37, 68, -51, 114, -108, -65, -9, 36, -12, 51, -28, -64, -39, 12, -27, -98, -88, -121, -56, 107, -29, 27, -49, -90, 83, -63, -94, 91, -31, 25, 91, 68, -95, -88, -73, 55, 5, 19, 1, 89, 6, -74, 5, 56, -23, 18, 109, -57, 101, 60, 46, 17, 39, -81, 72, 6, -66, -26, 57, -67, 45, -32, -94, -103, -98, -78, 23, -115, -31, -45, 84, 6, 58, -96, -75, -15, 114, 21, -119, -92, -71, -45, 117, -98, -18, -65, 58, -98, -12, -54, -5, 102, -89, -20, -36, -67, -30, 51, -110, 1, -34, 119, 47, 48, 50, 87, -122, -11, 87, 94, -43, 88, 29, 20, 73, 20, 20, 1, -122, -3, 52, 18, 32, 105, -117, 93, -50, -18, 66, -52, -5, -102, 8, -67, 76, 90, -113, -15, -36, 94, 40, 11, 91, -65, 67, 46, -16, -16, -51, 95, 11, -1, -17, 36, -50, 70, 76, -28, 48, 71, 102, 8, 103, 121, -98, -72, 24, -35, 47, 0, 37, -102, 8, -102, -50, 41, -92, -81, 103, 59, 94, -34, -15, -110, -11, 10, 40, 36, -98, -88, 96, 54, -40, 38, -122, 45, -59, -30, -81, -67, 76, 104, 54, 83, 66, -100, -72, 1, 118, 95, -1, -111, 118, -80, 28, 117, -13, 77, -121, -90, -38, 119, -29, 58, -15, 85, 121, -68, 37, 87, 25, 32, 91, 121, -56, 58, 13, -30, -107, 113, 74, -41, 93, 76, 0, 8, -53, 6, -66, 53, 106, -40, 92, -103, -27, 51, -9, -106, -28, -112, -26, -33, -74, -101, 75, 52, -42, 14, 93, -36, 100, 77, 11, -19, 113, -86, 30, 24, -116, -5, 20, -38, -115, -56, -21, 32, -51, 49, -26, 45, -57, 20, -87, 66, 32, -102, -59, -29, 12, -66, -117, 110, -63, -2, -54, 64, -85, 43, 62, -5, -63, -117, -112, -85, 37, 100, 94, -50, 79, 39, 82, -107, 34, -99, -74, 46, -22, 29, 89, 27, -86, 29, -13, -92, -6, 73, 115, 20, 71, -35, -105, 110, -104, -109, 12, -117, 34, 97, 37, 99, 111, -79, -75, 32, 76, 19, -1, -38, 88, 42, -37, 8, -36, -116, -111, 32, 115, 63, -27, -34, 100, -113, 20, -10, 32, -11, 43, 31, 48, -65, -5, -47, 65, 83, -5, -117, -61, 97, -26, -57, 123, 32, 101, -44, -124, -115, 11, -92, -85, 33, -55, 98, -96, 89, -116, 81, -86, 0, -52, 18, 63, 51, 74, -27, 88, -17, 58, -20, -22, 53, 36, -83, 22, -18, -83, -33, 11, 120, -119, 82, -103, -42, 77, 73, -42, 68, -85, -98, -109, 49, 85, -98, -61, 24, 118, 54, -13, -64, 113, 87, 42, 37, 127, 68, 0, -4, 124, -80, 32, -121, -60, 67, 117, 8, -122, 94, 124, 50, 10, 6, -63, 87, -75, -12, -10, -36, 32, 67, -8, -29, 39, 9, 29, -65, -50, 97, 43, 115, 103, -17, -101, 73, -12, -56, -76, -83, 120, 87, -45, 7, -31, 56, -96, 2, 19, -126, 110, -53, -65, -29, 32, -36, -104, -35, -115, 30, -66, 117, 93, 56, -8, 16, -14, -57, -10, -49, -35, -103, 5, 43, -72, 117, -76, -8, 41, -1, -113, 121, 6, 28, -38, -12, -111, 102, -54, -86, -94, 19, 12, -15, 117, 114, -18, -30, -109, 22, -48, -83, 112, -110, -48, 89, -93, -103, -51, 109, -5, 102, 51, -103, -40, 28, 31, 104, -68, -45, 68, -44, -34, 66, 47, 98, 7, -114, -86, 59, 62, 50, 24, 57, 90, -46, -48, 38, -87, -21, 96, -26, -87, 58, 46, 110, 3, -3, -70, -77, -51, -62, -50, 73, 111, 110, 107, -31, -12, 59, 115, 54, 59, -24, 50, 75, 19, -101, -66, -3, -116, 43, 85, 66, 86, -70, -75, 92, -111, -83, -30, 11, 18, 106, -56, 71, -97, 76, -61, -34, -43, -69, -27, 66, 86, -58, -12, 13, -113, 86, -19, -4, 26, 6, 93, 98, 24, 60, -32, -74, -111, 16, -79, 10, -58, 53, 40, -44, 101, -73, 100, -22, -88, -64, 49, 125, 77, -80, 113, -41, -82, 106, 74, -38, -34, -62, -63, -77, -5, 112, 78, -45, 2, -22, -53, -65, 11, -53, -114, -78, -114, -126, 40, 124, 66, 93, 95, 105, -32, 4, -106, -110, -80, -42, -45, 49, -95, -26, 49, 85, -54, 67, 102, 104, -8, 80, -108, 119, -102, 53, 28, 74, -103, -53, 94, -25, -66, -79, -31, -78, -46, -20, 110, 81, -114, 109, 5, 76, 101, 96, -51, -28, 9, 4, 37, -109, -62, -58, -7, 78, 68, -87, -18, -107, -1, -21, -107, -96, -91, 58, -94, -69, -17, 102, -76, -2, 94, 37, -73, 38, 20, -100, -46, 17, -21, -60, 56, -20, 104, -3, -56, -67, -106, -35, -88, 116, 31, 55, -68, 1, -92, -88, 105, 112, 99, -102, 43, -100, -51, 104, -102, 64, -98, -6, -64, -96, -78, 108, -120, -57, 114, -49, 67, -63, 106, -17, -49, -94, -104, 39, -84, 120, -6, 91, 96, 112, -66, -54, 83, 108, -17, -61, 105, 92, -9, 36, -98, -54, -74, 23, -78, 113, -121, -4, -5, 110, -65, -83, 110, 7, 75, -117, -87, -79, 34, 18, 44, 114, -87, -99, 47, -56, 14, -48, 113, -11, -76, -32, 9, -58, -67, 63, 42, -98, -32, 77, -107, -30, 11, 10, 119, 50, 16, 14, -102, 28, 87, 70, 92, -30, 83, -18, -14, -113, 71, -49, -16, -58, 20, -82, 99, -24, -7, -108, 93, 78, 27, 61, -103, -19, -93, 108, 6, 57, 53, 86, -91, -82, -118, -7, 69, 81, -22, -95, 97, -52, -18, -21, 90, -15, -32, 9, 67, 119, -62, -71, 83, -73, 17, -84, 44, 104, -100, -102, -100, 8, -73, -76, 99, 43, 23, -100, -69, -22, 42, 20, -85, -49, -114, 122, -35, -14, 99, 47, -87, -54, -122, -61, -35, 115, 4, 42, 59, -31, -32, -81, 55, -15, -74, 38, -27, 25, 69, 76, -59, 45, -91, -120, -95, -17, -108, 65, 117, -95, -40, 98, 71, 14, -109, 25, 28, -50, -21, -39, -58, 72, -50, -76, -2, 91, -120, -74, 29, -12, -75, 95, 39, -4, -120, -45, -101, 39, 50, 60, 7, -79, 16, 90, 81, 36, 72, -32, -56, 80, 39, 18, -94, -26, -84, -117, -44, 24, 72, 48, -31, -21, -109, -98, -64, 91, 48, -77, 19, 10, -17, 9, -117, -120, 53, 47, -7, -46, 57, 4, -56, 2, -60, 97, -11, -85, -83, -31, 120, 113, 105, 111, 58, -57, 64, -81, -110, -28, 124, 103, 99, 67, 103, 15, 98, 72, 12, -4, -49, 51, -38, 80, 82, 4, 14, -14, -69, 34, -55, 115, -90, 21, -26, -89, -81, -70, -73, -51, -90, 11, -107, 84, -71, 16, 68, -44, -100, 93, -71, 108, -18, 20, 110, -61, -92, 26, 111, -98, -112, -65, -110, -94, -123, -96, 98, 2, 6, 64, -63, -60, -81, -53, 44, 99, -61, -42, 108, 41, -121, 48, 52, 55, 22, 58, 86, 13, 124, -67, -17, 42, 27, 121, 96, 97, 67, 59, 114, -88, 21, -69, 105, -13, 60, 77, -37, 84, -109, -98, 82, 64, 10, -11, 1, 6, -88, 58, -27, 70, -98, -46, 2, -20, -15, -97, -73, 107, 116, -107, 110, 42, 46, -39, -19, -97, 14, 29, -53, 81, 14, -22, -72, 105, -70, -29, 14, -66, -84, -115, -96, -107, 83, -93, -119, 71, 46, 101, 104, 60, 59, 50, 14, 80, -94, -101, -23, 55, 33, -64, -51, 15, 44, -110, 90, 114, -115, -1, -9, 68, -77, -114, 78, 36, -101, -57, -86, -15, -14, -23, -83, 17, -79, 116, 27, 27, 11, 103, -25, 100, 55, 97, -4, 53, -57, 4, 60, -84, 58, 59, -93, -111, 55, 100, -71, 116, 106, -110, 68, 95, 23, -5, -94, -71, -71, -3, 58, -54, 120, 108, -66, -56, -104, 10, 8, 1, 1, 71, -38, -101, 73, -23, 74, -84, 84, 2, -87, 4, 111, -33, 103, 108, 89, 53, 23, 85, 110, -97, -2, 53, 2, 49, 33, 35, -27, -41, -93, -80, 23, 55, -57, -71, 68, -17, -112, 52, -78, -99, 69, 89, 7, 24, 85, -50, 57, 94, 48, 122, 60, 102, -29, 75, -18, 87, 123, -114, 113, 43, -99, -14, 55, -61, 74, -120, 75, -34, -15, -15, 42, 90, 50, 8, 56, 110, -6, 75, 103, -39, -91, 43, -93, 83, -36, -79, 16, -40, -43, -13, 120, 85, 84, 50, 4, -48, 87, -34, -99, -121, -2, -64, 102, -14, -47, 18, -48, 8, -91, 66, -101, 20, -50, 57, -88, -65, 11, -38, -109, 0, -66, -107, 14, 41, -8, 13, -7, -80, -48, -40, -101, -38, 8, -2, -107, 46, 61, -26, -90, -93, 68, 17, -9, 42, 63, -80, 51, 114, 61, 58, 76, -52, -122, 113, 34, -77, -56, 27, -100, -87, -24, -84, 70, -62, 109, 75, -95, 40, 49, 53, 46, 75, 46, 114, 83, 32, -91, 73, -62, 103, -114, -43, -81, 20, 8, 27, 28, 61, -4, 52, -112, -103, -60, 83, 67, -54, -44, 38, 100, -19, -95, 37, 82, 69, 121, 74, -21, -80, -122, 81, -58, 45, 62, -70, -36, -53, -18, 87, -69, 47, -17, -60, 78, -3, -40, -86, -120, -18, -24, 42, 114, 39, -86, 114, 79, -36, -38, 2, -85, 91, 24, 24, -2, 16, -72, 36, -19, -56, -31, -1, -52, -122, -31, 110, -98, -61, -75, 1, 63, 13, -98, 101, -117, 15, -105, -106, -68, 110, -113, 15, 80, 13, -119, -34, -20, -97, 111, -96, 30, 4, -120, -65, 65, 78, -26, -23, -29, -68, 45, -42, 83, 40, -103, -108, 55, -81, -31, 52, -76, 107, 15, 108, -103, -83, -62, -104, -117, 100, -107, 46, 49, 17, -70, 92, 12, -108, 108, -101, 72, -112, -57, 2, 14, 101, -122, 64, 11, -55, 71, -37, -78, 11, -80, -120, 38, -90, -30, -97, -116, 72, -24, -61, 47, -16, -42, -96, -97, 83, -8, 91, 84, -6, -22, -20, -65, -45, 88, 45, 107, -23, 42, -112, -71, 57, 109, -93, -76, 32, 24, -39, -82, -63, -8, -93, 51, -89, 19, 10, 43, -59, -6, -13, -66, -69, 48, 95, -56, -75, -85, 96, -39, -52, -56, -104, 81, -113, -79, -117, -121, -51, 40, -99, -71, 118, 32, 8, 27, -23, 64, -10, -107, 80, 29, -25, -60, 40, -71, -117, -52, 16, 117, -35, 113, -19, -25, -76, -46, -11, -29, 101, 31, 114, -30, 44, 110, -114, -30, -79, 84, -70, -20, -8, -43, -24, 93, 54, -119, 11, 41, -39, 110, -16, -6, 48, -47, -17, 11, 38, -35, -4, -52, 71, 113, -52, -79, 35, 25, 17, -105, -21, 68, 19, -78, 2, 17, -99, 12, 86, 25, -25, 67, -47, -102, 47, -122, 92, 115, 58, 11, -85, -81, -5, 112, 32, 25, 114, 43, 10, 100, 111, 91, 92, 42, -21, 52, -41, 36, 65, 104, 39, 70, -45, -19, -89, -7, -8, -62, 103, 49, 113, 86, -50, 40, 63, -12, 21, 75, -47, 101, 3, -84, -49, 83, -88, -102, -62, -29, 16, -73, -101, 43, -23, -47, 92, 71, 17, -90, 37, 15, 53, 57, -125, 14, -28, 67, -58, -101, 76, -120, -35, -19, 70, -1, -109, 111, 65, -113, 24, 19, 2, 1, 40, 116, -80, -52, 17, 13, -113, 81, 13, -56, -33, -76, -112, -6, 98, 65, -103, 109, -118, 98, 25, -87, 112, -75, -86, -111, 63, 126, 74, -65, -31, 18, -60, 41, 110, -96, 101, 113, -42, -120, 12, -54, 65, -44, -84, -30, 115, 11, 105, 32, -78, -28, 104, -96, 23, 50, -76, -105, -15, -23, 39, 100, 42, 118, 55, 45, 95, -96, 18, 81, -33, 113, -99, 44, -122, -46, 1, 104, 50, 1, -29, -108, 35, 45, -121, 4, 88, -111, 61, -2, 18, -26, -28, 1, -86, 26, -72, -84, -22, -91, 14, -13, 12, -55, 71, 109, -46, 103, 112, 29, -3, 23, 30, -101, -6, 85, -103, 39, -119, 74, 81, -19, 101, -93, -8, 37, -92, -45, -114, -39, -75, -104, 59, 48, -34, -14, -44, -21, 59, 89, 23, 8, -61, -115, -99, 10, -50, -40, -79, 40, -33, -15, -23, -68, 11, 113, -90, -15, 62, 43, 116, 68, -93, 64, -121, -18, -31, -78, -117, -60, -2, -77, 14, 90, 104, 7, -75, -1, 73, 17, 38, 63, 13, -20, 118, 102, 11, 26, 64, -42, 119, -43, 12, 63, 112, -90, -32, 121, 43, 75, 21, 59, 35, -26, -18, 11, 59, 110, -23, -28, -68, 74, 107, 31, -85, -75, 68, 27, -67, 101, 83, -70, -81, -74, -81, 62, -56, -60, 32, 46, -12, 39, 25, -100, 41, -21, -51, 101, 46, 54, 51, -107, -101, 84, 44, 1, -54, 82, 50, -49, 84, -32, -62, -101, -77, -10, 19, -118, 96, 68, -67, -5, 93, -53, -5, 32, 24, -68, -100, -104, 93, 41, -93, 12, -114, 79, 5, 98, 38, -67, -85, -98, -12, -113, -31, -38, -70, 34, 61, 71, 7, 35, 115, -14, -78, 50, -61, -12, -23, -39, -115, 62, -107, -94, 62, -36, 76, -42, 61, -63, 62, 81, 87, 47, 96, 88, 87, 90, -94, -123, -104, -96, 25, -39, 74, -57, 113, 33, 7, 97, 45, 116, -84, -17, 89, -111, 80, 65, -90, -85, 7, 108, 84, 38, -61, -74, -108, 39, 18, -89, -77, -62, 7, -17, -71, -100, 32, 105, 89, 76, -82, 49, -113, -19, 66, 41, 94, -98, -67, 21, 81, -112, 12, -113, 24, 32, -100, -95, 102, -67, -28, -95, -17, -88, -114, -71, -21, -89, 79, -48, -49, 14, -38, -24, 41, -93, -3, -23, 84, 30, -10, -7, -24, 92, -81, 2, 50, 47, 81, -5, 96, 98, 93, -52, -48, -117, 83, -86, -83, 24, 109, -2, -20, -29, -45, 106, -15, -107, -81, 107, -91, -99, 94, 13, 53, 54, 19, 81, 76, -8, -64, -101, 42, 62, 67, 62, 12, -67, 124, -22, -2, -123, 1, 40, -32, -76, 71, 123, 38, -123, 32, -35, -98, 107, 49, -48, 72, 53, -86, 94, -4, -116, 66, -82, 61, 95, 18, 28, -103, -107, 49, 7, 5, 124, 54, 98, -61, 85, -94, -44, -125, -78, 98, -97, 0, -72, 17, -35, 64, -4, -60, -25, -22, 104, 96, 63, 34, -46, 101, -69, 35, -36, 98, -31, -37, 76, 43, -22, -118, 16, 4, 46, -92, -116, 57, -110, -12, 65, -71, 71, -3, 65, -53, -17, 69, 95, 50, 108, -16, -108, 37, -78, 101, 21, 32, 7, -10, 108, 34, -51, -48, -98, 109, 46, -52, -112, -24, -63, 88, 47, -108, 50, -15, 9, -62, -50, -46, 3, -117, 81, 2, -122, -85, 105, 22, 59, 21, -3, 45, 83, -39, 54, 105, 5, 76, 99, 66, 25, -28, 28, 38, -46, 39, 72, 107, 84, -60, -104, 16, -4, 90, 108, 0, 22, 0, 101, -116, 55, 70, 99, -23, -24, -123, 14, -79, 108, 74, -101, -70, -50, -104, -13, 90, 19, 16, -20, -109, -8, -1, -62, -64, -21, -53, 104, 25, 20, -28, -90, -28, -125, 34, 24, -21, 61, -7, 76, 110, -96, 28, -7, -86, 36, -35, 6, -39, -70, -67, -43, -66, -68, -30, 125, 80, -78, -38, 63, 92, -115, -36, 1, 82, 35, 17, -109, -2, -85, -101, -91, -107, 97, -97, 20, -54, -34, -1, -74, 24, 117, 81, 60, -67, -7, 73, -18, 64, 56, -12, 126, -107, 79, -87, 17, 29, 24, -53, 55, 74, 72, 96, -41, -87, -3, -93, 7, -91, 74, -66, 11, 45, -88, 3, 48, 39, -11, 81, 59, -103, 69, 93, 56, 86, 22, 8, -108, -109, 100, -110, -93, 57, 121, -5, -56, -39, 59, -53, 27, -23, -29, -52, -58, -1, -93, 11, 9, -29, 3, 11, -43, 127, 106, 106, 103, -89, 14, 94, -96, -79, -89, -74, 121, 1, -28, -99, 119, -10, -102, -14, 51, -46, 84, 8, -70, 95, 9, -99, 57, 39, -52, 60, -33, 22, 117, 108, 39, 23, 102, -123, -115, -83, 11, -21, 78, -27, -79, -30, 19, 73, -126, -26, -59, 117, 19, 36, -45, -76, 89, -58, -2, -95, -43, 12, 10, -47, -48, 102, 20, -56, 48, 55, 78, -51, 67, -110, -90, -114, 43, 45, -70, 89, -32, -78, 7, -10, 110, -102, -60, -13, -16, 58, -111, -96, -21, 66, -83, 52, -18, -107, 34, 96, -87, -101, -7, -3, 120, -32, -85, -11, 42, 51, 34, 68, -24, 102, -67, 89, 101, 36, -71, -4, 93, 9, 82, 81, -36, -12, 18, 118, -54, 35, -113, 29, 86, 27, 69, 115, -27, -60, -76, 32, 113, -39, -59, 99, 29, 90, 114, 95, 100, 115, -21, -64, 126, 101, 18, -21, 30, 106, -18, 93, -18, 50, -104, -123, 104, -36, 73, -79, -26, -88, -51, 13, 32, -83, 114, -109, 42, -8, -120, -57, -21, -35, -115, -62, 41, -14, -24, 39, 48, -87, 71, -19, -28, -6, 119, -86, -3, 105, -34, 2, 41, -10, 9, 17, 80, 114, -106, -16, 46, -105, -36, 44, -45, -114, -36, 40, 82, 13, 28, 99, 102, 44, 45, -25, -38, -100, 123, -36, 88, 92, 105, 64, 110, -95, 12, 29, -90, -54, 25, 39, -86, 92, 103, -85, -39, 89, -56, -69, -105, 79, 100, -71, -62, -47, 45, 10, -27, 64, -18, 49, -88, -110, -61, -76, -113, 53, 48, 35, 91, 110, 22, -7, -106, 107, 61, -66, -103, -117, -35, -122, -41, 116, -103, -103, -91, 12, 125, 46, 46, 98, 70, 63, 109, 32, 9, -3, 1, -24, -99, -20, -80, -89, -75, 71, 98, 57, 94, -87, 18, -67, -110, 23, 83, -101, 82, -42, 71, 101, -59, -83, 0, 61, -26, -32, -120, -125, 65, 25, 52, 79, -30, -108, 38, -71, 60, 5, 88, -85, -67, -74, 41, -22, 102, 115, -11, -11, -71, 115, -101, -117, -56, 48, -105, -46, -10, 57, -47, -75, 125, -119, 91, -16, -53, -72, 37, 75, 71, -47, -45, -73, -99, -125, -49, 101, -85, 45, -33, 34, -64, 53, -39, 86, 98, 10, -86, 66, -73, -113, 65, -67, -27, -16, 115, -20, 77, -4, -79, 7, 105, 111, -84, 21, -63, -56, 105, -35, 41, 64, -44, -42, 21, 69, 92, -105, 79, -90, 32, 53, -57, -65, 13, 85, 37, -14, -104, -81, -19, 27, 121, 41, 32, 29, -49, 17, -52, 124, 39, 99, -113, 21, -31, -102, -11, 33, -99, 68, -124, -98, -27, -62, 120, 31, -6, 80, 8, 75, 44, -7, -66, -33, -9, 90, -96, -88, 51, -83, 40, 59, -23, 24, -104, 117, -72, 119, 100, 65, 3, -18, 99, -116, 60, -109, 65, -117, 83, -116, -58, -102, -35, 51, -82, -78, 8, 112, -81, 101, 1, -60, -1, 87, 81, -119, 51, 58, -109, 84, 21, -64, 91, 2, 26, -9, -16, -30, 99, -91, 49, -110, 30, -51, -84, 108, 17, -101, 15, 30, -58, -81, 74, 115, -15, -23, 78, 65, 7, -24, 107, -40, -80, -42, 50, -30, 104, 59, 1, -94, 39, 98, 100, 110, -102, -3, -52, 51, -37, 100, 19, 106, -87, 24, 17, 116, -106, 47, -39, 35, 49, -104, 61, -77, 57, 88, 27, 107, -49, -69, 94, -106, 27, -64, -31, 32, -9, -94, -59, 0, -113, -82, -110, 103, 18, 116, -8, -121, 32, -99, 49, -53, 54, 47, 87, -14, 7, 85, 94, 57, 37, 23, -96, 35, -22, 39, 113, -27, -71, -84, 90, -68, 44, 34, 56, -10, 48, -14, 122, 17, -74, -100, -68, 53, -21, -32, -102, -116, -116, 102, 73, 105, 48, -28, 103, -86, -2, 54, 115, -62, -4, 56, -74, -61, 85, 1, -30, -80, -58, -73, 94, 43, 96, -50, 21, 30, -76, -22, 46, -65, -41, -29, -106, 31, 67, 117, -87, -53, -5, 77, 80, -41, -63, -121, -17, -69, -120, 40, 90, 52, -105, 92, 20, -76, -49, -31, -12, 10, -52, -118, 56, 67, -119, -19, -115, -63, -70, 98, -49, 1, 22, 74, 55, -82, -115, -59, 105, -86, -52, 45, 112, -27, -80, 47, -109, -115, 22, -91, -121, -89, -79, -75, 83, 73, -44, -115, -70, -22, -9, -77, 108, -80, 56, 34, -61, 43, 115, 30, -71, 7, -68, 87, 36, -48, -4, 85, 107, 21, -10, -87, -66, -64, 102, -111, -57, -10, -69, 53, -95, 89, 99, 18, 65, -108, -3, 4, 37, -6, -58, 90, -126, -61, -17, 47, -19, 107, 104, -88, -62, -58, -1, -99, -47, 38, 98, -118, -1, 14, -5, 7, -7, -48, -2, 90, -63, 78, 40, 75, -71, -95, -102, -96, -116, -32, -22, 23, 103, -52, -85, -91, 60, -42, -50, 42, -15, -56, 124, -56, 42, 46, 124, -31, 9, -18, 55, 84, -21, -67, 24, 31, 18, -57, 82, -84, -20, 10, -54, -4, -47, -6, 87, 14, 49, -114, 115, 91, -22, 68, -46, -72, -45, 70, 49, -24, 25, -80, 39, -14, -30, 34, 0, 29, -40, -29, 83, 96, -84, -59, -9, -113, 96, 96, 0, 1, 29, 19, 15, 110, -95, 88, -62, 35, -52, -26, -78, -7, 83, -63, 81, 36, 4, -92, -118, -78, -10, 88, -71, 46, 60, -69, -90, 37, 8, -98, -105, -84, 8, -51, -19, 22, 27, -64, 27, 79, -17, -42, -25, 110, -58, -102, 123, -105, 93, 102, 66, 75, -87, 69, -107, 19, -15, 14, 108, 7, -109, 104, -107, 110, 78, 38, -105, 32, 33, 64, -109, -34, -63, -95, -76, -31, 24, 16, 88, -98, -105, 45, -27, -64, -21, -101, 116, -86, 9, -28, -122, 24, -2, 7, 9, -56, -100, 101, 28, 123, -1, -29, 106, -16, 63, -47, -91, 17, -66, 88, 14, -64, -56, 60, 22, 78, 9, -98, 50, -63, -22, -62, 14, 17, -109, -31, 17, -33, 110, -34, -116, 15, -63, 4, -25, 16, -35, 70, -4, -33, -30, 57, -90, -67, -82, -70, -14, 41, 75, -59, -109, -29, 64, -122, -17, 2, -117, -103, 94, -1, -94, 75, 81, -110, 40, -51, 46, -107, -98, 102, 120, 66, 24, 52, -28, 125, 80, 43, 30, -127, 9, -127, -55, 8, 71, -119, 16, 110, 38, 110, 45, 47, 85, 48, -72, -88, 102, 51, -8, -15, -60, 23, -110, 89, 76, -54, -46, -50, -34, -35, -57, -8, 13, -113, -39, -66, -32, 57, -31, 81, 7, 63, 106, 110, -105, 21, -42, 25, -50, -82, 32, -72, 13, -23, -101, -29, 101, 72, -75, -12, 44, 4, 52, 0, 13, 95, -63, 27, 117, -64, 105, -67, 39, -15, -68, 102, 62, -105, -41, -79, -28, 62, -2, 66, -112, -90, -58, -91, -119, -73, -13, -16, -22, 18, 62, 3, -38, -15, 118, 94, -94, -42, -104, -67, 40, -104, -29, 79, -111, -35, -24, 110, -64, -74, 68, -43, 88, -74, -16, 89, -103, -86, 120, -66, -58, 14, -26, -88, 126, 0, -73, -22, 12, -85, -109, 35, 51, 116, 117, 117, 107, 67, 80, 13, 24, -114, -10, 1, -36, -65, 30, 8, -89, 123, 48, 13, -18, 118, 20, 29, -25, 48, 59, -104, -76, -91, -122, 88, 33, 81, -115, -93, -9, -54, 95, 21, -57, -115, 92, 95, 46, 16, 51, -36, -99, -51, 80, 98, -16, -7, 45, 87, -39, -44, -78, -28, -55, 28, 97, -96, 16, 40, 79, 16, 20, -60, 99, 93, 54, 29, 82, -35, 26, -37, 108, 23, -82, 65, 82, -33, -56, -72, -30, -75, -83, -111, -117, 7, 28, -27, 116, -41, -83, 58, 12, -7, 90, 55, 101, 112, 8, 86, -66, 90, 31, 56, -82, 110, -72, 26, 18, -18, 46, 52, -53, -116, -29, -22, 86, -81, 95, -94, -2, 90, 58, 70, 26, -78, -44, -41, 30, -83, 59, 63, -63, -43, 98, 118, -52, -60, -1, 50, 30, 77, 29, -49, 113, -102, 22, 65, -119, 108, -11, 71, 13, 80, 104, -21, -2, 7, 108, 57, 106, 83, 38, -76, -65, -27, -55, -4, -114, 80, -68, 56, -93, 41, 42, 36, -40, 111, -115, 45, 19, 0, -15, 24, -104, -104, -77, 18, -33, 116, -102, -19, 35, -56, 39, 64, 68, -16, -7, 15, 79, -107, -96, -25, -102, 116, -45, 50, -93, 50, -84, 9, -113, -58, 66, 64, 39, -57, -24, -74, -63, 47, 124, 47, -1, 113, -98, -1, 54, -49, -16, -54, 96, 51, -2, 31, 112, 104, 2, -92, 52, -125, 35, -34, -94, -103, -79, -68, -15, 66, -103, -87, 0, 126, -57, -62, 110, -74, -94, 23, 28, -6, -55, 6, 53, 113, 56, 21, -37, -53, -71, -55, -63, -41, -25, -86, 25, 43, 21, 79, -47, -56, -67, 102, -77, -74, -55, -82, 112, -108, 81, 28, 30, 120, -21, 85, 33, -78, -42, -117, 75, 73, 58, -95, -81, -89, -82, -27, -112, 30, 81, 0, 15, 115, -68, 120, 19, -75, -34, 12, -6, 26, 116, 91, -29, -21, 11, -118, -42, -103, 30, 49, -38, -60, -22, 67, -60, 47, 60, -3, -69, -95, -120, -62, 100, 119, -93, 66, 57, -58, 3, -20, -29, -94, -40, 77, 18, -48, -59, -115, 14, -10, -3, 76, 27, 45, -67, -28, 94, -68, -4, 20, 99, -18, -82, -12, -100, -105, 36, 99, 84, -70, -87, -9, 68, 117, -102, 122, -39, -29, -70, -1, 86, -2, 15, 102, 66, -94, 100, -28, -88, -32, 3, -20, 29, -93, 33, -40, 58, 0, -9, -4, -34, -87, -3, -63, 120, -58, -66, 73, -109, -15, -92, -92, 39, -88, -107, 98, 108, 83, 94, -62, 7, 14, 29, 0, 78, 79, -64, -15, 11, -25, -22, 19, 38, -93, 80, 35, 91, -40, -3, 5, 66, -100, -41, -93, -53, -15, -60, -15, 40, 46, -10, 27, 108, 10, 35, -117, -54, 3, 112, 61, -18, -115, -20, -108, -12, -19, -23, 11, -43, 82, 60, 81, -109, -66, -30, 1, 110, 112, 25, 12, -115, -18, 19, 4, -96, -79, 112, -45, 70, 24, 121, 10, -122, -27, -117, -17, 56, 26, -100, -124, -65, -56, 20, 33, 27, -99, -98, -97, 114, 6, 11, 50, 62, 42, 100, 103, -18, 71, -27, 39, -69, -43, -118, -37, 7, -78, 91, 94, 119, 48, 58, 6, 0, 85, 39, 12, -46, 113, -13, -42, -72, -88, 58, -20, 80, -70, 109, 35, 49, -126, 46, 85, 17, 84, 98, 43, 6, -61, 87, -31, 72, -35, -19, 117, 19, -10, 125, -76, 90, 100, 28, -117, 1, -5, 36, -15, 11, -112, 105, 114, -55, 70, 34, 97, 43, 24, 72, 19, -39, -35, -43, -1, -26, 16, -10, 76, -79, -7, -112, 97, 9, 43, 91, -110, 121, -27, -113, 41, 67, -107, -19, -123, 107, 27, -75, -84, -93, -102, 30, 70, -71, -29, 92, 102, 0, -79, -62, 44, 110, -75, -107, -80, 95, -109, -89, 89, -9, 93, 109, -87, -72, -39, 57, -110, -106, 3, 29, -7, 33, -19, 41, -109, -39, -75, -125, 125, -91, -43, -101, 44, 58, 122, 18, 123, 42, -110, 4, -73, 9, 117, -20, -46, 102, 89, -117, -11, -15, -103, -55, 74, -11, 117, 100, -111, 24, 58, -64, 103, -110, 63, 26, -45, -113, -55, 66, 54, -88, -80, -60, -63, -119, -68, 106, -9, 37, 108, 124, 43, -21, -101, -53, -29, 98, -107, -52, 2, 72, -115, 11, -10, 74, 109, 60, 72, 60, -85, 23, 4, 38, -42, -15, 106, -74, -66, 27, 100, 112, 105, -73, 36, -19, 3, -14, -62, 33, -33, -19, -113, -54, 21, -33, 57, -79, 127, -58, 7, 34, 3, 39, -105, 5, -90, -18, -47, 4, -110, -120, -60, -24, -50, -61, 63, -7, -99, 86, -103, 77, 58, -113, -29, 62, 102, -17, 122, -27, -106, 0, -82, 91, 24, -114, 31, 32, 69, -25, -34, -102, 111, -41, -87, -5, -18, -97, -46, -7, 111, -42, 21, 37, 101, -77, -11, -12, -85, 67, 106, 85, 73, -93, 104, 52, 8, -8, 56, 110, 99, -71, 24, 69, 115, 7, -35, -11, 22, -94, 115, 32, -22, 19, -12, -34, 99, 52, -34, 86, 77, -108, -111, 92, 68, -45, 115, -27, -5, -64, -73, 103, -2, -83, -32, -33, -41, -105, -69, 122, 62, -91, 70, 42, -45, 85, 25, 118, -101, 69, 91, 50, -16, 53, -46, -75, -31, 54, 43, 77, 28, 74, -114, -81, -39, 86, -41, -35, -8, 108, -64, -118, -43, -33, -27, 6, -115, -13, -80, 31, -88, -55, -100, 87, -99, 113, 64, -10, 81, -122, 14, 43, 96, -40, -109, -65, 53, -102, 125, -42, 113, -14, -69, -102, 10, 21, 101, 93, 12, -17, -60, 16, 75, 119, 30, 25, -95, 100, 10, 95, 100, -96, 102, -72, -28, 126, -62, -120, 115, -65, 35, 40, -115, -87, 57, -5, 37, -55, 0, 77, -102, 23, -97, -77, 111, -78, -69, -104, -46, 4, -37, -107, -121, -27, 78, -3, 100, -41, -22, 85, 52, 105, 20, 70, 43, 94, -107, 111, -53, -117, 78, -46, -58, -52, 30, 83, -86, -43, -112, 10, -63, 21, -15, -23, -103, 53, -18, 9, 64, -49, 46, -20, 15, 101, 39, 118, 50, -18, -119, -68, -2, 85, -73, 34, 62, 0, -116, -58, -52, 71, 17, 89, -47, -94, -34, 118, 25, -32, -37, 49, -74, 112, 17, -65, 106, -4, -73, -25, 7, -72, -77, 115, 93, -94, 16, 95, -62, -118, 58, 69, 9, 27, 55, -43, -13, 105, -23, -9, 35, 83, 54, -120, -125, -32, 2, -98, -8, -102, 35, -68, -75, -91, 45, -41, 103, -113, -39, 52, -62, 66, 80, 92, -26, -50, -29, 76, -47, 102, -74, 95, -42, 125, -4, -45, -57, 115, 75, 44, -101, 37, 92, -56, 53, -41, 70, 18, 97, -81, -92, -21, 80, 72, -57, -50, -19, -8, 111, 40, -112, 108, 85, -40, -39, 1, -87, -64, -110, -42, -34, -41, -119, 121, 53, -33, 23, -41, 108, -83, -97, 112, 74, -79, 77, -51, -3, 116, -87, -97, 113, 29, -70, -14, 65, 21, -86, 115, -101, 11, -68, -47, 55, 32, 126, 101, 72, 66, 64, 86, 83, -103, -30, 12, -103, -85, 108, 123, 96, 35, 87, -42, -106, -43, -33, -93, 15, 100, 15, -93, -50, 41, -97, -73, -42, 19, -54, 10, 11, 65, -102, 109, 79, -108, -69, -88, 88, 112, -4, 96, 98, -60, 69, -89, -84, -65, 67, -40, -38, 1, -119, 123, 99, 12, -1, 117, 35, -53, -15, -79, 0, -110, 66, -89, 6, 40, -29, 70, -49, 54, 84, 111, 63, -105, 27, -71, -95, 54, -51, -5, -81, -126, -38, 10, -88, 32, -66, 123, -81, 81, -32, 56, 71, 90, 44, -107, 89, -101, -14, -68, 49, -33, 100, -59, 89, 42, 83, 73, -37, -49, 104, -70, -44, -14, -54, -28, 97, 105, -5, -91, -105, 117, 14, 102, -14, -17, 102, 20, -8, -25, 108, 98, -64, 93, 10, 21, -33, -15, -24, -17, 4, -90, -9, 71, -14, 42, -12, 89, 69, 71, 101, 52, 106, 12, 12, 48, -57, 61, -40, 102, -17, 72, 25, 122, 69, 44, 46, -60, -13, 16, 62, 7, 112, 22, 44, -75, 32, 98, -114, -29, 85, 42, 64, -61, -8, 12, 23, 22, -29, 64, 2, 107, -68, -88, 55, -43, -120, 3, 71, -117, 55, -10, -5, -10, -38, 50, -13, -28, 61, 2, 3, -121, -90, -118, 14, -113, 10, -13, -45, -47, 97, -81, -43, -45, -57, -62, -123, -111, 64, -17, 34, -17, 30, 40, -21, 65, -99, 47, -30, 107, -62, 123, 52, -99, 49, 1, -22, 1, -56, 80, -75, 15, 100, 59, -62, -15, -34, -10, 35, 34, 93, 9, -87, 77, 116, 116, -73, 33, -90, 121, 93, -67, 11, -33, 35, 22, 41, -92, -74, -87, -36, -122, 68, 116, -112, -66, -2, 114, -73, -13, -97, -93, 26, -26, 44, 91, -68, 30, 102, 2, 33, 32, 7, -69, 8, -8, 53, -73, 19, -122, 17, 121, 62, 56, -76, -74, 11, 112, -8, 45, 123, -82, 27, -4, -102, -65, -13, 14, -57, -50, -70, 26, -18, 90, -113, 101, 46, 64, 79, 114, 13, -11, -61, -3, -38, -36, 50, 25, -60, 5, -52, -68, -62, 56, -122, 76, 86, -91, -57, -115, 51, -15, 121, -98, 86, -78, 62, -113, -43, -70, 86, 34, -45, 98, -114, 40, 63, -53, -85, 74, -58, -81, 85, -66, -7, -34, 59, 104, 83, -8, -22, -84, 116, 84, 42, -46, -79, 109, -112, -79, 86, -120, -45, 13, -16, -38, 42, 119, -31, -101, -70, -8, 111, 19, -93, 24, -62, 96, 25, 31, 86, 85, -1, 54, -98, 0, 57, 115, -107, 61, 72, -46, 51, -5, -76, 5, -75, 105, 13, 113, 81, 120, -48, 36, 116, 0, 37, 93, -104, -47, 30, 9, -52, 59, -94, -99, -76, 70, -40, -62, 19, 109, 103, -8, 83, 67, -31, -88, -21, -56, -97, 59, 66, 4, -95, -39, 81, -100, 100, 18, -111, -76, 66, 61, 59, 31, -85, 28, -68, 73, 81, 14, 17, 54, 16, 50, 114, 78, -96, -10, 117, 117, -83, -36, -96, 58, 99, -95, -63, -58, 36, -109, 106, -60, 80, -61, -1, -55, -51, -74, 20, -4, 20, 60, 15, 13, -36, -33, -53, 20, -76, 79, 55, 70, 7, 121, 61, 10, 127, 125, 10, -64, -106, 5, -109, -34, -93, -21, -39, -48, -72, 89, 85, -87, 99, -29, 27, -60, 4, 31, -92, 14, -38, 115, 14, 11, 94, -101, -116, 10, 32, -43, 60, -85, 11, 56, 19, 76, -57, 69, 88, 89, -18, -35, 32, 21, 16, -108, 9, 37, -13, 32, -58, -16, -80, 98, -61, -19, 1, -13, -114, -77, -113, 82, 66, 11, -47, -53, 84, 6, -16, 89, -40, 63, 92, -10, 46, -99, -58, -110, -26, 80, 70, -103, 91, -65, 19, -113, 43, -34, -34, -24, -41, 51, -21, 53, 32, 25, -48, -16, 75, 8, 119, 80, -48, -21, 25, 20, -89, 72, 109, -41, 57, 24, -118, 19, -11, -10, 22, 107, -53, -75, 51, -101, 115, 63, -83, 41, -84, -50, 60, 63, -104, -83, 28, 90, -68, -52, 78, -104, -96, 114, 95, -63, -104, 101, 102, -46, -82, 53, 106, -27, 68, 119, 51, -18, 99, 2, 74, 114, 38, -85, 27, 115, 111, 5, -8, 121, 37, 26, -4, 48, 12, -119, -86, 74, -95, -61, -108, 7, -87, 69, -121, -21, 91, -51, 1, 63, -106, -42, -38, -83, 15, -93, 83, -63, 62, 29, -107, -55, 119, 118, -84, -32, 8, 89, 89, -106, 95, 64, 11, 40, 53, 34, 12, -68, 96, -22, -53, 61, -120, -46, 117, 56, -84, -107, 46, -3, -2, 108, -54, 75, -121, -112, 51, -6, -46, 85, -113, -21, 82, 51, -84, -25, 117, 6, 96, 11, -20, -60, -47, -62, -120, 19, 24, 26, -20, 48, -116, -20, 7, -14, -93, -75, 56, -38, 104, -32, -47, -82, -105, 91, -29, -19, 72, -16, -7, -13, -84, 119, 2, -67, 0, 85, -69, -7, 8, -19, 109, 112, -110, 98, -115, 13, 4, 23, 99, 1, 121, 91, 103, 78, 30, -7, 58, -51, 34, 91, 83, -61, 104, 52, 10, 47, 93, 67, 117, -99, -103, -84, -54, -49, 22, -37, -22, 109, -72, 21, -58, 68, -6, 74, 75, -32, 78, 70, -91, 35, 74, -102, 49, -30, -12, -100, 92, -92, 76, -82, 18, -42, -19, -115, -58, -38, 62, -24, 64, 70, 114, 70, -51, -121, 59, 20, 90, -53, -56, -38, -32, 27, 63, 35, -89, 38, 101, -98, 67, -31, 16, 71, 30, 0, 102, 51, -56, 92, -11, -59, 33, -111, 50, -26, -73, 20, 86, 52, -117, 106, 43, 53, -7, -97, -66, 57, 56, -54, 10, -109, -38, -87, -45, 19, 115, -45, -43, -15, -81, 8, -6, 16, 29, 67, -39, 16, 54, -46, -17, -36, 56, -115, 106, 109, -53, 75, -55, -49, 13, -46, 39, 17, -53, 93, -9, 19, 18, -105, 86, 66, 25, -99, 70, 94, -58, 36, 106, -6, -91, 46, 79, 7, -32, 53, 8, 36, -87, -76, 117, 5, -98, -70, -100, 68, 110, -116, 50, -33, -79, -113, -20, -88, -78, 54, -12, 103, 110, 59, -82, 107, -120, 4, 92, 18, 25, -8, -110, -98, 14, 119, 33, -29, -51, -81, 73, 67, -81, 90, -56, -51, -53, 23, 30, -84, 5, 109, 33, -54, 2, -25, 122, -79, -12, 90, -67, -21, 84, -54, 2, -54, -74, -33, -80, 30, 3, -98, 90, 105, 21, 98, -43, 119, 7, 32, 49, -28, 107, -10, -39, -109, 67, -92, 108, -115, -55, -63, -5, -110, 16, 102, 89, -69, 60, 28, 68, 45, 56, -62, -89, -12, -113, 27, 87, -14, -84, -18, 112, 5, -33, -85, -111, 115, 10, -78, -96, -112, -28, -110, -16, -92, 84, -13, 8, -35, 90, -24, 80, 15, 109, 117, -43, -45, 89, 122, -96, 81, 100, -46, 50, -62, 114, -2, -82, -91, -101, -94, 7, 14, -60, 26, -9, -68, -15, 58, 42, 123, 96, 98, 92, 19, -9, -17, 96, -108, -16, 49, 19, -14, 115, 45, 124, 84, -12, -116, -114, 19, 104, -51, 121, -54, -109, -106, 88, 86, -13, -38, 64, -122, -29, 109, 67, 73, -64, 98, 39, -38, -65, 61, -77, -95, 115, 51, -85, -47, -105, 45, -117, -97, 120, 82, 12, -101, 52, -71, 71, -11, 81, 41, 67, 83, -20, -115, 73, 107, 38, 115, -44, 92, 47, 61, -118, -88, 109, -73, 39, -86, -76, 69, 36, 111, -48, -102, -69, 102, 31, -48, -68, -35, -22, -122, 102, -76, -17, 91, 94, 3, -92, -26, 43, 114, -44, 44, -119, 0, 54, -91, 19, 6, -95, -30, -110, -7, 79, -9, -105, -112, 110, -78, 77, -27, 59, 115, 31, -65, 55, -33, -99, 94, 35, 117, 71, 91, -89, -16, -99, 3, -77, 25, -41, -14, 19, 89, 21, -88, 119, 40, -25, -33, -108, 35, -45, -78, -87, 86, -53, 47, -36, -28, 94, 9, -34, -112, 52, -69, -75, -6, 60, 2, 49, -62, -46, 70, 29, -77, -106, 111, 39, -18, 33, -101, -114, -8, 23, 113, -38, -77, 64, 8, 41, -12, 86, 54, 106, 83, -19, 79, -58, -10, 39, 40, -71, 67, -124, -5, -53, 14, -82, -5, 37, -2, -115, 68, 96, 13, -90, -103, -23, 24, -93, 55, 30, 26, -5, 6, -62, 111, 65, -122, -25, -101, -108, -14, 82, -78, -60, 69, 13, 86, 59, -28, -115, -9, -57, -1, 14, 46, 83, -16, -49, 18, 10, 110, -39, -108, 29, -21, 112, 111, 115, -105, 14, -61, -35, -34, 48, -24, -42, 89, -100, 80, -16, 99, 96, 110, -31, 23, -98, -112, 92, -6, 108, 110, 20, -21, 12, 56, -22, 86, 101, 28, 22, -18, -82, -63, -58, -63, -15, -90, -68, -8, 32, -88, 8, -37, -84, -101, -7, 12, 106, 98, 69, -23, -24, -56, 115, -15, -105, 62, 109, 38, -10, 38, -64, 54, 115, 60, -83, 112, 120, -39, 15, 26, 48, -72, 54, -47, 108, -28, 57, -91, -88, 27, -66, -93, 17, 67, 55, 102, 15, -107, -34, 62, -47, -69, 32, 81, 55, 82, -69, 79, 108, 107, -26, 108, 123, 102, 41, -84, 59, -125, -37, 81, 62, 90, -13, 126, 64, -30, -5, -6, -73, 98, -15, 14, -100, 45, 125, -70, -36, -28, 62, -39, -56, 44, -77, 64, -47, 16, 115, -72, 53, -13, -117, 13, -15, 21, 117, -31, -75, 66, 77, 116, -22, -82, -75, -70, 3, 71, -126, 84, -64, 29, -70, 3, -75, 60, -57, 101, 6, -106, 1, 29, 97, 108, 40, -38, -58, -53, 24, -42, 39, -47, 101, 89, 116, 18, 78, 51, 38, 58, 55, -83, -68, -71, -53, 17, -37, -90, -93, 110, -58, -109, 23, -37, 51, 99, -75, -32, 74, -37, 101, 99, -92, 66, 59, 65, 59, 53, 42, -74, -100, 103, -70, -110, 39, 90, -70, 69, 70, 28, -118, -49, -23, 117, 25, 11, 82, -23, 108, -37, 20, 14, 21, 113, 88, -13, -120, -76, 117, -29, -90, -83, -80, -93, -57, 25, -14, -8, -20, -20, 29, -4, 52, -63, -56, 32, 73, -31, -49, -49, -16, 35, -22, 49, 64, 21, 10, -81, -72, -65, -28, -47, -113, 95, -56, 62, 16, -3, 43, -114, 78, -50, 69, 54, -47, -101, 0, 9, 99, 4, 16, -37, -106, -108, 4, -55, 45, 103, -109, 69, -89, -5, -49, -89, -46, 110, 89, 41, -68, -13, 57, -124, -54, 15, 110, -30, 17, 64, 27, 65, -78, -82, -98, -121, 103, -26, -57, 43, 66, 78, 18, 117, -97, -101, 81, -7, -77, 96, -16, 102, 63, 31, -41, -1, 15, -107, -111, 125, 30, 19, -73, 91, -42, -74, 83, -40, 96, -101, -108, -94, -92, -8, 60, 44, 76, -16, 68, -85, -22, 104, -67, -70, -39, 104, -66, -42, 18, 78, -8, -82, -95, -13, 13, 78, 103, -64, 63, 123, -7, 63, 69, -59, -70, 20, 17, -46, -81, -57, 63, -39, -95, 91, -94, -89, -123, 100, -65, -88, -116, 10, -3, -29, 3, -49, 15, -93, 102, -37, 1, -2, -115, -24, -92, -69, 96, -107, 60, -30, 71, 60, -81, -95, 92, -64, -66, -102, 48, -29, 26, -119, 15, -5, -101, 111, -31, 89, 1, 57, -95, -90, -92, 34, -13, -68, -10, 18, 41, -93, 31, -121, 101, -14, -25, 66, 79, 83, -103, 8, -24, 11, -88, 48, 46, -16, -91, 63, 9, 84, -112, 94, 15, 86, 83, 48, 103, -32, 51, 21, -36, -62, -58, 81, 8, -5, -61, 56, 103, 14, 81, 66, 114, 20, 34, 33, -17, -92, -38, 16, -29, 6, 105, 3, -5, -1, 120, -88, 25, -61, -69, 105, 16, 18, 93, -88, 111, -30, -123, -83, -117, 79, -104, 9, 115, -60, 43, 57, -54, -90, 76, -13, -111, -35, 58, 33, -39, 8, 66, -34, 1, -71, -57, -101, 80, 48, 58, -52, 59, 119, -69, -4, -9, 103, 107, -58, 69, 32, 43, -126, 99, 46, -49, 20, 21, -33, 4, 109, -79, 76, 103, -24, 26, 50, 105, 26, 29, -52, 51, 120, 46, 4, -24, 91, -108, -50, 68, 17, -96, -15, 102, -100, -23, -12, 51, -62, -111, -70, -31, -42, 29, -45, 116, 59, 48, 2, -16, 64, -26, 78, 114, 17, -93, -33, -16, 112, -32, 10, -65, 17, -27, 4, 25, 43, 24, 85, 78, 107, -59, 66, 82, 39, 92, 54, -8, -120, 91, -25, 69, 61, 30, -109, -51, 28, 47, 101, -48, -52, -114, -53, 41, 48, -103, -121, -34, -111, -80, -17, 2, 29, 36, -10, -93, 60, -80, 120, -43, 4, -96, -21, -96, -105, -61, -58, 18, -87, -60, 61, 120, -101, -75, 86, -91, 77, -97, 61, 113, 88, -54, -70, 112, 19, -17, 11, 59, -66, 52, 1, -95, 71, -15, 98, 51, 21, 30, -40, -98, -48, -35, 62, 42, -73, -86, 59, -84, -91, -97, -16, -98, -14, 4, 116, -32, -39, 37, -21, 111, -92, 68, 31, -97, -63, 57, 68, -69, 19, 84, -113, 35, 74, 41, 77, -113, -87, -45, -8, -93, -99, -104, 24, 103, 113, -60, 13, -10, -78, 21, 84, -95, 55, 61, 31, -108, -89, 99, -119, -92, -78, 0, 56, -35, -45, -76, -115, 34, -64, 66, -42, -28, -21, -112, -4, -47, 22, -1, 53, -33, 53, -97, 80, 11, -20, 95, -40, 114, -111, -15, -95, 24, 33, 1, 24, -18, 122, 60, -118, 84, -57, -12, 51, 56, 88, -76, -10, 37, -29, -82, -95, -56, 3, -44, 82, 73, -22, 43, -65, 10, -30, 60, -30, 114, -30, -63, -8, -77, -22, -98, 31, 61, -82, 45, -41, -86, -31, -11, -119, -13, -25, -42, 109, 60, -20, -45, 111, 7, -34, -52, -107, 39, 61, -17, 100, -121, -83, 108, -88, -110, -93, -89, 3, -96, 117, -24, -74, -69, -14, -27, -91, 5, 0, -96, -38, -6, -101, 8, 123, 119, 45, -31, 113, -114, -92, 91, 81, -53, 29, -52, 58, -103, 42, 58, -35, -16, -92, -7, 70, 58, -98, 59, 101, 35, -114, 43, 111, -68, 55, -50, 75, -47, 12, -75, -2, -30, -38, -97, 61, -101, 32, -53, -113, 5, -12, -3, 39, 1, -110, -73, -112, -82, 111, -16, 108, -120, -97, -63, 40, -58, -33, -86, -68, -66, 122, 57, -108, -32, 5, 10, 15, 48, -103, 82, -100, 85, -57, -84, 53, -113, 7, 96, 76, 39, -106, 61, 37, 13, -2, -28, -20, -9, 17, 14, 9, 20, -87, -35, -1, -21, -70, 123, 81, 32, -87, 104, -64, -29, -108, 20, -48, -12, 2, 50, 45, -125, -73, -6, -118, 75, -82, 41, -99, -19, -45, 125, -99, -106, -27, 84, -41, 59, -15, -45, 33, -114, -101, 118, -12, -124, -7, 82, 42, 103, 23, 60, 27, 9, 108, 83, -32, -59, -122, -118, -14, -36, 60, -12, -93, -35, 99, 6, 94, 51, -116, -109, 52, -25, -100, 66, 111, 4, 19, 85, 108, -53, 52, 44, -83, 88, -37, 50, -68, 3, -105, 100, 99, 20, 86, -97, 35, 24, 124, 77, -71, -28, 63, -64, 3, 38, 109, -41, -118, -10, 106, 106, -9, -64, -116, 38, -32, -50, 104, -64, -90, 5, 64, 1, -95, 48, 20, 60, 112, 81, 42, 122, -31, -12, -61, -5, 102, -91, 24, 106, 58, 53, 59, -60, -59, -15, 94, 76, 111, -95, 50, -44, -107, 14, -117, 3, 60, 109, -90, 53, -117, 115, 31, -71, 31, -67, -85, 109, 75, 6, -75, 71, 40, -16, 9, 101, -60, 19, 126, -115, -73, 45, -76, 80, -56, -10, 10, 56, 42, -67, -95, 23, 44, 2, -104, -68, -83, 10, 51, -101, 85, -116, -7, 88, 45, -90, 110, 25, -114, -55, 51, -8, 80, -104, -16, 117, -115, -102, -106, 4, 89, 7, 24, -7, -97, -68, 12, 122, 114, -54, 69, -96, 30, 62, -77, -71, 4, -88, -87, -90, 98, 42, 53, -43, -3, -4, -41, -95, -110, -45, 8, 36, 61, 38, -27, 84, 10, -21, -30, -103, 41, 31, -109, 114, -80, -102, -2, 83, -99, 86, -109, -57, 23, -58, 91, 46, 56, 89, -93, 21, 105, 94, 55, 95, -76, -94, 16, 9, 55, -106, 17, -60, -92, 62, -25, -34, -28, 9, -65, 116, 85, -52, 58, 58, -100, 16, 4, 52, 68, 19, -115, -16, -74, 81, -101, -80, -34, 48, 87, 91, 98, -46, 33, -99, 50, 17, 108, 104, 44, -77, -62, 122, 0, -112, -84, -82, -13, 19, -34, 114, -59, -106, 108, 43, 37, -106, 76, 36, -91, 10, 79, 52, 86, -3, -119, -35, 46, 46, -23, -85, -92, 84, -52, 112, -107, -108, -101, 123, 116, 1, 10, -117, -89, -111, -112, 4, -69, 95, -44, 48, 27, 48, -39, -102, 63, 12, 80, 102, 101, 73, 38, -115, -10, -78, -6, -67, -7, 108, 113, -59, -60, 86, -73, 87, 88, -116, -8, -67, 102, 53, -78, 19, 46, -1, 14, -46, 115, -54, 44, 81, -7, -29, -75, -24, -87, 32, -6, -18, 68, -98, -19, 2, -105, 40, -17, -115, -10, -6, -41, -9, 112, -107, -23, -12, -46, 35, 17, 11, 82, 70, -29, 83, 41, 40, -15, -7, -92, -65, 82, 53, 39, 1, 71, 77, 115, -78, 21, 77, 123, -75, 63, -12, -22, -108, 60, -46, -40, -107, -19, 115, 0, 36, 54, -98, 8, -17, -106, -31, 61, 77, 57, -66, 101, 9, -82, -49, -12, -1, 16, -109, 17, 54, -21, 92, -116, 44, -118, -41, 54, -116, -53, 113, -91, -82, 90, -73, 55, -115, -21, 116, -70, -38, 87, -116, -51, 72, 101, -11, -105, 73, 118, -50, 62, 121, 39, 3, 23, 108, 112, 27, 82, -59, -43, 85, -79, -35, -41, 101, -63, 39, 32, 91, 51, 24, 18, 119, -76, 90, -48, -62, -35, -2, 87, -112, -80, -78, 90, 103, -6, 29, -15, -95, 34, 75, -91, -6, -73, 22, -101, 87, -92, 37, -96, -112, 34, 50, 91, 110, -62, -96, 36, -46, -115, 43, -97, 23, 4, -1, -99, 44, -82, -59, -52, -53, -27, -39, 118, -69, 7, -6, 47, -106, 67, 100, -108, -117, -66, 22, -53, 56, -91, -104, -65, 23, -59, 10, -44, -10, 16, 40, -97, 82, 83, 34, 8, 36, -48, -36, -44, 52, 26, 61, -14, 30, -59, -104, -83, -8, 118, -42, 62, -86, 113, 78, 29, -107, -85, 62, 85, 116, -81, -104, 106, -18, 22, 28, 85, -106, -90, -28, 121, -107, -45, 117, 82, 73, -1, 57, 67, 78, -54, -75, -82, 39, 47, -44, -112, -52, -39, -75, -104, 11, -30, 67, 118, -114, -29, 24, -29, -54, -1, 88, -61, 81, 63, 57, 6, 91, -16, -104, 62, -100, -104, -67, -44, -117, -84, -69, -62, -46, -18, 29, 7, 21, 80, -38, -49, 30, -89, 93, 104, 76, 50, 26, -18, 44, -21, 84, -41, 4, 60, -38, -74, -56, -92, -80, -23, 94, 63, -114, -3, 93, -101, -85, 22, -109, -92, -29, -49, -114, -50, 27, -114, 111, -73, 8, 11, -16, 63, 75, -38, 87, 27, -26, -30, -77, 123, -75, -96, -38, 20, 33, -56, 96, -45, -43, -77, -66, -77, -20, 46, 14, -48, 10, 11, 28, -111, -74, 93, 74, 38, 69, 114, 16, -24, -110, 84, 95, -86, 37, -20, 46, 120, 41, 46, 48, 40, 70, 2, -116, -117, 44, -25, -75, -34, 89, -91, -12, 89, 76, -106, -79, -39, 90, -11, -49, -88, 11, -30, 10, -37, -11, -6, -80, 118, 43, 97, -24, 45, 98, 18, 62, 26, -109, 80, 86, -99, -87, 69, -100, 79, 59, 76, 22, 28, -107, 39, 105, -105, -113, -47, 77, 60, 45, -74, -46, -11, -16, -119, -37, 13, 81, 19, 78, 27, 121, 31, -67, -57, 32, -57, -101, 32, -83, 75, 43, 69, 39, 47, -10, 8, 72, -119, 119, -102, -89, 18, -78, -33, -112, 117, -34, -56, 13, 21, 65, 55, -57, 45, 64, -108, 78, -36, 78, 82, 34, -37, -84, 20, 35, -119, 