#include <stdint.h> 

using namespace std;

static const ap_fixed<8,4> dense1_weights[512*4096]={
    -105,-54,49,-36,-89,-11,-95,76,11,-25,-51,12,-16,-80,-79,-108,-123,50,-60,57,66,75,-31,39,26,-93,46,-90,-90,-66,102,-123,45,-93,-79,-6,52,78,-31,-22,-42,-10,28,-27,-68,117,58,61,105,-21,69,-60,57,-39,-2,-24,-104,120,71,-100,1,50,-83,121,14,-44,-88,-39,-24,88,-8,107,-50,82,-116,99,-23,-31,-74,20,59,65,-25,-78,26,76,70,-17,-54,80,19,-77,-75,29,27,101,70,69,-38,-80,-111,69,-30,20,-53,61,56,20,-96,29,9,44,-120,-79,-20,-8,66,88,-45,26,110,45,72,7,67,24,-2,-29,-100,-126,-1,88,-27,49,15,95,91,-52,-56,45,-71,-3,-72,-85,-73,-75,-23,-85,-48,-94,-112,22,96,20,124,-75,-105,-35,-31,-109,-50,4,22,82,-46,49,-73,-33,-86,-67,-124,-90,-79,62,-79,-24,24,46,33,47,89,8,13,-15,56,-93,-29,-62,70,108,124,85,19,73,1,53,44,-80,-75,55,-13,21,-53,5,-40,-51,-74,47,-66,-73,-32,18,-87,-62,-49,-59,-88,79,78,-76,15,-51,102,14,15,104,105,8,-40,12,115,64,85,-79,1,82,50,95,-124,-48,20,66,127,-72,76,17,-118,80,57,-58,84,-69,-101,126,16,81,35,-28,-108,14,-67,81,-79,-51,-73,51,28,66,104,-73,-73,-68,-44,76,-14,-66,98,-41,-63,48,-89,-32,18,-46,90,15,63,-36,60,-3,-68,-73,66,108,-76,32,-88,-52,-109,-117,-34,-29,79,-64,31,-50,-68,87,45,34,-93,108,-72,10,37,-47,-59,60,62,-12,44,-85,-34,35,73,-67,-17,32,30,108,-98,22,-9,-1,-43,60,43,25,58,68,106,31,5,-8,99,75,-13,1,17,101,-67,40,64,43,0,-5,0,30,-8,-94,4,76,-25,36,49,62,2,-105,-19,-47,5,-65,53,-40,68,-52,71,41,58,-93,55,125,-34,-14,55,42,-6,100,56,78,-87,-127,50,-60,-83,48,-13,-54,-5,20,-83,80,8,-72,-72,-122,-40,-68,93,9,-75,-70,-82,100,-2,-8,47,-33,-9,35,82,-23,3,-91,35,41,-18,-53,63,-19,103,-60,-78,-83,126,-83,-4,-30,-54,-124,97,88,-17,-24,-34,-42,58,43,-63,120,-6,91,-37,1,62,-25,26,70,43,-10,3,-38,82,123,-73,0,-5,-42,17,-13,-95,106,12,-7,-15,-5,-97,39,98,108,-116,-26,-20,95,10,7,-86,-51,23,49,19,-72,-102,90,-123,39,-75,73,-106,-6,-50,66,-107,7,-4,-23,89,32,86,-56,28,115,76,15,-3,-58,-55,8,-74,-54,-95,-15,-60,-20,-83,19,-109,-86,-62,108,-104,50,32,57,-57,-56,88,17,-22,-12,-11,5,-53,-77,-21,-15,-101,13,76,62,-65,91,10,0,89,-7,65,106,26,-11,-75,56,-77,57,46,-68,91,-81,10,125,70,-83,-74,-55,-93,55,-10,-96,69,-11,30,26,68,-35,5,-39,-41,-35,109,-48,25,-26,21,-63,101,-38,116,-59,-13,53,-33,50,-87,47,-2,55,-68,-45,39,-34,7,101,-23,-42,-124,0,-2,24,-75,13,85,119,94,-86,-24,16,66,50,-20,-23,-106,2,-14,63,42,-43,-74,5,-98,-96,-118,-47,53,14,-59,7,-45,-2,21,76,-105,-98,3,98,75,-88,-58,37,-85,-92,90,-26,-102,18,-73,77,-50,-34,-83,-45,3,-71,120,-44,-112,29,4,-13,-48,-62,-40,-77,32,94,61,66,26,-84,-28,-64,-3,48,91,108,-81,68,-49,-53,101,-37,3,16,-98,-22,-53,-30,-44,0,70,-32,91,-15,84,-91,-72,90,32,-10,-80,-64,-43,-77,68,-102,69,-20,-45,-20,79,126,-109,-1,-118,81,-23,49,62,-17,48,68,1,-34,96,80,-113,101,-47,-36,10,56,-103,-40,96,-91,-29,-67,-40,-43,92,-77,-74,101,53,16,71,-29,-46,-36,-52,-4,-53,107,64,-67,83,-19,34,-3,-23,-38,61,91,-38,-91,26,80,54,-1,-61,8,-13,-88,-93,-86,-61,101,40,10,-118,9,-87,-44,95,-71,-45,31,80,-7,3,-75,124,-47,95,-78,90,99,-75,-68,-118,103,73,27,53,-5,71,-18,27,-22,-13,64,-1,16,56,8,27,-87,-34,26,-106,-5,81,77,2,-51,4,18,70,-101,-79,92,-52,94,19,-9,119,-92,-53,-13,-15,42,-31,-91,-5,-78,3,38,-73,76,-5,25,-54,-50,66,-66,-66,5,-40,-25,-64,-14,-48,110,-99,-106,-83,49,-72,-110,115,51,-14,-30,88,39,23,-53,-10,25,-68,40,-51,62,-19,-31,-84,-88,50,-21,-75,88,-119,-100,-66,-3,-78,-6,-87,23,-13,66,-5,15,-47,61,-3,63,-70,-70,119,-76,-14,-90,2,47,56,89,106,-87,96,-16,62,-56,-39,-85,56,-18,79,-13,41,-82,-40,75,-77,-106,-24,-65,33,-118,3,-54,-12,39,36,58,28,-111,-85,-1,43,81,-8,-25,-61,68,-110,46,-118,30,71,-35,68,118,71,-65,65,71,-33,77,98,-34,-50,-5,-126,-67,25,-87,-51,60,-47,28,8,90,65,5,-79,89,46,20,-74,74,-22,-103,68,62,-27,121,3,18,14,-94,-42,74,118,29,-41,1,-20,-83,79,-101,79,-23,65,13,-107,-82,69,-26,81,61,32,-63,123,-50,-79,60,-30,87,10,-108,116,1,-33,14,25,69,-114,31,45,-8,-84,-79,60,36,-36,51,-15,75,36,13,55,-13,69,3,-17,-57,-24,-89,17,69,-89,3,19,96,-39,89,-15,-52,-20,30,-119,-94,-102,15,-102,105,-80,37,-63,58,65,-13,41,30,-30,-21,90,-99,-51,-19,-7,-32,-106,-8,69,88,50,-15,-7,86,96,45,-106,42,-7,13,-42,-91,-73,105,29,56,28,-4,96,68,72,-28,-40,-90,78,-6,-9,-126,-12,-2,-21,63,-34,88,52,-31,-68,88,32,86,-63,63,-65,5,124,19,11,-56,44,26,102,23,77,40,43,-86,-54,71,64,-19,44,26,62,-59,38,76,-15,-110,89,-36,38,-15,-102,54,69,-8,-23,-28,-6,3,-62,-93,22,28,77,70,-9,81,-33,-104,-85,-62,-101,-3,89,-3,126,7,-39,12,72,-21,-58,10,7,60,-88,-62,37,2,90,59,57,-47,-78,-48,18,-50,56,-64,-107,82,11,3,84,60,-124,50,82,-63,-36,-30,-82,-52,8,2,-24,-49,92,67,-40,-34,50,-89,-63,-56,53,-85,-27,80,30,-23,-53,-23,45,56,48,83,-76,102,13,-76,115,-27,-100,-56,-58,-29,39,-121,123,68,-78,16,43,-64,-111,74,67,-24,57,-80,-31,-14,99,73,47,-89,-33,20,114,48,0,62,-60,73,22,62,-19,40,24,27,65,-6,-101,93,107,94,68,105,-84,-83,1,32,118,-30,-23,94,-108,-55,-77,58,-22,25,57,-75,-102,45,-56,-46,42,-78,-65,-36,-3,-19,44,94,42,45,-37,76,82,47,-6,-125,57,-25,41,-79,-44,8,-107,-54,-89,-56,86,13,-103,-66,-39,-5,-112,-27,-21,-12,-86,38,-47,78,23,36,-48,60,-20,5,-45,46,-18,8,30,79,-87,-105,-104,-53,79,-81,38,15,-48,41,-18,-90,76,111,-111,89,-19,69,-56,-15,-83,-20,108,54,4,74,52,89,45,-66,-13,-50,39,26,-104,-22,46,50,103,-69,80,-64,-22,97,-50,105,24,119,10,-89,-6,-7,-57,36,-2,35,-64,8,48,49,-11,-75,11,88,-90,39,24,-20,-77,-68,24,68,42,46,115,20,-104,80,79,-5,-78,-53,-45,-46,-116,21,39,-3,-80,-86,70,-84,106,18,-88,-83,-86,74,-82,-43,-90,-18,2,-24,-53,72,-23,-5,-20,-80,117,15,-90,-13,68,-60,-103,-27,20,-87,108,9,69,1,78,72,29,-37,-104,67,-13,13,85,52,-21,16,-7,-12,46,-52,-47,-35,50,11,-21,73,-68,-47,-27,-106,-70,64,-107,-46,-48,-74,-28,-84,-67,26,-43,54,14,81,-113,68,57,74,-61,-22,-78,124,68,69,17,45,-114,-54,48,51,-70,-35,-47,2,76,-7,-62,12,-34,101,-18,-97,84,45,-10,-21,94,-55,68,-100,-12,-90,31,25,40,19,-3,-14,-8,-22,-70,-62,24,-85,-120,62,96,-76,26,-12,121,41,-79,28,5,-62,122,96,-39,-33,5,-85,7,88,41,-4,-103,52,101,-90,60,-2,-86,-39,-42,-65,44,30,30,-71,-25,76,56,62,-57,-34,51,50,34,0,-77,40,-72,-51,63,-35,66,-34,-126,-54,-27,-8,65,-78,-36,-65,36,-87,-74,18,-125,97,-93,78,-74,63,-11,26,-96,57,35,48,-48,58,-62,63,31,-23,-60,-5,0,79,45,-77,-40,22,87,-54,55,-33,33,-84,14,60,6,-15,88,33,-26,27,120,-6,-62,-72,-101,-12,-30,18,-74,22,76,-8,8,-1,-80,-36,4,16,87,26,-75,78,-37,-73,-80,0,4,94,-50,7,-92,2,-72,78,22,-29,96,3,-93,83,86,-23,54,-56,-84,17,12,39,45,39,-5,-6,28,-69,75,75,77,10,-10,55,2,89,-36,21,-66,61,-79,69,-54,53,119,-45,-66,54,-83,92,27,77,-4,-48,-91,73,80,74,22,-20,-43,14,82,99,-51,-74,-100,45,85,-77,-87,122,53,-44,78,-27,-13,-76,-74,-28,72,85,24,87,-83,96,60,28,-31,54,30,-72,-57,-38,-63,40,74,19,-51,32,-91,8,58,-35,-91,86,-60,-73,32,12,9,47,-108,-89,70,-56,-48,64,-35,-105,-56,62,63,-35,-82,103,-59,-63,82,25,-51,-11,-54,79,83,-28,29,-78,63,28,-47,87,6,-32,23,19,12,-69,-71,-71,0,-57,-65,-100,-40,-27,-40,78,-101,89,48,46,63,-87,60,-12,39,-54,-93,67,-34,-19,-77,-15,-96,-72,88,8,68,-29,59,61,-39,4,20,3,43,-93,73,-24,-98,-36,33,-123,45,-78,3,8,-4,-74,-38,35,-98,-26,32,66,120,-5,27,-43,-55,-18,-70,12,98,38,-1,85,83,-44,119,46,21,64,-65,97,-13,63,22,31,86,-24,-70,47,-20,-47,-34,87,-62,-33,53,37,48,31,5,61,-114,-14,-38,49,-31,44,33,-57,60,-46,-27,-71,-26,-65,10,-19,79,-77,-78,24,114,-85,24,87,108,50,-40,60,75,-12,10,-113,50,44,73,-48,-102,-123,-75,89,94,46,-37,-110,70,-18,101,24,79,-42,-82,18,0,89,82,96,79,-84,-80,82,-88,-15,-115,-5,9,-31,-74,-84,-100,86,21,65,60,-108,-16,101,22,-1,-18,4,76,60,0,29,81,66,-104,-15,-80,-50,28,-36,-40,7,10,13,60,39,42,-32,107,6,-22,108,-35,-76,71,126,10,-10,-57,67,-90,13,-67,-100,-28,-109,-36,-47,2,72,-8,-69,46,116,50,-50,67,-64,-71,6,-86,30,16,2,-52,-91,18,47,-69,-4,70,35,-61,74,-104,8,26,58,90,-126,-91,18,103,53,8,-81,36,3,-72,-9,97,-51,-28,104,-25,60,88,57,-77,-94,-103,70,-101,-79,24,-25,67,-40,74,-114,-49,58,-89,-60,-41,72,85,14,-21,-18,55,-80,2,6,97,34,-25,9,-53,49,91,-13,-7,31,8,-88,-56,-58,23,-27,18,8,-75,105,-12,-27,115,0,71,-30,49,-27,-20,-10,22,-28,-46,-81,9,73,-62,26,92,-87,-76,-57,22,48,74,-64,-26,78,-90,43,-118,-18,33,13,85,-35,63,75,57,-67,76,-78,-19,-111,-73,75,-66,26,-95,80,6,26,89,83,-78,12,-26,-71,-24,81,-97,-6,17,-7,-42,15,88,21,-57,-109,63,88,-19,-39,-85,-114,-23,-13,65,-75,61,25,-75,-34,15,70,69,-30,6,-23,60,-64,-80,-61,32,-23,80,-31,118,-23,13,23,-76,-20,-56,113,-55,23,11,62,52,38,56,-92,-65,81,67,-72,-108,-55,102,36,-23,-42,39,108,2,-49,80,-7,-42,26,-77,-94,75,75,-67,-2,-116,6,-106,95,21,-25,33,-91,-6,85,14,-13,52,37,50,89,-70,92,-49,62,-81,-125,51,-2,-19,91,-88,3,105,-5,-61,104,64,127,1,38,-81,94,89,-111,-15,126,2,-65,-7,7,-106,-44,-96,0,-28,-56,101,19,-43,-28,37,-64,70,3,-15,-125,-111,69,-90,-56,114,46,21,69,52,-35,-112,42,78,15,117,-72,3,89,107,-12,-6,-18,53,-49,-39,4,-2,46,-63,61,15,87,-30,17,51,-87,-14,21,24,116,-115,-53,32,5,-56,54,19,34,-63,-63,99,-46,-28,71,-78,12,26,-9,-48,-107,-93,-4,3,72,10,36,93,34,-10,91,51,73,59,34,-49,2,-80,-53,24,104,0,77,12,-86,-11,-103,-55,-108,-127,105,-77,18,-49,49,59,120,69,-103,0,-4,29,4,-71,-101,112,71,-127,77,5,-43,31,-85,-62,-72,40,-12,-29,-17,7,-46,60,-49,43,-75,35,93,1,-81,-34,83,98,77,94,82,17,39,-90,0,121,55,103,64,-31,-13,81,-74,96,76,43,-6,105,-112,-95,-108,49,-113,-81,105,91,28,3,126,9,-122,-4,-15,32,99,-19,-15,0,60,75,-21,16,-79,-20,-43,101,17,-43,56,-36,-3,-3,-23,47,77,-18,-85,14,5,-37,-60,76,24,-57,12,-18,-46,56,90,-30,93,-71,-36,-113,11,-1,86,-46,-123,20,-115,120,-25,-34,94,-51,-86,-54,-43,63,107,45,18,-67,-3,38,76,-84,-76,-78,-108,-13,-11,-94,41,-47,66,12,-66,-112,21,117,64,68,-60,61,55,-16,-70,-66,56,-35,83,-45,74,-15,90,65,85,76,-10,-32,13,16,-32,60,-51,0,16,-45,-40,-102,-8,-53,27,-21,-21,-108,-69,38,58,86,6,-22,-17,-78,-23,32,-63,16,100,22,-69,18,-96,-9,31,-26,-30,19,113,27,-82,9,-11,85,-68,-105,-9,55,-38,99,35,-34,-13,37,-90,97,-121,-107,-26,88,25,-11,-22,-26,-69,82,-28,-80,20,-92,93,-49,90,40,-40,-71,-7,66,123,45,-76,89,45,-82,45,46,-1,-85,-84,42,66,-30,-82,60,21,-100,-39,-84,0,28,-64,50,-49,33,33,-70,-116,-28,51,74,96,-36,-23,-108,37,2,38,103,-30,-11,80,-40,-9,-79,58,86,68,12,77,52,-116,31,72,10,-9,-38,-45,61,-16,-60,-51,27,-59,-97,-95,52,40,-8,-66,-12,-31,69,-127,-29,-100,33,66,52,115,0,71,-58,-32,-94,49,-60,10,41,61,-88,-79,29,-51,-17,-9,-78,49,51,89,-49,52,103,-14,-31,-98,38,15,-60,46,-40,-18,67,12,-20,-112,-83,-78,30,-95,51,37,41,99,-17,-24,14,36,83,-43,89,15,-57,-89,104,33,-83,82,125,-29,34,-34,-15,111,81,-35,44,-3,90,66,-78,-7,106,-66,86,125,70,-72,-37,6,63,101,27,61,71,-71,3,68,-84,-75,-125,-2,-76,-29,30,37,-82,56,52,-81,88,-55,-19,105,-87,118,-58,-95,-51,-13,-92,67,-65,-69,17,-26,23,68,68,53,10,0,-75,64,79,-72,-87,-75,-4,-15,-111,28,38,-69,32,-22,27,-15,104,-92,31,76,-20,-52,-82,-23,-2,59,-38,39,8,-30,48,-81,103,-79,-55,-3,-87,-11,74,74,-17,5,-121,88,-62,-19,-105,4,-88,34,9,87,-105,88,-92,-13,75,84,27,65,17,-6,-47,-9,-117,-37,65,-53,-18,-19,-2,-120,-47,-57,-13,15,-51,12,32,34,86,-77,-101,23,-39,103,112,-124,-57,20,81,-99,30,74,-109,106,78,107,48,23,-45,55,-126,60,73,-3,-63,98,-38,-20,82,-72,21,101,-126,-98,-21,72,-83,103,-82,92,-105,-88,-36,101,87,-67,-55,125,28,73,38,-42,57,55,-65,-31,99,26,42,47,-101,113,15,99,-79,-63,60,-87,-94,77,-42,1,70,-94,-17,12,-95,-67,-1,-66,43,-35,81,18,-3,123,-6,18,-22,66,-59,-25,20,-86,93,34,11,81,-20,19,-45,-6,-15,22,95,71,-80,-81,0,-126,-15,90,36,-108,-75,-72,-26,44,79,-114,-69,-3,30,-40,-8,65,-2,71,84,-5,-89,106,-54,105,10,-16,-3,-82,-20,9,-69,-68,-2,-57,68,92,-123,-26,55,5,52,-90,-69,70,86,94,6,-28,75,-48,78,19,16,-29,70,-28,-4,-61,-18,-54,72,89,75,-4,-62,53,-37,-30,63,1,-49,34,-127,-65,-99,-88,-53,-95,-33,-94,-2,78,12,-56,75,6,57,43,56,-21,62,-87,-77,-37,44,79,-108,-49,-89,-118,-8,-56,11,53,45,56,63,-116,83,56,25,40,-43,-102,73,-87,-18,64,-49,-35,69,-3,35,75,126,21,-24,-36,-102,29,75,94,-4,35,-32,14,-2,-32,-104,-95,-65,-71,18,2,125,-58,69,91,-28,-117,-15,48,8,58,5,92,-105,76,-118,34,-33,-12,97,-50,48,110,50,-22,-50,91,-5,97,-13,-14,-40,-96,-74,-61,43,-80,52,-82,-55,26,82,-74,-35,-71,22,-50,-77,121,31,-13,116,-4,69,-6,-22,47,98,28,73,63,89,111,-63,101,-119,69,-78,101,-81,-22,-113,68,-88,92,-98,61,5,27,17,71,-19,-106,-53,87,-5,-64,-105,76,-83,56,-16,112,-20,89,-49,83,-1,104,-14,17,9,-33,-12,-31,60,-101,64,-40,28,49,32,103,-111,104,37,-8,75,-85,-125,20,65,23,-51,-16,-12,-67,49,92,110,-117,18,-20,97,3,-58,-25,31,98,-110,-83,-86,-62,10,38,1,-107,58,-66,72,-14,52,46,37,-41,-39,-71,-94,-88,34,-90,-77,-76,-76,-50,-84,123,75,10,-57,-30,-82,110,-23,31,44,36,33,116,-33,-74,-75,25,56,110,111,-109,-70,-72,-60,-90,49,-49,80,-89,-109,-48,-50,46,-15,-52,-29,-112,-105,-49,-87,-87,-6,-20,-87,-21,57,87,108,11,-51,-17,-66,-12,57,4,97,-17,90,89,-77,68,20,-19,-124,-78,17,-62,61,-54,-7,-1,72,-86,91,26,33,16,-99,108,70,119,-102,54,44,31,62,48,122,28,-86,-46,17,108,85,2,-14,85,-62,70,-62,86,117,116,-29,-51,-105,-60,24,2,15,36,8,9,-27,73,-74,-24,46,-96,15,-60,9,24,-6,59,-25,16,58,33,-48,115,-22,75,-28,-94,-84,75,-82,17,-17,-12,-69,72,-47,89,-83,-18,-78,-35,-43,117,21,120,-67,1,-8,-77,30,28,-72,-96,48,-63,-99,73,-58,40,23,94,92,-91,93,-83,66,69,55,17,25,-29,-103,-35,36,18,106,66,-87,-3,74,-14,36,0,93,-26,-27,39,92,-7,-3,67,13,-42,68,94,65,-52,120,-30,-33,-103,70,-78,33,-85,62,-54,106,86,50,-7,-41,78,-15,18,6,-79,108,72,-21,-3,5,65,6,74,73,-12,58,-33,36,-99,2,72,112,71,56,32,-80,-66,-124,57,-112,-18,-28,80,30,-65,80,38,-1,2,-13,33,-73,-69,-83,45,64,13,98,-74,-49,-105,100,-97,85,88,106,12,23,-85,55,62,31,-33,30,-55,100,101,94,-75,42,73,94,85,-43,38,-21,-84,43,-5,0,56,88,-78,62,8,-52,2,-39,-5,82,42,122,103,-47,34,-76,-22,46,-60,-62,73,-111,-44,-29,17,23,113,-105,99,61,-16,49,-84,-24,-90,122,-89,89,-14,-107,29,39,-82,10,-4,91,-66,44,61,34,126,-101,-118,22,52,93,-74,42,-35,16,-17,-56,-36,-71,14,-11,-111,-58,-103,100,-106,-6,-30,-10,-113,106,56,-78,1,-66,-59,-60,-92,1,48,42,-58,-21,-81,-116,-63,-81,-6,-116,-78,-107,-15,63,-78,1,-64,25,1,10,-15,-57,61,-31,-23,42,-60,-17,105,87,-78,-68,85,-64,52,108,-18,-7,38,-83,45,52,57,-81,-65,43,33,-108,35,-15,-72,-52,62,26,-43,-96,-31,38,1,-97,-34,86,71,-59,70,79,58,-29,4,78,-51,31,-126,81,123,66,79,34,91,107,-53,-7,-29,-107,-34,-12,45,-120,-7,60,-51,-96,105,83,-44,59,68,-34,-47,86,48,-48,-75,-98,-65,3,85,25,-75,32,56,7,-92,-71,-79,-88,-65,32,54,81,-43,19,23,-10,101,-2,88,14,27,20,-15,77,-47,-5,115,65,54,-24,-7,32,79,-80,68,100,-56,-1,-1,110,-75,101,29,36,46,-85,54,-39,29,26,61,-87,-6,-75,-16,-80,-94,-46,-51,-123,4,-37,55,111,-78,88,-13,-115,78,122,91,-26,46,-16,-50,-75,29,-125,43,-11,-64,52,-74,70,-4,83,-110,106,-105,12,-29,-122,66,28,-89,59,105,19,-47,38,66,66,-66,-40,81,-94,-29,-27,75,-83,-15,109,42,17,101,-63,-59,87,-1,-76,34,-49,-19,16,-72,27,-73,50,-18,86,-54,-102,-45,103,-63,107,70,102,-66,8,51,-15,-111,-69,-55,-29,-66,55,12,36,81,-109,69,88,-7,-97,-7,73,1,-123,29,-7,-41,51,55,-77,-18,-116,-82,1,109,-87,94,19,-100,3,48,-66,-9,54,-110,-45,-52,-42,-120,-47,-125,83,-108,-75,-20,-33,-79,81,65,50,-47,-45,-89,-96,69,-3,-31,-123,-35,83,-41,72,71,-121,57,-55,53,37,32,-104,-42,-21,25,67,13,-20,75,36,-105,82,-103,94,115,1,40,31,1,-57,-4,53,-99,-74,117,96,-25,102,-33,0,69,91,55,55,77,97,121,90,8,4,-48,93,-78,-32,68,46,-64,-64,10,42,6,39,26,-118,-25,55,-11,-58,109,-12,91,89,-51,-101,-19,-26,122,-52,75,21,-71,-101,75,103,-82,-8,-80,52,-48,-46,-52,-118,-54,56,20,59,115,-27,73,-68,88,-79,8,69,126,44,66,-75,18,-44,69,80,84,-35,-49,23,85,-121,-25,67,-34,34,76,106,-95,-44,98,-41,61,0,63,89,67,44,-81,-17,12,78,52,12,-37,64,72,-68,-36,-72,-70,-8,-42,-53,93,-51,71,-56,2,27,67,71,72,71,-75,-51,117,107,-36,-21,-93,39,-71,51,-47,-114,1,117,-20,103,-45,1,-84,99,-28,-12,2,52,-63,35,-49,-71,10,-12,37,-84,74,55,121,50,-21,26,-68,-5,-56,90,74,-41,104,42,-103,-21,80,-77,99,-51,58,-98,-94,-42,74,-33,-18,-49,8,-53,-109,-4,-10,-33,-43,-31,47,-21,53,-2,49,3,110,9,-19,-8,112,-94,-24,15,-105,-2,106,-32,84,-96,-2,47,25,26,52,101,-102,-36,-109,-85,87,68,12,58,31,69,-46,66,-79,29,-14,81,89,-64,-35,-21,9,-8,49,0,95,-44,51,38,-80,-54,-77,21,-62,51,49,43,-68,-82,92,-86,116,75,-78,70,-23,47,-21,-124,-64,127,68,11,-33,-71,36,18,18,-66,75,-40,26,61,-43,-28,124,62,-31,-11,-20,84,16,-123,-62,55,-81,-104,-13,1,90,-32,72,-77,-29,15,-59,-29,76,-10,84,72,-47,58,120,-39,126,72,88,-84,-2,-54,0,36,-24,42,10,-30,83,-124,-65,36,108,-11,-73,-70,-122,-10,-47,37,-64,101,54,-114,-6,19,-87,-25,14,-110,35,-20,50,-33,31,-27,105,-34,30,1,-53,-99,-41,67,-47,-7,-107,-105,-85,112,6,41,63,91,-74,87,27,40,-23,36,83,72,-10,-87,2,-67,-77,72,48,-72,-102,72,-121,120,-5,-122,-45,-43,-42,71,14,82,81,22,-5,88,87,35,-40,-69,-7,68,3,-67,-108,113,-32,-92,0,51,-59,-34,45,42,-58,123,-86,-124,17,-69,19,-49,26,47,-49,-80,7,103,15,-41,-17,39,-65,-76,-10,-12,33,-84,-41,-64,-116,105,-32,45,29,4,14,48,3,5,-94,86,66,-77,63,-22,76,-105,102,-17,31,-47,-52,-88,-62,86,12,-126,38,-62,-58,7,-2,103,-51,84,-21,-82,-95,89,32,-26,23,-33,91,49,-94,61,104,109,34,-67,48,31,60,-55,98,107,-43,-63,22,51,111,49,34,42,39,-52,4,-125,30,-40,54,43,-112,2,-67,18,10,12,-1,-20,8,33,-82,53,-10,-92,-26,-25,38,29,-46,-77,-47,-2,2,-63,37,-79,81,91,-59,38,18,-111,-6,39,-24,5,43,-102,89,42,-74,-54,-49,61,-93,-45,-48,104,97,-46,91,69,-68,-75,32,-23,112,-44,51,-92,-59,59,49,2,56,-83,36,12,54,-115,57,18,-40,-22,-98,1,-2,-15,-80,-40,-52,-20,-44,6,-75,18,-10,28,25,80,-52,117,-93,-4,55,-122,21,93,-41,-117,61,71,44,17,55,-96,5,60,10,20,88,92,18,-55,-41,-59,-5,-92,68,24,28,-64,73,-10,-22,77,-28,-19,-85,108,7,-67,-66,17,40,122,81,-17,6,-103,116,44,52,84,-21,57,-12,-9,121,-90,40,-34,91,122,65,-98,15,-4,-51,-28,-108,-28,-60,-44,-112,92,48,81,-29,-30,-28,-102,1,-103,-99,-89,-85,-49,42,-68,-31,49,1,12,-85,-31,-58,82,-16,-94,-83,49,-83,88,-20,99,15,-89,71,13,-31,36,-76,-9,-46,5,-25,-27,-84,73,-3,97,48,-18,-54,-91,86,84,70,95,82,106,103,29,-1,49,-33,25,79,-115,26,-30,-48,41,-78,58,-91,55,-97,-120,80,-77,81,-88,109,50,-98,-61,-62,-78,-1,-11,-5,2,29,-58,73,73,-28,28,-65,-99,92,102,-25,-71,66,2,28,-43,49,95,-83,-103,-114,87,84,-32,-87,22,105,-82,26,99,-10,24,22,-101,-103,112,-2,-98,74,-45,-21,-25,122,-1,78,-14,-37,64,-57,-50,-23,79,50,-71,34,-5,100,-72,36,-36,78,28,105,-80,-4,90,-85,43,-11,-17,75,54,93,103,9,37,-16,-126,-27,-12,-103,-39,29,34,20,-5,28,107,-58,44,-19,62,-115,-35,47,-71,-50,-1,8,102,88,-95,31,-106,-72,-73,-47,-27,43,-49,-61,79,63,30,79,-88,-77,107,-60,-98,87,39,83,26,38,-53,106,41,77,-116,-53,16,-99,-12,63,-40,3,94,-79,87,-98,101,-75,-104,-108,69,-57,58,-39,91,22,-30,-122,1,0,88,47,25,67,-19,-62,83,115,36,62,-101,-95,62,24,61,3,-65,-9,-89,-84,33,-96,63,-2,10,-87,65,114,-38,73,10,-36,-39,11,-43,97,-10,59,44,-2,-35,61,-91,-39,10,-22,-15,86,106,8,-62,73,95,86,3,77,99,23,74,61,-29,14,44,-59,-71,98,1,7,-62,-58,-39,19,-3,50,-50,-62,92,-73,-65,-68,40,-45,90,47,-86,91,47,-65,-50,-124,47,21,-40,-17,30,53,41,-122,111,-60,-79,11,-53,-17,-92,-122,14,81,113,-56,-49,27,52,-78,-19,-124,37,-71,-82,-118,49,89,-27,0,-53,-31,80,-17,33,11,30,119,70,37,105,-11,-97,-89,76,71,-31,-74,-100,24,-6,3,-99,-44,-77,-123,-124,-31,95,64,-29,52,-58,-5,83,18,54,68,-23,57,43,79,-52,-72,26,83,5,-53,31,-18,65,-67,-124,70,-72,-116,-28,-65,41,-13,100,-88,8,74,-60,94,25,-71,77,-18,-67,-94,-5,-37,-33,-57,94,-90,31,76,4,11,-59,86,69,117,-116,-53,120,83,-103,12,79,68,-15,41,-23,40,16,-62,-76,-34,-3,51,56,-23,-79,-28,98,-33,-99,-4,37,14,59,16,115,-113,111,-48,34,21,126,-59,-36,13,59,24,13,-80,-37,21,80,-23,76,-70,58,-124,-5,122,-51,97,105,-8,93,-51,-59,45,120,-37,87,100,-61,80,18,41,97,105,22,105,90,8,-21,-66,100,92,95,76,40,-96,-50,-52,15,-49,-104,-87,29,55,-64,15,-103,-91,-29,84,-54,-62,22,72,93,-86,86,-89,39,96,-98,25,-55,3,40,85,70,-28,-115,20,-35,46,48,-29,100,-126,52,49,35,-87,47,4,87,-26,34,-89,91,-22,-86,12,67,-91,32,8,-55,-105,-61,9,43,41,-9,-99,-48,-98,40,69,-112,1,22,75,-122,-72,-51,-101,33,93,-31,29,-48,-116,-29,-36,84,-72,77,53,52,-28,-69,-3,13,-2,28,85,-12,120,-36,14,35,69,82,-65,-53,-45,72,-98,-89,-9,28,30,-63,67,-19,99,33,-92,-6,36,102,-31,-32,-16,3,-4,-20,89,78,-88,-72,102,92,79,-78,84,66,77,5,-21,-14,41,13,-11,24,11,-65,74,63,-43,-28,77,55,17,-100,-20,3,0,-53,-86,25,-58,-82,69,-2,41,-69,96,13,49,-124,54,2,-46,-112,-75,28,89,-84,-108,6,-63,121,57,95,-15,29,-63,91,-10,81,33,-48,-92,27,65,-121,15,-67,-99,-48,-36,-11,32,65,85,-55,-74,24,56,-87,0,55,-92,-21,100,-72,-44,78,-15,-46,-7,72,43,13,-39,-45,-42,2,-60,-77,10,9,-47,80,-40,-109,-110,-81,-5,-67,-14,26,-1,90,108,-74,-45,0,-31,-3,56,63,-5,2,55,76,-46,-82,-91,-79,-1,-43,-14,108,0,54,-69,-88,-5,-111,39,33,-80,-107,23,15,68,-51,-108,-38,1,-14,15,-25,-75,34,-14,-41,48,66,60,20,125,50,106,-89,61,85,-27,-51,-10,82,-15,3,-9,-8,63,-11,-43,57,-114,44,29,117,17,22,126,-19,25,-27,-11,21,37,74,-16,-74,4,-118,107,89,-21,73,-69,0,65,7,108,-91,71,104,50,-32,-80,80,9,-27,-24,-57,70,17,-24,53,-99,-56,-30,43,-77,96,86,-125,26,58,44,-39,37,82,104,58,87,-66,37,-82,107,18,-59,1,-76,-90,-63,-10,90,70,33,73,-13,-116,46,-14,-18,52,-44,105,-67,-81,84,68,102,-16,13,-94,-89,-65,-6,-81,75,-7,124,-123,54,-118,40,-58,76,28,-80,-53,-56,55,-92,89,50,71,-68,-54,-48,-75,21,76,-32,-53,-11,80,-37,-58,-74,-59,23,-23,50,81,-23,98,-24,65,-3,36,-69,-1,63,57,-31,5,100,34,-84,-10,1,101,115,35,-59,88,-16,70,53,-73,-76,-31,72,-15,87,25,42,-88,-59,-61,-12,-3,61,-111,82,13,75,-45,-87,72,13,77,-93,-21,-88,110,-14,-48,0,-8,-88,126,26,121,62,-80,69,-38,80,-11,1,-32,2,-6,28,38,-39,40,123,74,-107,81,-14,-112,41,-48,-8,-85,59,18,15,28,8,37,93,-111,18,53,95,28,-48,114,31,-16,14,73,-119,38,-16,5,-27,-104,67,66,87,44,65,63,-15,-101,-47,13,51,88,9,44,-26,59,117,-83,-13,-14,-100,99,-8,-83,-21,100,15,-121,28,-27,-52,-58,87,-63,52,-31,35,-86,90,33,84,40,108,-124,-54,64,17,-112,84,-124,49,-18,-42,82,67,41,-64,-26,-17,53,-116,-82,16,2,-40,45,-10,-124,22,-65,51,-87,81,81,6,-39,118,-8,-86,-21,66,-6,50,-52,54,96,64,-22,-17,-41,34,43,87,-72,-43,109,-92,-105,16,-70,119,8,50,-66,-89,81,-48,23,94,-89,-57,-70,82,39,52,89,-13,27,-50,-51,-111,-41,103,-67,5,-50,-126,59,69,-40,72,-5,82,71,-85,82,69,83,-19,73,-45,88,-38,73,1,-63,15,75,-119,54,43,92,79,-99,-52,55,-89,88,78,22,73,-72,13,-88,-55,50,-77,121,-65,28,-4,62,-112,-56,78,41,96,46,78,100,-34,49,-31,50,-9,99,-4,-67,99,46,-62,-42,45,98,-104,24,82,36,38,39,-66,-83,39,-41,83,123,49,6,-89,-69,13,47,-64,-44,-43,83,45,-28,-12,-75,42,-98,-63,73,34,-17,-118,-15,-85,51,-10,44,99,26,106,41,66,-40,16,-96,84,55,27,50,30,36,-41,-110,-19,28,-120,36,29,90,76,10,-45,-76,-34,-70,22,-44,-60,-58,-80,4,-69,41,-46,73,-58,16,-36,-9,-71,21,82,-76,75,77,-73,74,-52,-72,-107,3,-124,-8,3,104,75,81,-107,90,-34,82,-6,69,-4,101,59,-78,121,12,67,-56,-50,-90,-16,24,4,40,-48,-43,93,-16,-9,91,-1,-54,-51,-88,-34,-18,-12,-12,-27,-73,-81,-20,8,-114,3,19,16,-98,-115,-95,60,7,120,23,-126,72,-44,-55,0,-53,-62,33,-90,-43,-82,-32,-91,-77,36,31,-24,-21,5,0,5,0,-17,-102,0,53,72,71,-11,124,2,-43,113,38,-68,85,95,74,73,-67,91,32,-75,-36,-27,-71,62,-126,109,11,77,-62,-78,55,37,-73,-51,-32,49,66,35,42,-43,-17,-6,-12,-51,14,-28,-9,106,103,-42,-122,-27,86,20,49,-15,27,-44,-63,-68,39,18,65,2,-32,51,30,-42,9,20,-43,-40,-6,-25,-85,99,89,-20,64,74,-17,-53,64,7,101,1,-77,54,57,-40,61,-25,21,-44,-78,-78,48,49,-23,33,-93,31,59,81,0,-69,66,-24,-92,57,-59,-65,-104,49,-44,-36,78,80,-71,-58,-20,-68,55,21,93,65,-81,49,22,8,62,65,-68,-51,-33,24,59,-95,51,-23,55,-113,47,-126,79,-70,-87,21,-39,26,-19,-119,114,-86,-121,-60,-10,65,68,-60,-45,-80,-23,-110,-93,-28,-60,94,48,21,124,-14,31,-83,59,89,-87,-90,33,47,110,10,23,-1,5,-10,5,-38,11,-94,66,-63,120,-43,11,-38,111,98,86,-83,-18,22,-70,-53,-24,44,52,47,-46,7,13,-66,35,4,4,11,-32,-86,-19,-11,-43,93,127,-95,-122,-72,69,74,-92,-73,65,-33,-2,63,-6,123,1,-102,-30,19,7,-18,43,-10,35,58,34,10,-111,42,-21,6,55,98,25,0,-61,46,-59,-14,67,60,5,-10,-75,-46,-24,-28,59,-49,87,2,71,11,-88,-42,96,-77,23,47,-13,-91,86,-72,-82,-78,26,-43,-79,-6,42,36,84,-44,-80,-19,53,99,-27,22,-18,-13,-23,66,-69,19,74,-33,4,-55,-65,6,76,-46,15,-30,-70,-61,-59,-24,-32,81,8,-79,-4,-27,-18,-63,17,60,-27,83,77,-65,68,3,17,30,25,-43,-71,-19,44,27,32,74,67,42,-124,-61,-50,-47,104,-54,-49,-44,-22,86,-55,64,-73,45,76,-93,23,23,75,-35,79,4,114,8,63,-72,8,92,-124,66,103,30,102,15,89,-31,-60,71,-56,74,40,-2,33,45,-10,-56,16,59,7,53,90,92,-30,58,80,-84,36,66,-15,32,34,70,22,52,-21,70,91,28,-48,2,78,74,-96,70,-54,30,-52,-97,3,64,-60,48,117,-44,-14,57,21,102,51,-35,-5,39,95,46,-50,-50,-80,68,-103,52,20,-16,23,66,57,13,-9,123,8,-109,81,-53,78,94,80,98,-122,-44,27,53,99,-22,-62,-117,-18,-50,50,-29,73,42,57,75,-60,26,28,5,-57,72,41,-29,-49,59,-53,56,122,-103,12,-59,-115,90,87,10,-88,-56,91,-4,62,64,61,20,85,34,-8,-28,-63,116,22,-23,76,-67,54,29,-45,-1,64,61,96,38,-96,115,14,-79,-12,80,-1,9,-11,-61,81,-6,-96,17,20,29,14,-24,0,87,38,88,-102,124,-89,-18,59,-5,39,117,8,1,-69,-89,2,-43,36,81,55,-108,-81,72,83,93,-93,60,-100,-61,17,96,26,-68,-31,-48,-7,55,39,-44,-13,13,104,69,-10,-84,73,105,127,-21,-56,36,41,59,-75,17,41,-90,-110,73,-101,27,46,93,7,53,-47,35,13,-17,-37,25,46,-40,37,82,84,40,75,-88,-36,72,26,-61,72,-74,73,19,87,-39,-63,68,87,77,-10,-49,-91,-52,94,51,50,30,-66,89,-30,-99,120,-4,31,116,-84,123,20,84,-39,86,41,35,71,33,58,-114,106,54,-14,-98,-63,72,48,-106,26,-66,107,-20,-62,40,-57,-71,46,113,52,-17,-70,58,-48,103,11,-78,33,87,61,-30,75,89,-113,-104,-13,-106,28,-45,-31,-90,-6,112,-21,-9,80,-68,78,-97,-30,3,-123,107,94,-67,15,49,85,-83,-114,-70,-113,31,60,57,-74,-53,67,-9,-119,66,25,30,-53,20,4,-25,-39,53,-14,-75,-45,3,-65,-35,-13,-6,77,54,80,45,51,-120,62,65,-38,-32,49,-33,33,-74,-105,31,31,8,77,27,47,80,-81,58,-19,-109,-60,56,115,-62,99,87,97,-55,4,-1,-64,35,-16,79,15,-74,11,-41,-96,-84,-16,52,-60,93,-61,-61,-7,-56,76,16,40,21,-69,118,-26,-80,91,54,20,-17,-4,40,-5,-84,29,-53,6,-31,-52,-43,-93,53,-24,53,-80,-69,-8,-6,83,-91,58,71,-37,-50,67,12,-63,-69,-52,-32,-6,-75,-38,77,-33,-54,103,-42,-87,52,22,79,-54,2,-51,35,87,83,45,77,84,8,-18,103,-56,66,-102,-1,4,37,-83,69,42,100,18,-30,86,100,-95,-49,89,-74,-103,-123,62,-61,124,42,65,-98,-22,53,75,-39,19,9,7,-13,-17,44,-96,-108,94,-62,-69,-91,31,85,-114,-27,-9,54,35,-22,74,64,83,-11,-25,-53,-107,-107,42,-62,-116,-84,-107,-92,31,-30,-99,-95,-34,-14,-23,-117,112,-95,-17,26,-126,-72,-100,38,-35,67,81,46,100,56,19,-72,-58,45,32,-89,20,56,112,-59,-10,-103,46,71,33,-70,-47,31,-17,-24,28,5,-90,-89,31,14,-59,18,-73,82,27,41,40,-78,-99,-63,27,-18,126,-64,-66,89,-116,-77,60,-78,-49,74,-80,-42,71,-1,18,-6,-83,-87,-57,-127,15,-44,-90,35,-65,11,112,-119,-47,-52,-90,82,102,0,-54,107,18,104,33,-89,-76,-36,36,-119,5,-42,-89,42,91,-22,-122,-100,-90,21,85,-46,74,-85,-51,-75,-14,85,-66,29,-55,106,93,58,-45,-51,86,-51,34,-14,13,-3,-113,-92,-26,103,59,39,74,-13,59,-3,78,-124,-81,-23,-69,-42,-18,89,-88,-84,-40,-22,-79,33,-2,35,-56,53,16,64,27,11,91,59,70,-40,-122,38,-119,-9,-92,52,-33,-33,78,-34,93,89,-47,53,-9,-87,81,-109,-41,72,-10,-68,-20,10,-80,14,-98,-50,-33,-86,-15,59,81,-14,-97,51,52,63,-29,-22,83,57,-1,32,22,-28,-122,57,10,-10,-49,85,-72,85,-93,-123,114,-65,12,63,-13,-9,-105,42,22,84,46,82,-76,39,-19,47,-47,-49,103,15,103,-58,-53,48,60,-28,5,-75,121,10,-52,12,-121,-92,-31,52,-26,54,13,12,1,-74,-73,-104,-56,-49,40,38,90,-35,-99,-101,-69,13,-12,64,1,-52,-90,-45,124,20,-55,37,-63,-106,65,84,-68,-10,-24,-73,-69,16,-12,85,-111,-78,108,46,29,32,118,67,81,3,-112,-52,80,-42,-60,38,66,95,-27,-1,55,50,-14,-31,46,89,-3,96,82,-19,-2,111,-90,-123,-18,-21,42,-80,61,82,41,-80,116,107,120,7,61,-6,-54,-39,117,-60,104,-46,86,100,-21,-41,-86,-48,-67,-100,54,19,-86,110,29,33,78,47,-125,-102,-14,-89,-86,59,74,-44,-92,-64,94,-39,-39,-88,13,95,77,58,-70,-101,-67,47,46,-27,3,81,58,54,-104,-116,57,79,55,-19,-85,-42,21,77,13,-10,27,72,-19,73,30,-32,-97,-100,-85,28,46,-95,61,-99,-29,-16,124,32,-27,-111,-37,-34,-119,52,58,-4,59,90,6,3,23,61,-88,14,86,-17,6,4,-79,-33,0,-115,88,-32,-97,71,37,74,-61,54,33,11,-71,58,17,77,-2,-73,-125,37,-82,-90,-60,6,51,22,66,-42,49,-5,-92,-16,44,92,25,-105,-86,-2,-91,67,111,91,-78,-48,118,21,-42,-44,-81,39,-3,9,29,3,-104,-39,-56,8,76,60,-53,67,60,62,42,39,4,11,39,-90,126,-19,-35,-44,92,31,-69,30,23,-56,-71,54,44,70,-58,38,-53,0,-52,62,30,42,71,62,-76,-8,-4,-101,110,46,49,-42,-37,13,108,70,28,3,-55,86,33,-20,-101,-64,-15,19,83,-102,-34,10,29,95,11,38,9,15,-100,78,67,91,-90,0,-78,8,-16,2,36,-26,74,-110,100,-108,-2,-53,-64,-39,31,108,88,55,-20,-97,18,-25,-47,17,-80,16,-59,74,21,72,51,-44,6,45,-18,-126,55,79,26,27,-1,35,54,-91,43,-66,37,27,79,-9,-88,-45,-4,-81,-123,89,2,-77,68,-63,45,-46,-73,67,-48,-23,-94,-53,-95,33,15,-25,-4,89,64,64,14,-46,-3,-72,53,46,124,100,73,108,-21,-91,-34,116,-53,-13,-117,59,27,-48,-34,-117,-44,-23,2,-63,21,122,82,89,6,-82,-64,18,68,-15,55,6,-93,-3,-66,6,40,114,-76,-40,-100,-81,63,-43,75,7,-107,99,69,32,-67,-5,-98,-108,-25,-38,47,47,-60,46,-77,87,67,-43,-71,43,58,87,-3,83,111,93,-52,-14,61,-108,-81,-63,-50,65,75,-46,68,19,-59,-24,42,120,-56,96,-36,-46,-70,101,87,8,39,-54,67,-38,72,-28,-123,25,99,-105,-83,-54,-47,-100,-26,-7,113,108,-57,-25,-52,70,-67,3,15,121,-89,-44,-109,92,85,-22,-28,15,-4,35,49,71,-32,-11,78,-84,-59,47,-56,22,-89,14,93,89,85,-33,63,96,68,-84,55,-9,43,116,-66,68,-2,56,81,90,68,56,56,8,3,-18,66,40,-10,-35,-56,-37,-116,83,120,-17,79,29,27,-50,-7,-62,88,23,-90,-61,-49,-35,-16,-15,26,-83,15,-84,-79,84,-4,79,61,28,71,90,11,-63,85,-83,-17,41,-73,-17,-90,-47,-60,22,-70,62,19,-5,-4,-28,4,-88,60,-65,10,63,-109,-12,-106,49,-76,58,72,-102,-67,100,-3,56,-40,-22,-41,-37,0,-50,32,9,59,-31,65,109,51,-63,90,16,-5,-53,-23,-11,40,60,70,85,-46,-33,-38,11,28,44,-53,67,6,17,6,-47,-62,-86,4,30,-122,-123,81,55,5,60,-89,-68,-14,62,-10,-39,-84,-121,49,-62,-54,-66,-100,-87,-59,-60,-89,97,-89,0,76,45,-82,98,-104,-17,42,104,-90,-77,17,-109,-35,-90,-99,55,-86,81,48,-12,93,-61,-34,92,-41,3,36,92,-12,-28,35,-91,-124,69,-23,109,-37,109,-90,-13,-81,-44,-22,-101,-48,-60,86,87,127,-4,-93,-78,-44,-33,37,-33,100,-17,-78,-11,84,37,-99,-58,49,-37,-111,32,-52,-93,-102,12,-81,-38,27,70,-98,-3,-81,55,-14,-37,-51,-28,61,-80,85,125,19,-45,-72,-33,15,-72,37,66,77,-24,-43,69,-101,75,21,-33,39,58,-31,-74,63,-26,85,58,61,24,-26,66,-46,-119,-19,22,-85,-4,-16,15,-69,53,44,57,-46,41,-103,14,-76,26,31,74,30,61,-48,-75,83,-87,-74,-41,-4,15,-54,107,-30,-75,-50,-71,-50,-24,29,-42,-109,87,74,100,125,1,-103,58,47,8,-20,-91,-98,15,124,69,69,72,69,70,26,89,14,32,-49,-21,-52,61,87,72,18,7,118,-85,-78,47,75,28,-36,21,-42,-16,-34,-24,-125,27,-2,80,-7,-74,38,-12,72,76,45,55,-97,63,-102,3,-61,-28,56,51,-108,-34,36,-47,-58,-9,-74,23,-80,70,-11,-26,56,-122,85,40,124,-103,-41,-31,47,55,56,35,-60,55,18,37,48,-38,59,-71,-68,-23,-83,39,11,-124,0,43,-109,-17,10,72,-84,64,51,-124,80,75,-95,52,-59,-26,-62,97,32,90,54,-127,8,122,-52,59,-40,20,10,-92,5,38,51,-50,-23,41,33,117,-66,-79,-106,-83,116,66,76,67,-17,-38,8,-64,-66,-123,-82,-30,28,47,21,40,-51,-104,-75,-84,-63,107,75,-49,-32,-8,27,62,51,-29,-44,-98,116,-12,-55,69,-10,-25,-87,-50,78,13,-58,63,35,59,53,116,-39,71,-77,122,-12,-89,54,-57,50,17,16,116,51,33,-58,-67,12,-5,12,61,-85,-14,31,68,31,32,-97,-97,-10,-103,-52,62,-22,61,8,30,84,53,83,87,-41,30,89,20,-5,-19,-54,16,-2,-88,-15,-75,76,0,47,98,64,84,44,-51,75,-15,-66,-22,87,17,-126,6,28,71,1,-89,-84,-96,-14,-64,21,-91,-90,-106,-33,49,-66,-30,87,74,34,25,-15,-86,56,-2,-50,20,71,44,63,-5,-79,-114,83,87,-31,-65,92,-61,30,81,-5,-122,75,-60,58,105,-110,13,10,-71,79,29,-61,-96,-83,-40,-64,-1,53,-99,-38,-68,-54,-47,17,99,-84,55,-74,88,80,-78,-74,-82,-106,88,78,-42,1,67,51,63,-56,-66,-52,18,-34,-64,-57,67,89,39,-101,-68,-4,84,-1,13,83,-48,86,46,-20,-44,-76,-24,39,-4,24,19,-66,-86,-35,-81,80,-110,34,54,-108,-3,60,-13,-46,81,-24,66,-89,-43,8,79,-3,-30,-21,-18,-77,-4,-33,-60,-40,67,-92,23,111,62,73,-24,-46,17,80,60,-30,-83,15,-12,73,-106,-89,110,-100,-5,-52,54,-69,0,-72,78,-24,22,-32,24,-23,-91,10,-78,-63,44,-48,60,-93,-16,-81,-72,54,62,-22,-87,-43,76,-61,-10,96,107,82,49,108,-33,-125,87,-102,-55,-97,-68,28,83,-107,-47,39,77,45,-30,12,-46,-33,70,30,112,52,35,-77,-62,-111,12,-59,-83,-58,23,-97,5,22,67,-91,31,-42,40,50,110,54,71,-5,77,8,-83,70,-92,57,-94,-24,29,25,-76,46,-120,75,-13,-117,83,-46,-108,-37,-52,8,22,-26,-24,-107,-117,79,68,20,35,-98,-125,-75,49,-77,18,-91,69,54,-58,92,-25,-41,117,-21,-111,7,63,-36,50,40,57,114,6,73,-59,-94,89,19,6,80,13,77,-87,-5,-118,-66,-76,89,68,-33,49,107,-87,-32,-14,51,-61,43,-32,99,35,-37,15,97,-6,-6,75,-21,-7,-103,39,-22,80,39,-69,105,-70,-5,84,-109,72,-77,24,-15,-3,-28,-81,-98,-47,11,-83,19,-88,42,116,103,63,-42,-11,81,-105,102,-80,55,-90,59,14,123,81,79,-68,-94,34,-82,-47,-65,-67,100,51,-92,67,107,-22,-41,-101,11,46,-106,-23,72,113,94,-9,-30,-57,106,-91,46,-10,-26,-91,65,-63,74,-89,-91,50,-43,-51,119,8,-32,-99,-44,-20,-70,-83,-10,11,61,-84,60,68,-73,40,16,107,-119,91,37,59,104,26,31,54,-86,-83,-27,84,11,119,16,21,49,62,-44,24,-28,-7,44,4,14,83,-87,-90,69,-48,-89,81,25,81,20,-37,65,-67,-63,18,58,72,2,-23,39,-42,-20,52,-14,69,43,-61,-2,8,37,78,29,-101,13,-59,-15,25,-62,-62,-35,57,-11,39,-83,-104,-115,18,85,61,-62,-86,-47,45,-46,12,-62,74,-56,-91,-21,43,-53,26,-86,26,73,33,-17,-21,-25,-81,-80,81,-81,-61,-101,-36,-55,78,-65,38,24,11,-88,-32,28,24,103,-39,-49,-81,-17,87,77,69,75,72,2,47,7,-115,92,56,-14,35,-40,-95,90,-114,5,44,8,-26,-67,50,-72,26,-13,-61,-101,-81,58,124,61,-28,-13,28,104,-120,71,92,-79,-8,-51,94,-41,-109,23,27,24,121,30,8,-41,-52,-47,-65,-50,-65,-107,-26,59,-86,-117,17,54,-73,-14,13,-79,-7,68,-28,-59,-77,82,-68,-107,-1,-62,-38,-83,25,-15,-99,57,24,22,-90,-122,99,40,5,-72,61,-53,125,-57,4,-14,-61,68,34,-44,-12,13,50,-17,18,14,84,-69,-46,-67,-51,-50,31,57,107,-47,-115,-106,-122,71,-125,99,-119,-31,6,-64,-81,37,-50,101,-46,-75,10,0,-68,-5,11,-92,-5,7,-1,-70,-103,66,124,-36,-44,5,68,-117,35,-32,-4,-19,-15,66,75,101,-2,-10,-83,117,-32,-27,111,80,21,44,103,101,48,-25,-66,83,-18,-66,-63,85,3,-33,54,-27,42,96,77,-28,29,-29,-111,30,-34,116,-67,-58,78,-29,-50,-19,8,70,46,-77,-94,-92,121,61,20,13,-66,102,15,44,-55,60,-35,-88,-121,-85,106,86,88,-127,-60,-16,-88,93,86,36,68,63,-64,81,-55,106,121,78,78,-84,65,-103,73,71,-28,-86,76,-52,-75,21,13,81,-59,49,43,74,22,-45,-3,99,-90,-3,-94,24,-65,-18,-38,18,55,-44,-117,-44,-19,-5,27,122,44,48,-9,-18,-74,-12,-55,41,-62,36,74,37,65,-14,-86,-78,-44,74,-16,48,95,-18,-60,-39,40,-4,26,99,39,79,45,-68,-82,18,14,-16,50,-60,62,15,-35,-36,-101,-25,-35,55,-58,0,80,-23,-65,103,89,-18,31,83,107,-32,65,96,-98,112,115,67,-110,-93,92,75,-10,83,20,81,79,76,-95,1,-47,9,112,-26,44,4,-39,27,-94,-35,28,46,96,-85,38,70,-108,126,-24,109,49,14,-70,-65,-13,76,23,-23,-43,90,29,22,74,73,-87,54,17,-36,-6,-87,-35,42,20,-26,-41,29,33,-18,-62,51,-69,24,81,-95,25,62,13,87,11,12,11,77,71,106,-84,-72,6,-61,56,118,108,1,57,32,-1,-11,-4,-70,-43,20,-5,35,2,41,-50,61,49,-40,-39,62,56,99,114,-54,-67,-123,-48,-88,-69,-83,-85,8,-69,-73,-105,-52,64,-36,42,-37,-46,47,-88,70,-52,58,-105,-4,-96,-80,-9,-76,124,-5,55,-86,-48,-11,67,-43,-87,-12,-14,1,-38,-9,5,81,36,7,120,-65,7,-87,-108,25,32,-50,92,42,81,-91,55,58,97,-94,123,-64,-94,-81,94,49,6,12,-57,18,-11,-48,-32,-5,120,-102,31,-98,10,65,-30,-108,34,-78,-40,-41,37,30,73,18,75,-15,7,103,-42,57,69,-125,-93,58,-97,99,-73,9,-80,-35,46,61,30,-17,-56,7,-15,112,-65,32,-15,46,16,-12,41,-33,-63,-112,-28,125,65,-14,-74,98,-29,126,-46,49,78,5,-76,-60,-73,-41,-39,-3,-3,38,-77,-37,-7,-101,-7,30,86,11,90,-74,67,77,2,-124,80,-29,79,-124,27,4,-46,104,-120,-47,-81,11,-27,-93,-57,-77,65,-115,77,117,-79,-44,-89,113,46,90,-81,84,98,63,-79,19,-10,18,115,15,-55,10,-18,68,20,107,-75,5,60,109,75,26,-31,-24,-57,-22,-6,-96,68,-29,115,31,27,-37,41,9,-118,-44,109,-76,-94,48,48,-8,68,60,-61,25,-69,70,-68,64,-63,-68,58,-26,70,-14,23,16,37,-46,122,3,-79,-102,-106,88,-22,-76,78,49,115,85,106,-16,41,51,3,-80,-61,-65,-16,62,124,46,119,28,-14,72,-113,-2,-99,48,2,-12,-43,105,-44,-18,-63,19,44,73,2,83,-107,-3,56,-86,69,11,-15,59,-113,-123,4,45,-39,-5,17,-70,85,-80,57,11,113,-60,23,17,-28,-76,53,59,-103,-82,62,-47,97,-13,-50,-96,-92,-90,69,-45,120,-52,-8,-35,34,-85,-32,80,-49,16,67,-3,30,-106,118,2,-62,38,101,11,54,-68,47,-38,-3,-52,-70,-4,87,43,-21,-20,65,-42,80,-105,-54,-103,29,74,103,-3,11,-97,109,-17,3,9,78,89,77,125,-6,-46,-114,-28,-123,-98,-6,-59,-88,-18,67,77,58,-50,-40,57,-85,-99,-25,8,12,-35,-98,-40,-50,-4,-28,109,19,14,-92,-103,-4,73,-109,58,75,18,-110,36,-17,16,-31,-12,-37,-57,109,-120,-48,107,-7,53,69,39,3,-23,-69,2,-8,55,51,-60,121,12,-93,-9,-29,-77,-106,17,47,-52,-17,-42,-28,59,-33,-125,-63,54,-96,-9,13,62,-15,33,93,33,-60,-33,-64,-91,-77,-75,15,34,-86,70,-59,-50,8,-72,42,12,-82,61,-20,96,-43,-61,-65,16,93,-77,83,43,35,-59,78,1,23,-31,-33,69,-78,81,-69,27,40,36,-87,119,11,100,-21,21,46,-61,-1,-65,47,70,60,-66,-79,-32,73,78,12,-14,-53,57,24,81,-74,54,80,-74,31,-107,62,80,-3,74,-20,-35,61,-19,-62,102,-49,82,-51,-30,-32,28,-18,-45,66,-78,-50,-5,16,-15,70,86,-116,-101,3,39,116,-21,-43,-107,44,43,-58,-1,-50,60,-82,-49,-118,-13,-15,-89,-61,16,-63,15,14,85,30,58,19,125,-84,78,-68,-45,-22,36,-30,-43,-19,-56,-111,93,95,74,-23,-32,-6,-30,31,24,-31,79,21,8,126,51,29,25,72,51,-66,-66,80,-5,43,-126,43,-82,-85,5,74,64,22,-125,12,45,58,30,123,27,81,74,47,44,85,57,-85,110,-43,74,-100,2,96,12,-49,52,74,2,22,-82,-69,-43,92,-56,18,-40,14,-81,-23,58,28,-48,-55,43,12,-44,-14,-48,75,1,97,37,14,48,-77,58,0,62,3,58,-66,-22,78,-102,-88,-95,-7,69,-22,-39,-64,121,-85,66,56,38,88,83,-117,-82,72,-14,-49,87,-69,77,13,0,-7,58,108,-40,-88,30,-104,41,-119,53,58,56,-124,-56,54,47,-65,-87,39,-8,41,-46,14,96,-64,86,-43,-35,-52,10,-92,-89,-100,57,-57,-85,-82,-101,-6,86,-106,-12,52,1,-59,116,61,102,-90,-48,63,99,-41,53,-34,92,-88,-31,-43,83,4,53,-22,123,33,-6,23,-64,14,-35,62,119,-77,65,48,5,46,-59,-122,-28,28,-84,89,65,19,83,-49,29,35,-94,42,42,-55,-88,-70,-23,75,-65,-25,30,-86,-17,-65,54,66,50,39,-108,-15,-105,-19,9,18,-63,-121,-84,-115,9,-40,33,98,-42,-70,98,-1,-40,-48,-32,18,-10,20,93,-11,64,25,79,-67,24,-46,-77,-66,-68,28,17,-52,34,30,-53,-90,-86,-72,-107,-73,55,-67,-13,-90,-79,-3,-99,7,115,-2,65,-7,54,88,76,95,-94,0,16,35,88,40,-83,98,74,-31,-8,1,-11,-15,-96,-23,-9,4,21,26,57,-65,-37,-58,30,17,39,-77,92,91,120,30,-57,67,-38,111,81,83,7,-69,-23,48,-53,-91,-83,-50,11,103,-10,-61,-32,74,22,-47,-100,-119,-45,98,-64,78,-72,92,-7,-39,-84,92,63,-83,1,68,-8,-60,-105,72,113,64,-77,-36,-62,-27,-38,19,-104,-61,106,81,-3,-13,3,-74,102,-69,99,19,85,11,0,91,12,126,77,-67,-2,13,116,-118,19,-62,-20,-4,-4,-62,-90,-79,-55,41,9,58,-19,-21,8,-60,-45,16,-88,8,-12,-10,-45,-50,7,18,51,63,-9,-108,30,13,31,-19,43,9,107,74,-110,43,84,34,-86,103,5,-34,-55,-73,-106,-2,42,-34,-6,16,47,-39,4,23,-37,53,82,-47,-23,-37,-71,-88,91,32,89,67,49,33,51,-43,3,27,-45,-82,-41,101,-7,-51,74,45,23,-83,-19,101,-47,34,-38,-9,88,90,-89,-75,-60,5,34,-3,21,77,6,-101,12,108,-11,60,2,-32,0,24,57,98,25,-77,105,-88,-39,48,99,29,-34,-87,-3,17,-47,36,60,-81,23,-88,-89,69,9,9,-117,96,-78,16,-28,-52,38,84,-82,10,-50,10,-42,-53,17,-51,-45,58,38,-12,-65,92,-24,70,67,-108,24,54,114,-3,59,33,98,-5,67,-44,121,73,17,-54,28,-90,75,67,-24,-60,-93,-122,-47,35,0,-9,-42,-100,-87,27,-40,12,-16,-72,-88,104,61,41,56,-66,-2,-30,7,100,-28,-39,-34,54,37,-24,32,14,123,19,26,15,-29,34,17,-63,-49,-42,79,94,80,-65,37,-28,-90,103,61,-103,-62,-50,-119,24,0,-67,44,-115,63,80,-1,-59,48,-100,-2,40,-72,44,62,-14,-60,66,67,34,-106,33,-42,-52,122,117,-103,1,-41,100,-35,90,-26,41,-25,12,78,36,-8,-22,88,-118,3,-86,-11,29,-72,58,-47,36,-60,-58,27,-14,126,-3,86,52,-42,63,-67,18,-104,5,-46,-22,28,24,-46,-51,-65,-80,52,64,120,-45,104,9,53,58,-17,-99,65,106,-29,61,-26,67,-95,119,62,-21,-30,111,-120,-62,-76,114,47,-95,81,-126,97,4,113,-69,-54,-28,-28,-67,-54,-82,-55,65,75,-77,-39,45,76,83,-55,51,-1,15,72,-86,10,8,116,63,-38,26,125,58,68,125,78,40,5,55,-75,-53,-119,-22,120,101,-33,-20,-117,-74,-124,-9,108,63,-108,-38,-71,81,48,-106,21,105,86,-10,-40,-85,-12,-82,58,-75,-7,42,-101,33,-61,68,45,-71,67,126,51,42,-18,75,42,76,18,-23,43,-75,103,-32,-108,-56,-104,1,-51,-125,-10,5,-9,-106,-52,-99,80,119,51,-70,47,-86,-62,67,18,64,-23,-28,-46,-103,-91,38,-18,-12,-10,-44,-20,-77,104,79,11,-73,8,-35,-41,-71,-6,126,-43,80,-34,46,-105,-41,-1,98,-46,-87,80,18,69,-74,-29,-5,-36,54,-118,-66,-21,48,-77,17,-31,39,-119,44,-99,8,11,-11,-30,64,19,-49,-101,15,78,16,126,103,-126,102,61,-86,-5,-7,-56,86,-81,-54,13,-89,87,-28,-84,8,-17,-103,21,64,-14,58,-87,63,-56,55,-96,-28,-74,-16,-12,-65,80,-67,-22,7,-42,47,-38,-26,-7,-42,16,-36,117,50,-90,-42,25,57,-90,-72,111,-37,72,74,-55,11,-61,63,-119,-71,-44,9,69,15,91,-32,29,69,11,-26,-9,70,-76,19,-12,-28,-73,26,37,6,-46,-111,-32,14,105,0,-12,1,5,-18,10,-51,23,-41,-100,26,-30,1,-85,-81,-88,70,-110,-62,-64,-47,37,107,109,23,-40,90,-34,-91,88,100,21,108,95,-37,68,22,-93,70,51,-22,88,-21,70,14,-36,7,-95,-72,2,-95,40,-37,70,-25,28,-43,-117,-81,-97,6,-47,-36,-62,-32,86,-82,94,-8,119,6,24,44,-36,73,94,-79,23,17,-14,-85,-31,82,-42,16,6,-100,38,-49,-47,52,7,90,18,11,-15,84,28,-25,-22,-61,75,60,-50,13,63,36,54,59,63,-39,-105,-15,-57,-72,3,-124,12,79,8,48,79,69,21,79,-82,73,7,-2,75,54,55,-37,38,69,-8,60,6,120,99,52,-49,-26,49,29,-89,56,87,-105,-15,-22,-16,8,25,53,-24,92,62,-8,-27,-47,-82,60,31,-94,-82,9,-10,64,44,56,-61,0,-8,-29,-71,91,39,57,-55,73,-26,116,-76,-35,-79,60,-25,-56,61,93,106,8,-91,-114,-42,56,-19,74,-83,-96,105,28,-48,-2,91,-37,-81,118,49,-98,70,-94,21,27,13,14,-80,81,-11,39,-80,-2,81,28,108,16,-43,-32,87,-65,-8,105,20,22,45,-14,113,82,-26,-4,-11,-91,106,4,-18,80,29,40,15,-88,-15,51,49,4,-28,1,-64,22,-22,70,51,67,120,22,34,-30,0,68,-56,-120,-10,46,-13,10,54,80,5,-6,121,93,59,-56,40,-38,1,-90,-76,-84,-22,-97,-20,36,-9,-48,28,49,-126,-31,48,-25,82,30,125,-19,-53,-92,71,81,38,118,-30,-49,68,34,43,-98,103,-11,5,92,-55,-21,40,88,-39,61,-124,-93,109,-54,-16,-37,-35,-26,59,17,-38,-79,-24,61,-113,-53,-52,-106,-52,27,9,-3,-87,-47,79,32,-11,-40,107,-97,32,-85,-96,-27,113,-87,-90,32,-78,-56,69,76,88,94,-90,47,66,-59,97,97,31,96,-114,-12,23,59,103,47,21,70,-35,18,-14,31,30,21,51,41,-37,97,44,29,52,-103,-7,43,-76,79,-29,16,24,-39,-108,88,118,-111,-16,-35,124,53,-124,-35,6,52,110,-7,-59,-67,32,-46,32,-57,-43,91,-100,11,-25,45,54,43,83,71,28,-29,-72,80,-8,29,-31,-66,66,51,-122,-67,4,82,54,67,8,-65,21,-10,73,-27,-49,-25,24,15,11,40,-23,-40,34,-67,-87,-98,-4,-107,18,-94,87,-74,63,-105,-82,9,44,-32,73,33,-31,-21,24,47,66,83,-31,21,-40,-45,58,-54,-93,-76,-15,19,21,119,-74,-48,126,5,-88,50,14,35,72,57,27,-48,-73,76,32,61,44,25,-88,40,38,-80,-71,-52,89,10,-57,-107,28,19,-37,-20,54,-21,-47,-53,4,-32,-79,20,-56,45,-94,94,-57,-9,-38,-98,-77,-102,-68,-28,1,16,7,31,-25,-20,8,-48,122,47,-35,-74,97,-78,90,-68,-40,-41,0,-62,46,-90,-107,81,-115,-74,-45,-49,51,-26,10,121,45,-79,86,80,80,-60,-33,31,70,-71,56,-93,29,89,-86,58,-73,-84,101,-117,58,30,106,88,41,-20,-91,10,33,-89,-68,22,-89,96,-49,-34,27,-16,104,64,-119,-88,92,67,33,58,-123,-10,-72,60,51,-110,2,-5,-45,28,1,39,126,124,-68,-10,70,0,38,103,100,-57,-19,49,65,-10,-52,8,-17,68,-57,-7,-74,-28,-47,-24,-1,-101,21,-12,42,27,-40,64,23,-97,0,102,-54,56,118,21,-56,32,3,41,4,-100,19,-21,-84,-90,-121,76,76,-123,-77,53,-87,-74,-28,72,103,90,-68,55,-6,-109,-75,-53,-74,-41,-38,-39,17,4,-50,-107,9,69,-32,-25,46,-59,37,81,29,2,-58,66,-43,-75,53,-95,86,-39,23,-37,-48,-32,-22,-27,113,31,-38,7,57,-83,42,0,16,43,-9,-50,-84,29,-64,112,-52,35,-64,-65,17,-65,-88,-7,92,-10,45,-15,-71,56,67,-54,-20,-39,106,-60,86,87,59,43,-54,50,75,50,119,41,-81,66,-53,-59,-67,32,9,-71,21,56,73,-13,54,-40,76,12,-63,72,85,78,-116,37,-69,27,-108,-52,8,47,44,33,-24,-64,-121,-87,-38,47,-56,-87,-72,48,39,4,14,69,87,52,27,-35,40,-85,-46,-87,-98,33,-22,-38,100,65,35,57,-39,-54,-40,77,-68,-30,-77,-49,64,51,15,-6,37,-12,18,-27,-124,88,77,92,-67,68,68,-117,80,-96,0,-3,120,34,-124,-64,-5,107,-49,-68,-59,-54,78,42,-53,-10,-19,-73,-37,122,90,-102,-13,-41,91,99,24,-85,-68,27,61,-56,114,63,-30,-30,40,33,64,-123,-32,-88,71,30,-78,92,65,35,-6,58,19,-9,-29,58,37,55,18,20,26,-26,18,-63,45,72,-53,-2,-87,89,-29,88,45,102,77,56,-57,18,67,-52,-1,74,-106,-23,17,-21,-93,64,-68,-85,73,37,57,37,-45,93,43,105,3,72,-60,-88,105,-18,17,103,28,73,-70,57,50,-89,-71,90,32,-18,-10,-75,-77,-82,-84,121,-114,-26,84,-45,10,25,-85,-3,-8,71,10,-13,-53,-46,-46,83,80,40,-41,88,-9,-75,-67,91,46,-23,-41,-71,4,13,31,92,-70,-40,-114,98,-118,-10,-63,-18,-94,30,-71,80,68,51,-79,84,79,94,80,-41,-22,-70,-35,-76,-63,13,-72,-66,0,-75,-37,42,-87,-75,44,-93,108,56,12,-81,-4,48,66,-63,-22,-104,61,60,14,108,-58,-14,15,13,-33,-18,79,32,9,79,12,78,75,-97,-25,-49,23,39,54,45,-94,-112,33,-15,40,-6,57,95,7,69,-10,93,45,-119,-17,54,14,-46,28,119,11,-92,73,64,-12,73,114,-54,25,-7,-57,-25,-81,26,48,77,-90,-50,-89,63,37,-4,-88,68,74,-70,82,-106,-37,-36,-94,17,-47,26,-69,-42,47,-80,37,82,13,63,-23,-26,16,125,69,61,-92,-85,-43,-15,66,-44,95,-103,-54,65,8,6,-105,75,-17,59,121,20,109,43,73,97,-39,87,60,-6,-77,6,70,6,-20,65,79,-66,32,46,33,62,-127,-47,74,-107,-61,44,-81,19,-58,84,-10,-87,50,-4,-6,-104,34,-33,-43,68,36,30,-69,67,79,-31,22,13,10,-33,-46,54,-51,58,-81,115,52,123,98,11,27,-50,8,47,54,30,-79,-73,65,72,-25,-38,59,-13,-20,-20,-1,-26,2,-56,93,-55,76,-89,-55,35,79,90,79,110,34,-63,90,-16,-61,-66,-16,-98,-15,25,-29,-50,-40,-65,80,-81,3,-25,58,-79,67,62,61,109,-21,28,82,42,17,36,38,70,91,90,-14,89,87,-10,-1,-114,25,67,30,15,96,77,120,66,-24,-91,-86,-27,48,126,60,-58,-43,-99,69,97,-57,117,-7,18,84,63,0,-9,70,87,-71,-16,-78,-48,-47,-90,61,-76,83,-106,15,-34,-82,-83,-48,-7,115,55,62,108,81,14,4,-73,24,-7,-7,-64,67,-8,88,-85,-120,-45,-67,40,-33,27,-11,30,-66,21,-122,-70,-108,-119,46,60,-26,-79,36,-60,85,-33,-7,-8,19,4,-47,-15,-12,97,48,15,-100,6,49,76,91,-76,99,96,-35,-41,-93,71,67,-78,35,-47,59,56,100,71,9,39,-43,-28,-20,-4,125,-9,94,79,109,-45,-103,-40,-78,93,72,-34,119,78,-55,83,86,-25,-7,106,-96,-20,-100,49,124,55,-36,97,22,11,104,-93,25,-46,-45,-9,19,-28,85,-60,110,53,30,-41,30,108,-36,10,-13,-95,-44,0,-38,82,72,24,-66,-40,97,108,13,-82,5,-113,40,-23,-53,18,82,-7,87,72,-19,-95,76,-3,36,38,-74,-95,-90,-124,99,26,4,-108,3,45,88,-15,-49,59,59,12,-19,-91,-41,106,-57,106,11,42,26,-120,59,25,-73,-71,14,-18,-109,-51,34,64,107,-95,-76,-36,-87,-125,77,108,-40,-47,34,-3,-109,87,4,124,119,67,-92,-119,-26,-62,-85,-99,-75,85,90,-90,78,82,67,89,109,0,50,-78,-54,30,-80,-56,-39,50,13,84,9,-7,-16,-26,25,29,38,-2,-26,-57,-94,-73,14,90,-3,-23,8,-18,-16,-88,-97,95,82,-116,-17,17,-42,43,-60,72,-29,96,17,-56,79,7,-3,26,23,-37,0,101,65,3,-83,-17,-90,-100,-83,-92,-105,28,-43,-96,-75,-1,-86,56,82,-21,-63,98,-83,-24,-83,-59,124,45,22,24,33,-120,-8,78,-24,-7,-111,-93,6,19,-124,-127,96,61,68,-50,17,53,99,57,-92,-51,49,59,25,12,76,-6,-97,-21,-121,13,-107,8,32,23,-32,-86,-112,-65,24,-79,-19,78,-105,42,-90,60,-30,40,22,37,29,97,53,89,-83,-83,54,-4,-15,16,-4,-45,68,-33,-96,-39,-57,124,123,-5,27,17,69,66,77,6,83,-88,47,100,-85,16,43,71,-22,47,-71,107,-7,-2,99,2,26,85,20,-59,-84,-119,42,103,-39,-126,-25,-84,3,-30,122,-30,-77,22,71,70,55,114,68,-92,97,14,81,-39,-102,122,-22,-24,51,117,38,31,-11,-3,-26,52,-54,-65,-40,21,-21,81,56,-7,-82,104,-52,-86,39,12,-61,-50,21,63,-2,-38,65,-17,57,-107,57,-15,-124,107,-90,-50,-92,-45,-78,68,-34,74,102,-60,-17,-99,-98,1,45,-13,31,26,-67,-78,59,39,46,-61,56,75,-55,124,14,24,18,121,3,67,64,16,119,-54,-100,16,121,-23,-38,76,-22,48,73,81,17,-42,-99,-59,-59,-116,92,106,-26,-11,74,63,-95,-87,-61,-49,36,21,-15,23,114,51,53,-98,50,65,-66,-25,66,31,-125,26,-12,-73,-80,60,-33,44,-105,57,-89,-22,11,-54,64,55,64,-64,-46,54,102,-84,-27,-60,2,-87,57,38,-27,-78,-4,-52,-42,-15,65,-42,27,-73,70,-75,92,98,47,77,108,-98,-8,-124,62,-108,111,-32,27,-40,-120,106,-91,95,-104,47,-65,-73,-52,40,16,31,52,-95,98,-12,-10,36,-11,-9,65,113,-82,-61,-20,47,1,-74,5,-104,75,-93,85,-5,7,-83,-107,89,66,78,46,113,-9,-42,-38,-124,-80,-5,-22,63,-2,-67,-25,63,17,76,65,23,-63,87,13,99,30,4,-69,33,65,125,-88,-30,121,54,73,3,-94,118,37,79,81,3,-79,-30,-14,39,-120,3,3,64,6,-10,7,-73,-89,16,3,-6,-2,-98,-28,5,75,59,-114,-49,40,44,67,-66,-75,-66,95,-101,26,-104,-47,-58,-106,71,26,-35,101,-96,-19,-47,-18,57,-78,-20,67,37,-15,-45,-39,101,89,-70,-9,77,-8,49,41,-39,-51,50,19,18,-120,111,-37,106,-60,19,40,-82,-64,-6,66,3,11,-62,-88,-68,-3,-33,48,97,-54,-8,15,55,-55,33,-29,21,-48,83,43,-32,70,86,-10,-86,-19,-27,38,86,41,-48,-100,23,73,-42,-124,-25,-5,-18,107,-21,123,106,36,-68,-52,66,61,-25,-83,8,-61,-54,2,-31,-51,-48,91,-118,-101,58,-85,-50,8,109,18,-80,16,-52,46,-101,100,-36,-50,95,-26,25,-6,-85,55,1,12,-15,87,-45,86,66,-72,91,52,52,36,56,81,27,67,-88,19,-56,-4,-39,-36,-58,-73,-55,-22,101,-116,-81,-34,-30,-108,114,108,-65,72,-72,-26,-25,68,-83,116,-113,43,75,66,-47,-71,17,-88,-66,30,96,51,78,-13,-22,73,68,-57,-48,35,-11,41,47,49,10,-46,25,-79,19,-72,64,-124,68,-58,-46,11,8,43,19,-36,-105,-35,-14,36,-67,78,-73,34,85,66,64,-111,82,-84,59,55,110,12,103,15,-90,39,-79,-88,-47,104,-59,74,-4,-72,-27,-125,33,33,-24,37,77,-53,77,-61,-93,104,-39,-56,-114,-103,39,-3,68,-65,8,-4,32,79,-65,-72,40,94,-6,-95,-5,-100,83,81,0,60,1,-3,-82,-56,-8,89,-29,7,-18,17,-100,81,116,7,-61,-120,-113,-114,59,93,-110,-70,-34,-75,-72,-93,-23,50,-56,-21,-42,13,92,-43,-92,-37,-106,61,24,-114,0,4,8,-57,-52,14,-85,56,6,-9,-96,27,-72,24,-1,-62,-98,58,52,92,56,60,-51,-66,-32,-36,-47,-10,13,19,35,61,-53,-4,73,-107,55,55,-51,71,11,82,-40,-48,-101,-74,-24,81,-36,-92,23,-3,-124,107,59,2,-104,6,2,58,-68,-123,-80,89,-55,-70,-60,46,-59,8,-92,-68,85,90,13,5,-3,-86,-46,-29,8,21,104,27,13,36,-25,4,-94,-74,99,49,-74,-98,-37,52,-36,-96,72,-105,12,-26,-3,63,-7,91,61,49,73,90,93,-39,-29,91,93,54,-87,-48,-82,89,-41,-81,39,-35,-61,-125,118,50,40,-84,12,101,-37,43,-57,-12,-61,-105,-22,-1,87,-18,-106,-110,68,-119,34,104,-12,4,-48,2,117,73,92,71,-10,32,56,-56,122,71,97,-51,74,-72,-99,-96,103,52,16,88,1,-90,-46,3,-70,27,24,49,122,76,61,46,-28,68,42,-56,-98,29,-75,-106,-50,-86,-12,18,15,23,6,34,45,-28,62,86,79,-31,-46,91,43,108,-27,28,46,-43,114,-105,-91,43,98,-53,34,-67,75,-88,-38,-14,-51,0,55,-55,70,75,-29,-43,-1,48,46,-84,78,-8,-60,-95,38,49,112,-68,-98,-17,79,-31,87,84,-57,49,15,-9,73,70,-1,-21,68,26,38,66,-14,-56,-105,53,-21,87,45,59,-46,-32,24,64,59,-1,-27,9,12,26,88,20,-99,-4,-68,-8,7,79,92,57,-15,12,10,5,-82,90,110,-34,97,93,59,-71,-1,-64,-88,23,-70,47,82,51,85,41,-20,85,-23,72,76,74,38,20,-15,58,77,34,-72,6,-76,101,98,-39,-35,-64,106,66,-105,-15,41,69,23,25,36,-112,-88,59,73,-80,-15,70,-27,-92,37,-44,-79,-86,13,-84,73,40,-4,-34,4,102,91,-85,80,34,-18,69,71,77,-96,-119,60,-33,-87,-86,-52,61,44,21,12,112,-15,-79,14,125,-98,20,-53,26,-75,113,75,-68,-5,-43,-94,-109,-38,75,34,25,-74,75,28,27,21,-89,-85,-40,-51,68,14,11,37,116,92,6,16,-56,-85,-55,-36,-29,1,-9,9,13,113,-22,-89,84,-37,2,-53,29,-33,-121,4,-89,-26,65,-66,-55,81,-60,8,-5,-67,-120,15,-12,-50,110,13,-104,126,-22,88,-112,-64,-20,-96,40,91,-59,-19,-51,-104,47,51,-83,26,51,10,22,65,-54,-80,106,121,-31,100,3,62,-26,-14,-70,-111,17,-121,-79,-8,101,5,-73,60,-98,118,22,103,39,-14,55,59,-29,74,80,82,-58,36,60,82,96,82,-8,65,-22,71,17,-86,10,39,103,24,4,-8,-61,-71,102,43,-86,35,-63,58,1,70,-64,-46,-34,86,74,62,119,-47,-13,-66,-59,-24,-25,27,-7,83,108,-1,-10,-58,95,34,-48,-48,-62,-48,-26,72,-78,79,-87,4,49,16,-3,-41,49,-3,56,57,-76,-87,-83,10,109,-62,17,-53,-32,71,-47,40,-33,65,81,73,-107,42,-52,-99,24,122,33,3,-3,-21,-85,96,-88,-33,-19,98,32,-18,-32,52,-76,17,-32,-92,33,25,44,-42,-32,57,-11,4,76,86,50,-10,-6,-3,51,109,63,-76,91,-127,-41,-11,29,-71,31,-8,-64,-51,-100,10,-31,97,-65,-98,-34,-92,5,111,-59,63,-81,99,-12,72,-14,55,-6,45,47,-70,-44,-85,81,9,74,-8,80,66,33,-26,20,-11,-30,63,-19,-8,-44,-25,-52,54,100,14,-79,27,14,-88,-95,-69,-62,44,-67,29,-11,17,107,-72,-10,84,-79,-18,28,-38,1,42,-19,5,-65,21,-104,-20,-25,47,-80,-8,13,-72,-51,42,48,-50,85,63,-52,22,17,78,92,68,-27,-71,-24,-47,66,-85,-78,-103,-16,38,19,67,-100,-79,-30,124,117,-87,-70,-92,29,-74,34,10,119,90,55,72,101,-4,30,51,-18,-124,-25,79,-5,-84,-2,117,-77,24,-70,7,90,-25,-49,-24,10,-79,21,48,-63,67,89,75,-68,-19,24,-109,-47,-125,-5,-42,-35,70,-77,80,89,-124,-30,27,87,36,-33,-20,54,-7,-103,-119,-7,-51,114,-106,65,81,-6,90,-14,-43,39,77,-18,62,107,-36,9,34,-35,-7,-47,-81,-26,27,-61,41,21,103,10,31,19,34,12,34,-80,-75,29,126,21,-80,-50,-29,14,56,62,-82,-48,-93,57,-85,-31,20,-67,-14,-17,-56,29,-45,92,-69,23,-114,81,-32,66,33,-3,106,92,-5,91,50,-45,-15,-21,-28,-37,-46,-63,-38,103,56,66,26,-64,-6,59,-54,95,72,-15,90,-70,-71,8,-82,102,31,-55,16,25,-29,70,-125,90,79,11,68,57,-120,87,51,54,-51,25,124,-91,10,-36,75,36,38,-74,-45,80,69,78,87,-96,-6,-78,64,36,43,-80,-39,-27,50,-48,75,59,-80,-60,23,-86,4,27,-74,-41,114,99,72,114,-80,-106,-95,27,-11,-16,-32,25,-47,107,-37,80,-8,11,54,19,-34,-93,43,68,-36,-39,79,-82,-99,-47,37,1,-20,61,-62,-116,55,-10,4,-84,64,59,-24,-2,-92,106,77,-12,-40,-102,-52,106,67,-24,-95,-38,-125,-58,-58,-126,59,39,73,-6,22,104,71,88,-16,4,17,40,116,55,96,-94,121,79,-50,-30,34,107,-44,68,8,42,-83,68,52,-19,-89,27,78,27,66,99,65,-108,99,4,74,35,56,-114,25,-38,-58,65,0,-76,54,5,45,110,-67,-43,28,-44,-4,68,-42,-73,78,-13,78,-12,60,40,-80,-37,25,-31,3,-109,-108,-57,-58,18,98,-49,20,122,27,46,98,27,-27,-80,-78,99,116,29,88,31,-75,17,-40,46,79,-57,-39,70,48,-80,-83,-87,3,-8,-32,-44,-69,-51,68,-71,-50,46,121,-66,-77,79,-44,-94,-94,21,-30,70,-92,-116,-8,85,-74,44,-30,88,91,-37,7,5,-36,41,-89,16,84,58,6,21,-89,-75,39,-67,63,73,-51,17,-59,66,109,-75,-88,-7,-2,84,35,-24,-100,5,105,102,-49,78,4,119,73,66,67,-87,-72,-89,63,-62,41,39,-22,-32,-38,47,-108,-55,45,-15,-12,32,52,-109,21,24,-75,-9,22,59,12,38,17,71,-62,31,47,-74,107,30,-43,65,-18,83,-97,10,-61,35,7,-29,-65,89,-48,108,-23,101,-38,70,20,107,-96,32,-88,91,-94,-53,104,115,34,-39,-44,-80,51,66,76,-103,-13,86,6,76,35,5,-14,-63,26,-27,117,18,3,-72,-52,-106,36,-30,-71,-37,-44,15,85,-9,-64,-94,-101,67,59,101,9,18,81,-18,9,-80,-53,78,52,-113,99,10,80,114,92,78,65,-51,68,-74,9,112,-39,51,39,67,-38,-17,24,15,-63,-47,-26,-79,-26,119,39,-112,20,-84,25,91,98,2,104,22,1,-98,-92,34,71,-69,-64,-47,10,-17,88,-62,28,101,64,-30,-81,-27,-19,83,108,-5,-5,59,-11,54,109,-70,-51,50,-24,-88,38,-125,-81,93,7,-35,-57,108,-53,-38,64,127,35,12,-8,23,-65,58,-10,-104,92,-75,-66,-9,44,21,-28,126,107,-63,-88,-68,-82,-116,47,2,-72,95,-78,2,46,5,-58,19,-88,-27,8,108,46,39,32,19,79,-123,56,36,36,41,-17,-15,48,-18,-119,53,-70,-93,-26,-55,-76,-56,108,15,-106,-40,-5,70,26,-112,-121,47,37,-33,-66,56,-85,-86,-10,-59,-26,-41,57,58,78,4,-83,26,26,-37,-120,-73,-94,-47,12,60,38,81,19,-39,-86,84,98,-19,-28,11,78,-51,-49,-90,-61,108,12,-40,-67,-40,-74,105,-74,-113,-32,44,-54,-68,-71,-125,-72,-36,-74,-47,-107,-101,-69,-9,-110,-51,-56,-5,-36,-24,-81,-24,-98,79,-41,19,13,-25,47,-9,2,-55,-63,45,-80,-48,27,-65,-37,52,28,-43,33,-80,-29,22,-86,-22,-4,94,-121,77,-15,-5,1,-69,54,-53,-79,118,33,-87,86,67,39,21,10,-114,-78,-79,59,61,27,-78,46,47,41,67,-81,80,-110,66,45,-61,21,-44,-51,83,-36,29,-116,86,-102,-51,51,-10,102,4,-29,-67,12,17,-12,72,-59,67,79,52,90,34,-78,-111,38,9,-57,-20,41,20,-12,14,-80,94,-26,58,76,97,105,23,4,20,72,19,95,39,-4,-15,20,-73,-121,56,119,-42,-18,-43,25,-58,36,-99,-24,13,-105,-83,89,107,-125,49,-27,121,27,44,3,91,45,55,-92,31,19,-51,18,28,44,17,-8,-20,95,-2,39,-106,69,12,126,-11,9,-38,-48,92,-14,-79,43,81,89,54,-64,52,41,-4,-40,-100,-21,-38,-8,106,57,-68,87,-35,-26,64,-99,66,-72,12,-56,66,66,86,-74,76,-18,-109,-13,-65,-29,85,-17,22,-108,-44,-43,-24,-60,31,-29,5,-32,-91,-74,-6,-82,29,99,37,85,-17,-52,-105,-77,-1,-108,-117,44,85,-28,6,57,24,37,-78,88,8,6,-22,-69,15,24,-88,25,-43,11,-42,0,-76,-80,114,-65,24,75,40,73,-19,99,18,-18,-49,49,-44,8,-38,8,-57,-100,105,3,62,39,-87,14,66,98,14,125,63,-58,-25,-113,75,-94,16,98,40,-13,-33,-100,104,-40,-105,-63,-57,11,-91,-62,-89,-56,13,-93,15,-118,-95,112,-116,9,115,126,-64,28,10,-60,-24,16,-40,82,15,121,115,-84,-15,-63,-10,-40,-30,-111,86,-13,-39,20,-11,92,-20,35,-100,34,-12,118,-56,-51,-12,83,-58,30,-18,42,1,-50,-76,-99,86,-80,-105,124,90,59,-44,41,108,-10,89,36,41,31,105,65,44,-21,101,59,109,21,-10,57,-124,-22,42,-7,82,63,-11,34,-77,59,-86,62,-66,-98,88,52,18,-24,41,33,69,-119,8,75,16,7,75,51,45,-88,23,13,-12,7,46,35,-6,-73,-61,-45,86,4,-83,86,-40,-79,79,-69,74,30,32,51,-51,-29,-28,36,48,-31,2,-67,111,-62,-43,8,4,-59,-117,-64,-7,58,-44,-87,32,-90,1,16,55,-31,46,111,90,-17,-9,-67,66,47,-120,57,-18,118,-123,90,-97,18,-94,-68,-58,-76,-69,-82,-5,-77,-38,-96,47,-54,-18,93,-70,-13,53,69,-42,95,-2,96,95,23,-45,-73,48,-81,52,80,-92,89,-47,115,8,112,63,-47,31,-34,30,123,-40,123,79,-25,-83,-103,33,60,-31,-47,-49,-44,9,-30,-42,-75,-28,91,66,81,-73,15,81,106,2,4,-92,0,14,-91,66,-7,-86,60,-31,-88,-76,95,-45,87,81,40,37,-49,29,17,-24,-29,-79,79,72,85,25,110,-27,-63,-76,-72,-65,-94,-108,-30,36,5,65,-5,12,-78,-82,85,44,30,44,-9,12,113,93,13,-17,117,-37,91,-62,-42,48,-39,-123,71,-88,83,-64,101,26,46,-76,-106,-54,-18,-27,-4,-88,23,37,-8,-92,94,62,118,-72,37,-28,63,-51,23,-17,15,108,-113,-33,-82,-39,87,10,26,-4,42,122,79,-100,-85,1,2,-83,-111,37,29,109,-18,-62,30,-8,-87,-59,-22,80,-82,-51,-32,-41,62,-1,-6,-96,79,27,54,40,-31,-4,40,-30,-9,-23,8,-76,75,-71,86,-59,-1,-39,-26,67,-68,47,-31,-25,87,-41,59,17,-4,89,-88,40,34,-53,116,66,33,-124,49,1,-54,-80,58,-32,96,-38,41,93,24,-39,-51,-8,-76,84,58,23,-46,57,87,48,-57,26,41,26,-63,-79,67,-18,-12,52,-68,17,40,14,-91,126,18,-107,1,-85,-92,103,117,-35,68,109,-6,-72,-53,105,43,32,9,-100,88,-34,70,-89,50,-13,-77,22,-8,-57,106,-125,-71,41,-70,99,37,-19,84,-81,86,71,84,71,105,123,60,-5,38,21,-49,-61,-70,-33,103,40,-49,-87,-62,14,63,-6,64,-13,81,-103,48,28,-41,5,58,0,34,72,-27,-22,26,17,-38,-21,-106,77,-89,85,-90,-12,-25,26,-59,-51,-8,18,-52,-81,96,-66,-62,73,-30,-8,-120,45,110,100,23,-102,-73,108,-88,-105,-26,-114,79,-43,58,-60,45,-45,41,10,-1,42,-101,-74,29,93,-37,54,61,-43,75,15,-96,87,-46,-68,-74,66,-50,-106,-55,118,50,50,-22,22,98,47,13,-65,77,64,-99,34,-97,45,-46,16,-55,-58,9,32,44,54,78,18,-65,-7,1,77,-32,96,65,-7,-18,6,1,-29,78,-64,22,-61,91,22,87,82,78,-83,12,-82,90,-18,-75,-7,20,15,121,97,-90,28,-9,-32,-26,26,112,-17,-39,-28,-32,72,-23,32,-73,-19,-77,-60,66,30,-80,-86,-7,-46,24,-35,5,25,96,-9,8,34,-25,82,-121,113,3,-72,10,-85,-67,95,46,-67,82,-58,-26,46,-65,90,-85,-38,-70,-107,0,-10,-59,-108,25,-1,-36,19,-20,101,-61,109,-24,-27,-63,12,-44,-21,46,-38,-108,-66,41,-47,35,-16,80,-9,-48,-3,30,38,53,-43,16,-96,44,-58,-62,90,27,-78,-104,-91,-13,4,49,72,49,-10,-17,29,-35,31,-121,42,108,19,78,-41,9,-47,9,77,85,97,-112,-98,18,31,101,30,-84,-111,20,-79,0,119,-11,7,88,-6,26,-93,66,-86,63,35,-83,-51,-15,0,101,106,33,70,106,6,64,-88,-92,-24,-29,60,-18,3,96,1,-122,69,44,102,-21,-45,-58,17,97,108,60,-54,96,-43,104,-15,47,20,1,72,12,-103,8,-11,-77,48,113,81,63,102,20,-1,13,-76,-63,-12,-62,18,-54,-3,108,48,-126,1,61,-98,32,84,111,7,65,3,-104,-48,-6,28,6,-59,21,75,-71,21,-6,45,19,-76,61,17,-103,-3,11,18,-67,34,12,-86,33,21,12,-17,119,-107,65,-14,65,-101,-51,18,-11,-20,8,0,-24,-67,69,85,101,-104,25,-48,-117,63,91,-19,-21,73,110,63,110,98,-82,-43,57,92,4,-106,-91,-10,52,-40,-82,-52,85,-89,105,-38,-33,70,69,122,96,-71,-46,-79,45,4,118,0,-6,-50,50,79,-42,10,7,-59,33,-58,-69,15,62,13,24,-8,47,12,-10,-36,-26,30,57,63,45,36,36,-27,-14,42,36,-32,-108,-20,-94,45,46,48,32,-61,64,-46,-12,-110,2,15,40,-21,-94,41,59,56,-17,91,-100,-78,49,99,-4,-29,41,-82,60,38,51,11,46,91,106,38,-1,-107,-3,-103,-66,-95,-80,-88,-54,11,44,-39,94,77,2,70,90,41,119,-78,47,-21,-101,80,65,73,-81,36,62,-31,6,62,-54,91,-89,121,-12,110,-28,-39,-61,57,-28,-62,37,90,65,57,-25,74,2,-102,93,-78,26,115,63,-33,-93,-66,75,-57,42,-20,-10,83,-61,-14,71,71,-80,-14,17,-67,85,17,45,-51,90,102,26,119,20,-10,102,81,50,-11,90,-62,70,-50,-52,-107,58,36,-70,107,9,-100,-105,-53,-53,2,64,89,-74,-31,-9,-21,-44,120,-76,113,-47,55,125,53,123,24,30,-60,0,12,67,-9,-76,55,-24,-71,-15,-45,70,29,-4,-14,-73,107,-82,-2,41,-114,-83,107,-80,-6,-12,59,28,-20,31,98,40,-1,23,5,-16,15,-80,-55,-27,-53,7,34,-35,-88,-8,84,-49,-23,-89,-107,-85,-94,-104,61,27,-96,-40,46,31,-108,-34,-88,120,-62,-34,-87,102,26,-46,-54,11,-115,-28,21,-73,-33,-76,-75,-17,-85,72,-47,-112,120,4,-20,17,24,-38,58,-30,27,113,-79,43,-28,100,74,105,63,-65,-48,49,84,78,58,72,-47,-13,37,69,-66,106,34,-2,-27,-66,-64,-59,90,44,-64,55,34,-90,-3,-50,-97,-68,-82,31,24,-103,-64,19,-22,-100,68,-101,-79,-93,73,-80,72,-14,-25,103,-115,-6,-20,-5,-66,48,-54,115,-4,55,15,63,19,-69,-63,-73,95,-25,-79,-2,112,15,19,-24,85,-72,27,56,105,-13,112,-107,25,17,-102,-52,60,-122,26,-64,-71,-48,15,-47,41,-46,-31,-13,-8,-67,15,23,-70,56,-62,-14,-43,-78,-64,5,42,82,121,15,49,58,-32,-65,-70,16,-59,91,-70,19,48,-58,-33,-9,-104,79,-65,-25,-115,-71,7,-26,-63,76,-14,60,-11,90,-4,2,44,8,-69,-61,-99,-75,25,14,9,55,-55,39,122,-82,117,-109,72,-54,-18,98,-104,-88,-9,-10,-30,61,-1,30,97,90,-62,-78,19,13,0,-5,-92,-48,-90,55,35,60,43,28,-11,56,25,81,-19,-97,104,-61,-121,18,84,67,3,-16,-63,21,28,48,-38,-70,-58,-83,102,-26,-10,-81,-16,51,-27,-83,98,23,-77,-15,-91,79,-43,-83,-32,-113,102,55,-56,-86,-124,63,53,-52,-73,-12,-22,-84,108,113,9,40,101,-75,-11,55,41,23,57,-69,69,63,-34,58,-60,86,-48,-23,-93,52,9,-21,-52,58,5,78,-51,2,103,-86,103,61,31,74,10,71,-3,16,53,-86,-47,76,39,126,9,14,92,107,25,-110,90,-43,-75,23,-118,-93,54,-20,47,2,3,76,-73,38,91,20,103,-67,103,-27,13,1,-55,11,-53,58,-19,-101,-2,5,-62,12,-32,0,91,67,-31,19,-37,84,-54,-67,-62,72,-94,-27,49,62,-88,-6,56,-4,103,108,50,36,-22,-24,74,-56,101,84,27,87,-117,-39,32,46,-87,-29,-74,8,87,-106,55,-71,82,7,-7,-84,41,73,45,-62,21,39,-33,86,87,53,55,-80,96,7,-7,101,-22,82,41,51,-44,-11,115,39,13,98,-47,1,103,53,-91,-24,-26,32,-22,74,-89,-102,60,-87,95,108,76,72,23,123,-55,-79,-10,-25,-75,-18,113,-81,-16,-107,3,87,-89,17,-74,-9,-72,66,-120,88,2,78,28,-36,126,-95,-2,10,-29,-61,97,80,-97,-47,32,-79,-36,-15,19,-37,-96,36,-23,72,-66,-22,-47,-42,-2,11,14,126,59,18,56,-22,-78,-15,44,-13,-99,46,-16,63,84,-50,50,24,80,67,91,-47,16,-29,-37,66,17,-105,37,64,-101,-22,-69,-31,84,-36,-29,44,20,-35,-101,64,-46,-92,58,-98,-17,-47,-91,116,-115,-89,-8,22,-14,-40,-62,118,108,-72,101,-105,89,-38,-60,85,-59,19,-23,44,-102,91,27,100,-63,-39,49,43,75,35,91,-76,34,-53,29,13,17,15,103,-106,21,68,-8,68,-104,69,10,34,30,38,-84,82,91,39,-27,-6,-54,-98,-26,90,35,-47,-67,-115,60,42,68,27,65,-39,-25,-74,-1,25,-105,-23,40,-119,99,48,112,-72,44,-89,-8,106,21,8,103,-44,-27,-18,-125,33,-3,-24,-41,53,106,-10,93,-69,61,-49,-43,-41,76,103,-96,-45,-28,-82,-58,-44,2,100,90,-89,51,-91,-11,75,-72,120,-39,-70,41,-23,44,32,70,89,-17,52,6,-55,-79,60,-16,-70,95,80,30,109,72,-85,64,-12,83,63,5,101,-86,-72,95,32,17,32,13,83,55,36,-1,-7,18,30,63,83,-4,-67,97,-113,33,-2,-81,86,-84,92,-66,26,-88,-48,84,61,-53,-87,-85,-36,69,122,-82,-90,51,57,0,66,-11,7,-29,-1,-55,-123,11,-53,87,-26,-64,54,45,-12,13,117,-63,-21,66,35,2,-16,57,75,20,12,54,26,113,50,-22,-4,22,-98,64,6,53,-55,-103,118,80,107,-24,-41,91,88,105,81,-63,-42,74,41,-1,57,-83,43,84,69,-71,-76,-74,17,-16,8,-87,-53,-101,-51,68,-103,-34,113,-46,87,101,74,68,65,61,-96,-99,-57,-94,-35,-3,-45,41,45,-59,121,-73,103,32,80,93,51,-2,81,7,4,-42,14,59,25,0,91,-79,17,51,-4,-26,-73,-4,-70,75,-77,22,56,-2,126,-86,82,100,-81,87,-59,-65,14,-63,1,31,83,86,-117,-14,7,-35,-70,3,-78,72,-64,94,92,-17,-102,55,-52,1,-4,-31,80,-32,46,-84,79,-8,65,65,-99,-44,97,88,41,70,-15,1,47,-19,75,27,-18,-27,-4,31,-84,-77,51,20,68,-73,120,4,0,3,-46,65,71,117,62,99,89,84,110,3,-51,-76,-91,-39,-10,-65,3,-36,53,22,63,-74,-55,-86,117,-56,55,5,39,37,-47,-80,-43,11,99,-92,32,-29,33,12,-104,47,-83,32,-34,64,56,-110,-23,102,-74,-92,97,30,-16,74,67,-71,-112,-41,-68,31,-38,69,102,-11,-70,42,102,-66,-79,5,65,-3,89,23,-102,-54,-49,-43,-102,-101,26,80,-52,74,-25,-71,-11,44,-1,35,-84,12,-64,-74,-13,-42,85,72,26,-73,51,-109,-18,-84,108,-98,59,-95,62,-61,-20,-96,-20,78,30,3,-101,16,43,-10,-82,-84,-66,127,101,-51,49,82,-39,73,52,48,62,-21,-59,-12,102,82,116,-8,-63,54,35,9,-108,81,92,-51,-5,-48,-25,22,88,42,20,-87,32,-25,58,-25,47,-82,-72,68,-19,65,-82,-76,99,-35,-23,86,-41,-68,-39,89,22,-66,-70,32,-90,119,-1,87,57,68,85,-58,23,-104,86,60,91,-57,123,-32,104,126,103,84,-6,-23,116,-38,-108,-74,-38,-11,72,-63,13,-93,41,59,32,-36,89,17,-55,-83,-110,90,-31,18,-126,61,-50,64,6,-97,-91,-13,-5,24,-95,-122,109,-75,-27,33,21,-7,33,46,41,-49,-120,-19,-45,105,-16,106,-112,2,-104,-48,-111,-25,70,-58,69,58,-86,65,60,-31,-101,-90,38,-23,-52,37,-54,62,69,1,-22,-7,96,15,67,-17,65,112,101,18,97,-47,79,10,-79,-118,64,34,87,20,81,55,-69,-58,53,-75,-61,-62,-11,86,-61,8,10,-39,-98,44,-50,-110,53,37,11,-68,-15,-53,37,-93,-30,79,101,54,101,120,20,36,-52,-74,-127,-27,-88,38,109,-34,113,15,-73,-7,-124,-77,-76,104,-29,72,44,82,-11,-50,14,-96,63,123,-79,82,-106,41,-13,45,57,63,-48,-48,-100,-119,-42,-84,16,39,105,-85,-78,92,59,100,-71,87,111,93,45,22,95,-95,57,84,119,-63,95,-1,-38,43,59,-42,-46,-20,21,-6,-90,67,-62,50,98,47,22,-31,-10,20,59,-42,43,-26,-38,-36,-32,-41,23,6,-36,-56,104,-53,30,125,1,19,-34,-64,-104,89,-43,-39,-39,-74,-15,-11,43,-14,-62,-10,112,-31,-107,-46,33,59,5,-93,41,-124,-105,-83,107,-13,70,24,66,111,-105,3,-84,34,26,26,-19,108,104,-16,-92,32,-123,-69,-35,-2,33,77,48,-37,59,28,102,-4,36,94,37,33,-9,-56,-101,5,-67,-87,39,-15,-9,43,91,113,69,-81,44,-30,74,-7,-73,-87,-56,-34,13,-29,-68,23,-62,44,-31,-110,-35,-77,-26,1,24,-21,-17,-88,-75,-91,-53,-69,-28,-63,-36,-98,3,83,22,62,-97,105,-7,23,91,-73,-62,-27,-52,88,15,57,46,80,-121,29,-51,25,88,12,6,-6,-63,-56,-94,-35,-18,20,96,-18,-115,55,77,73,-38,15,-67,-34,70,-85,-12,-32,103,12,-62,3,64,-92,77,64,36,63,-78,72,-87,95,19,77,-56,-8,1,-6,-87,-79,17,75,46,-92,76,59,69,-14,-42,-25,56,6,97,59,60,-49,52,-27,7,-112,-51,-38,-102,106,-65,-2,-2,-37,-79,-119,-69,72,100,-88,-94,29,-108,-55,-38,88,93,56,-65,22,13,-91,-75,-35,-21,-22,27,-100,-3,64,99,121,95,51,58,26,111,-73,89,-59,-49,-80,123,2,64,24,10,42,-28,110,42,31,-34,-48,-4,84,2,-81,-24,-41,110,108,-99,13,-68,-30,5,50,-2,17,65,-49,-98,-20,-125,31,-70,-44,-96,-51,-35,37,104,-15,-5,48,88,-28,-125,-48,-52,85,-85,91,39,-127,107,18,22,40,-12,28,86,-6,-88,-5,-47,-6,-11,116,63,79,-7,70,-38,-56,-98,62,-76,-2,99,71,34,-13,102,-108,-2,-68,89,35,57,118,-22,-85,102,-43,-76,-1,69,21,65,-92,-44,-78,57,34,44,-37,-19,-80,31,-62,13,87,-39,91,-67,14,-66,-77,-36,-64,-67,-78,-67,57,30,-16,9,-103,34,-2,53,12,-29,53,-73,-11,31,43,67,123,-34,-65,90,74,104,22,-5,91,83,-89,-114,-26,-119,-17,11,-114,16,-18,-71,-61,-56,44,74,36,-102,26,36,77,-65,-77,-80,-19,-2,48,-6,-29,-121,-17,-127,41,74,-62,-62,87,65,-80,-41,-12,-64,-57,66,-87,81,-112,-16,-123,121,-63,-91,-41,82,-37,46,34,-44,-5,-14,77,-39,20,-106,-74,24,27,-12,5,11,-99,-108,-38,-71,62,-65,12,24,9,-23,26,-15,-8,-31,-54,-75,-86,-19,-70,-15,-30,-32,-57,-55,-88,-21,-51,29,29,64,118,72,85,-63,84,-60,26,69,29,69,-31,16,-95,91,-96,78,-65,-21,-42,49,115,21,-63,-50,76,12,-43,69,-7,109,45,-54,97,-78,105,52,2,43,39,-32,-58,106,-115,12,-16,64,64,126,49,1,30,-98,13,46,-83,-44,-27,-50,-60,94,83,63,120,-21,-68,-8,36,-93,40,-72,53,-18,-4,-91,115,-1,107,77,-20,-12,-59,53,36,55,62,61,-42,85,101,74,-37,19,-94,-7,48,63,87,-6,52,11,41,-68,-126,-96,16,103,55,78,-19,104,-76,-88,6,-16,35,-108,-94,-7,-85,16,-12,-70,-91,46,-57,50,29,-16,28,-19,-31,-76,0,-34,97,-122,88,-96,20,3,-9,24,16,72,80,-84,1,43,-36,13,86,7,-49,60,-42,-89,35,-48,-80,-83,62,110,7,112,-38,-7,125,120,91,105,18,95,34,109,-31,42,-105,-26,7,67,59,13,-78,-7,-68,-28,24,-56,87,19,12,-2,-62,-84,74,12,12,63,99,-107,-73,51,44,102,-39,63,94,-77,77,44,-87,-53,-15,27,36,-24,-1,-69,25,-10,-71,-82,17,43,-49,72,-102,108,-106,-19,64,14,-118,106,6,49,110,-67,-30,-65,41,91,-76,-87,56,103,118,-38,-8,-104,-99,-2,105,-89,60,77,73,51,-115,46,103,-21,-63,35,-2,-77,115,-26,53,-96,-26,-21,-2,-93,84,67,-2,-68,-79,-101,-36,-56,90,114,59,30,27,94,-84,13,-48,73,104,8,85,-105,99,-25,-32,60,-52,100,91,-86,53,41,-51,14,106,9,-17,-24,-85,-112,13,39,40,-54,-17,-32,35,-112,-29,69,103,-17,-82,-103,-45,14,15,-74,-41,-30,57,8,90,-122,106,-42,64,113,77,36,91,14,-43,12,89,-55,65,32,-8,75,-77,-49,2,-8,-55,-69,-105,42,-8,-53,-122,-101,7,68,-9,40,-8,36,61,-49,-53,-39,-89,48,58,-109,-23,-55,-109,-35,-62,34,-64,-29,81,58,-33,-9,39,17,87,-94,-61,119,67,-12,-102,52,121,120,36,13,-54,-122,118,-88,-7,-1,-69,31,36,-77,-26,57,-110,-31,42,81,-66,-4,60,25,-99,84,30,-31,16,94,-42,8,-43,39,-108,25,34,-42,3,-63,-26,110,92,-123,81,82,0,-64,60,94,51,120,17,-95,59,39,99,14,-64,111,-98,96,-62,73,-30,-59,61,78,-17,2,2,11,10,-10,77,-79,-65,-86,64,19,6,-67,-2,78,-33,-101,-116,25,-17,42,65,58,48,37,-63,-38,-3,-21,70,35,78,-76,-104,-108,69,-18,76,-82,117,-83,-80,-33,20,-69,19,0,-80,-62,13,-10,-36,-65,-80,118,22,-69,45,-48,-126,11,17,-25,14,97,-21,43,78,20,122,-30,-19,7,58,-76,46,-105,53,31,38,-27,-77,-4,-88,83,-95,-7,66,46,-72,-22,10,-61,-103,15,-35,-21,42,-75,40,100,17,-61,46,43,106,56,60,32,110,71,-24,70,26,64,-25,-45,55,-7,55,-111,23,101,120,-18,-79,55,-104,-121,-104,-108,28,123,-115,-78,-57,38,-91,-14,-51,-31,14,57,-85,-71,62,44,108,53,3,-8,80,116,50,-45,-108,36,70,24,-2,-70,-5,-90,-48,40,-78,10,-70,-35,-71,71,-2,-16,33,75,-104,106,-31,-63,-125,73,62,-53,87,17,21,22,127,89,92,-18,-54,-41,-4,87,-81,-75,-24,104,-103,-73,-124,82,-39,22,-86,36,120,-84,65,97,91,47,-8,12,31,-87,62,-85,-105,55,83,-18,66,-45,48,85,30,32,24,96,-40,-43,87,-33,-19,-29,-68,60,95,-120,-10,83,103,-15,54,69,121,109,23,74,56,-25,-15,-92,84,-46,72,58,-80,-108,-126,35,47,-34,-32,63,-65,70,42,-109,43,7,-15,76,80,-80,-21,7,-77,59,0,-45,13,-56,-6,-57,55,-37,83,-63,-20,-1,32,54,-39,90,46,33,7,-14,-85,43,-69,17,-34,65,40,-98,-108,18,-12,-69,116,78,-67,14,118,-69,4,-106,-34,76,56,0,-1,82,10,-80,86,-65,17,-94,-67,-15,-11,-56,-37,43,68,113,-13,-14,104,2,-88,2,10,89,-26,-74,-96,118,-24,-117,35,39,-39,-104,52,34,-75,11,-68,26,61,-59,-16,50,37,90,116,-50,93,-82,-18,-105,102,-100,1,34,82,-10,-90,25,-91,-48,-4,42,9,96,47,-72,-101,-65,-79,-48,-81,35,-80,-61,10,64,-127,-72,35,67,-88,-14,63,78,-5,-95,-54,-44,30,66,-27,-67,-60,11,-73,44,-33,-81,62,-54,-20,-53,-74,69,83,-45,120,3,-112,-70,-43,-109,-101,79,35,-24,-102,81,73,-10,-23,88,81,51,81,64,-81,-122,-83,62,109,26,-96,14,-14,126,58,81,99,57,39,-20,-7,94,23,38,-71,-55,-73,-62,-67,59,100,-40,-72,37,55,73,-79,-93,21,37,31,-58,-109,-70,-101,-43,70,-39,15,34,-81,29,39,-39,28,28,-13,14,28,25,65,23,13,71,88,59,-42,9,9,-48,2,-111,-25,-25,88,37,104,-113,-27,-19,57,89,-37,-125,25,-83,-42,61,125,-86,-91,28,20,-2,-81,69,-25,13,-7,86,26,-81,89,22,96,-68,-30,-105,-84,27,17,110,-9,-61,45,113,102,59,1,16,10,-116,45,54,-73,-59,-3,-20,61,-3,9,96,-55,101,-47,81,-13,-21,42,-77,73,56,49,25,-38,11,-40,-33,86,12,-117,68,0,-40,24,-25,1,-81,-4,-89,74,4,9,25,55,-15,118,70,-63,-90,97,83,93,-115,63,-126,55,-64,4,84,82,-18,-66,-20,20,-85,75,-55,64,-50,72,-37,-71,-65,-24,-37,-123,-19,-108,4,-8,21,-1,-44,-104,2,40,41,-35,-83,76,5,-75,3,-86,-96,-98,122,106,-73,-67,81,110,-59,-45,79,57,-74,-68,63,-75,17,-107,-81,-22,66,71,94,-81,32,-84,51,42,64,-32,-62,-32,21,-10,27,11,37,84,-104,-1,25,-55,66,58,4,124,-22,89,29,36,37,-70,70,-10,65,-44,-64,28,88,70,39,-66,105,2,-62,86,26,54,8,8,-29,-2,68,67,-68,-58,16,116,-104,-14,-40,-45,-95,-33,-7,114,7,-68,5,-68,-77,31,54,66,37,-23,-87,-71,-19,-83,102,64,-5,-71,80,-37,23,-107,-85,-82,45,-95,-26,29,26,86,-106,-94,-22,28,-71,-55,-46,-48,0,57,-41,-55,116,-73,-71,-54,27,-42,54,-104,35,-28,80,70,-79,30,0,-11,24,-7,25,1,-51,-42,-44,-114,-16,58,44,70,-29,18,-80,94,-81,67,-67,-73,-15,61,6,35,22,47,7,90,3,-61,96,-105,-83,111,87,-35,-49,-13,28,-82,42,-102,61,38,-38,-91,-28,-94,-70,-19,-48,-79,-108,111,69,-74,80,-125,-41,66,-92,-65,67,66,59,8,-57,-125,50,108,-57,41,53,73,-64,-51,-13,-24,83,87,82,55,10,56,38,91,45,67,-46,126,87,117,-26,27,69,100,1,-77,-8,70,41,42,-75,39,3,87,-24,-94,-66,73,-83,81,41,57,10,-78,69,-73,-103,-108,-15,57,-84,93,65,40,112,6,24,-52,-64,48,-3,-58,-12,-25,-78,-37,-48,-34,121,-22,54,27,64,-69,-55,118,17,1,-96,26,-2,-98,-117,-31,-96,91,64,-58,3,85,31,40,123,67,72,71,47,-10,-51,-23,-96,-67,-43,-11,9,82,-108,56,-65,70,72,-35,34,115,-68,45,30,20,37,-106,55,4,-86,69,-2,76,71,41,-39,12,-56,101,11,71,-74,118,9,-54,105,52,69,8,-68,-62,-83,-92,-5,19,-10,56,-9,33,-126,-43,86,-84,1,23,119,28,-83,-65,-9,-49,-101,-29,-85,41,-55,12,-33,-97,1,62,-118,-66,-6,37,-73,107,-70,-30,25,65,-4,-30,-89,41,15,-8,34,-111,-10,-21,53,-30,-26,70,37,0,44,35,90,3,99,-66,-86,-89,-103,21,-39,-103,-5,12,57,5,86,-80,-102,37,-86,-88,35,-61,97,-127,-60,77,86,-11,50,125,27,-58,-9,19,-42,-86,23,-69,-44,-64,-29,-22,-81,29,23,-11,48,54,-57,-24,108,30,32,82,-26,22,44,-55,75,124,-50,-108,-30,-61,-10,-42,-102,-75,75,-56,-93,-89,-82,82,-52,-62,71,-28,16,93,48,16,-58,13,-79,6,84,-81,-29,-34,-82,-54,0,-62,-89,-29,-77,-83,85,-35,95,124,3,71,-23,-39,-92,-80,33,85,-50,34,-49,-56,7,-50,119,-48,17,-8,1,5,73,-83,122,83,78,-101,58,87,63,78,-89,61,-16,-2,-50,-44,-75,81,65,99,-94,114,29,17,96,115,-77,106,-43,25,-92,9,-76,92,-21,-8,-11,29,-92,-12,108,1,125,66,62,7,-4,120,-50,-25,18,84,20,113,10,34,-97,19,-28,-63,13,-41,8,-20,-15,-66,3,14,103,5,-80,95,-69,-69,79,-84,105,-71,105,19,21,21,-78,-126,82,13,21,-32,20,60,-2,26,-48,63,98,30,78,-102,-88,87,14,57,71,6,-60,-85,-71,-41,43,-80,82,-102,32,49,-62,-63,35,-86,116,45,-89,-67,-35,-14,121,-16,104,90,31,-30,85,82,-50,-10,5,-28,-11,-90,46,-46,80,-36,24,-86,-80,-27,-104,-22,66,-118,-90,-89,-35,29,-51,10,-4,38,6,-4,54,24,-81,-8,-17,-21,-66,-75,-73,79,83,17,-42,-104,6,-55,79,75,65,-54,17,46,-85,38,84,104,8,-6,50,68,19,87,-102,-17,71,114,67,-111,76,68,-88,-72,-46,45,86,-29,-76,59,20,66,30,-90,83,11,89,110,89,23,83,112,-15,33,37,6,74,97,71,9,3,118,-4,63,76,-88,43,2,62,-90,10,42,-112,71,-51,91,99,61,-19,-11,34,33,-89,9,95,76,86,-71,40,34,-8,70,22,8,88,12,-71,-36,-102,-12,23,-49,5,-96,34,58,20,52,3,-124,-3,21,-93,18,61,79,60,-108,-95,-38,89,-57,82,12,85,-84,61,0,125,18,-57,-2,60,72,6,4,-73,7,91,-24,17,-113,72,-92,50,107,22,-19,-92,-77,-39,118,117,18,-88,-105,95,-70,-34,39,34,-70,27,101,-5,-87,-94,-77,-101,118,98,116,56,12,52,-34,-55,-30,18,-46,-15,-97,101,90,-109,-53,7,115,-117,-101,-23,18,-6,57,-43,-55,-45,78,-61,76,2,107,75,25,17,-120,-32,62,-54,49,72,16,-32,-41,-9,19,-97,-72,9,-44,60,37,127,-55,-23,108,33,29,8,-30,-36,98,30,-51,101,58,18,46,-8,-6,-13,-63,76,-81,65,-125,52,12,114,25,99,58,-10,73,64,-101,111,-13,83,59,5,-122,5,-9,58,-113,70,93,76,-42,-39,86,-62,-102,32,-48,85,27,-32,-43,47,-4,27,-75,4,-14,-84,85,-77,8,-90,-24,-84,40,-53,-98,107,-23,21,-108,52,-72,66,-4,36,65,78,-32,82,-74,98,-72,-24,66,-53,27,-12,82,-76,-50,77,73,25,-98,-112,105,-84,5,82,16,32,-68,45,-78,0,-100,51,54,-120,-47,-47,45,25,47,-64,-51,80,9,-52,51,-38,47,9,-20,-77,-14,-43,34,-46,58,-47,-90,-86,-29,54,62,33,-34,-86,-125,-6,-36,-44,54,68,-113,100,70,33,16,-60,-77,-27,-85,73,22,42,29,74,-64,-20,-37,-4,-61,-5,-66,84,-10,-111,-20,28,22,-60,76,-67,-61,29,-89,33,-43,-61,79,-41,-79,-58,94,-59,11,89,-78,-11,-121,121,-95,109,-59,-25,82,10,-18,123,-55,-91,-95,-81,10,62,64,15,8,-70,-25,-80,-56,105,9,-120,56,2,105,-9,84,-49,6,-3,10,66,-61,21,-97,114,14,11,-8,106,97,-104,-33,49,-4,-9,59,16,38,-55,-90,-88,41,29,-115,-61,-59,-45,70,-102,1,8,-20,-38,125,9,88,26,36,49,-64,-51,-40,43,79,-20,78,54,97,64,-45,71,29,9,89,6,0,-66,-105,-7,10,-76,-99,119,15,40,-58,102,-82,41,68,25,-82,93,105,118,-74,94,-47,14,-73,57,121,-82,9,-77,33,-39,23,58,-75,46,-54,-81,-94,-95,-51,83,29,26,58,20,-34,58,-14,24,84,33,104,23,80,75,59,28,22,-76,97,-63,-107,17,-37,89,44,27,16,-34,-13,87,46,2,73,120,77,93,31,14,44,85,-13,-91,-118,-13,89,123,12,-2,-35,26,110,22,-100,-100,-46,-4,-63,21,-13,99,-85,-77,104,-92,30,4,53,94,42,38,-20,43,112,79,-38,107,12,10,78,-68,-47,-107,5,54,39,-59,-77,-111,-33,71,-4,61,45,35,-104,8,64,16,-9,-37,-33,-56,-11,19,12,31,-39,-18,-5,-10,-78,-11,36,93,-83,-67,64,80,60,49,38,27,-36,-70,41,85,-78,-80,31,69,95,15,-87,25,63,-64,-70,-62,0,-52,83,-83,47,-41,56,-57,78,22,65,69,59,28,70,22,87,11,85,-88,-15,-84,-21,-44,38,94,23,6,24,50,-123,1,24,-21,-76,23,93,-4,-31,-17,-126,-39,-45,-34,-71,-50,-102,49,62,-105,-45,-85,43,1,-68,-61,51,124,-13,60,-72,86,-74,-103,46,-18,28,11,-95,84,-5,96,12,76,29,-57,59,-97,-40,-37,1,-89,75,28,-1,9,21,21,65,29,-39,-26,-105,-77,83,73,-66,-19,32,-37,-78,-106,-30,-80,111,70,105,-17,-88,-88,-38,-13,15,-108,81,42,51,21,10,-31,-113,4,-62,87,101,-60,-108,123,93,55,-104,-89,90,77,70,103,-54,-1,15,125,59,35,65,-103,106,-65,81,103,90,3,55,-19,61,113,90,-51,-17,-16,-31,79,90,83,-18,70,64,-88,53,-37,51,-21,2,17,-62,-61,2,-103,-43,58,78,-65,-108,-75,-83,-93,38,31,-83,-77,-45,43,-22,-30,-44,26,-103,61,39,-6,22,101,-92,62,79,-84,3,-33,22,-63,25,-76,-55,-26,126,-5,-77,20,17,107,80,-21,68,88,-73,57,-93,-6,-106,56,-13,46,51,4,-28,-82,-34,-88,-45,-90,-19,-8,-104,-14,29,-7,37,108,83,57,-100,-61,-40,57,-16,50,71,-7,-82,-68,-2,-10,-105,-5,-105,27,-90,2,-48,0,28,26,-36,85,91,59,61,91,-79,56,-59,93,2,91,48,84,-21,67,-52,-32,44,-63,71,23,107,-126,64,-67,-47,1,79,-86,83,20,11,94,3,84,-122,48,-73,-43,-20,65,-31,-27,59,5,92,-81,12,44,-59,-83,102,-72,21,99,13,89,66,45,64,-90,17,-121,-60,-36,-57,-75,91,-20,85,0,-16,-50,-13,-106,92,-63,-99,81,43,-40,-47,-86,15,32,-31,9,26,85,27,-103,112,80,33,-39,5,47,-62,-66,7,-2,37,-54,18,66,61,-10,-46,62,15,126,45,-31,-54,0,56,27,67,-60,-7,-65,-35,-47,-37,102,-99,-121,-33,-49,6,-54,71,-41,52,86,-101,-22,33,-73,46,76,-118,40,127,45,-14,20,63,33,34,-24,-56,-71,67,3,44,-79,-19,-77,-39,6,62,8,67,120,79,89,20,-50,41,-21,-19,45,-62,-120,21,-4,-19,18,92,-83,44,88,-91,88,-61,-22,-20,-95,73,-89,-16,-31,97,3,81,-28,51,-119,-101,39,52,79,7,-34,-32,121,32,-88,-89,79,-70,-24,55,14,-58,30,-120,24,-9,-121,6,-81,-7,-23,-24,-24,26,45,54,27,83,81,-24,13,-86,-44,-15,116,-31,67,19,16,-49,106,100,-27,-113,11,-33,112,-71,-24,108,42,-14,-79,-71,115,100,8,84,41,84,89,-9,41,-23,-62,-70,-51,-11,-95,-45,35,23,3,-29,-112,-106,24,-32,-124,-99,61,-75,-117,-29,103,-32,-65,62,-10,-100,-109,32,54,-30,36,-76,33,-48,-45,4,103,-16,14,76,54,6,-49,-70,-21,73,86,14,-101,-43,-77,-22,-62,-102,124,-102,-42,-68,4,102,-68,2,-24,-2,56,107,47,56,23,-12,3,-65,30,-111,-57,60,90,116,-5,67,-13,21,-4,73,116,-19,-89,33,77,20,-20,42,-98,56,68,9,26,-49,125,-86,86,18,-63,-3,11,29,-35,3,-3,37,40,0,63,-52,-31,81,-2,89,5,52,120,-30,112,-101,32,-26,-49,-74,111,31,28,-112,-82,118,108,10,-104,-117,61,42,-97,57,-15,-91,55,-54,-24,90,9,-119,-39,60,59,46,116,-17,-1,-83,24,-73,8,23,29,53,102,-41,40,102,88,-10,-103,-126,49,-3,-19,-100,-103,-24,-19,93,-90,-14,-111,-31,-15,61,-72,43,-60,115,62,-47,91,67,22,95,102,-6,-46,53,-15,-66,55,89,-75,-72,-87,-16,69,53,-84,51,-14,114,-126,-18,-51,-19,-83,82,57,-34,-74,-111,-45,13,-54,35,28,-3,58,-119,99,-71,-40,-53,-124,39,100,29,68,8,94,34,-36,-55,-109,41,105,-104,-70,34,-50,16,-3,50,50,93,31,-86,-55,-115,-57,-66,-77,-29,-1,49,125,15,-67,8,-29,-43,20,-22,14,-58,35,-120,-55,-35,-118,19,37,-110,72,-74,-28,-85,-55,-53,44,-96,-19,73,32,2,-99,36,-53,-5,-57,44,9,-5,-48,-17,-51,-56,119,58,93,60,-106,-49,-122,-70,84,43,61,107,-54,-32,12,-32,2,104,114,33,52,-88,69,74,-44,-94,104,57,-36,11,103,11,-30,-72,13,-66,-60,25,46,-77,-41,81,49,-18,-13,-92,51,107,110,-6,26,62,85,10,88,-7,-9,-73,-41,-100,-55,14,111,52,-39,-72,-57,-107,-36,18,-25,93,-22,70,-16,6,80,49,75,45,-44,50,48,119,-108,-37,97,-15,-30,-86,27,77,-62,68,-121,28,24,74,43,-24,-46,12,63,7,17,-42,-58,-90,-88,90,27,-22,-75,7,-32,104,82,-104,-33,96,10,72,-31,-6,-6,11,-68,44,10,66,44,100,20,-30,-6,-33,-4,60,7,-69,-48,90,8,81,-38,-88,121,34,-73,-62,48,64,64,66,8,53,-73,105,-77,32,30,58,64,-79,-26,-75,-114,70,-38,-40,1,-11,73,-109,-99,-9,126,84,5,-40,0,2,25,-88,-13,104,88,-125,-98,-67,-54,10,-60,-45,80,126,101,-13,66,-57,-47,-43,-90,-38,75,-79,48,119,78,-10,-22,37,-4,-7,87,-23,38,61,-119,24,-101,-67,-45,-97,-64,-60,34,34,42,-3,39,83,84,-74,91,92,-82,-97,24,34,8,36,-33,47,-6,-30,-6,-5,-3,-80,105,-81,67,69,116,107,-36,9,-75,-61,-45,118,-68,-89,-36,-84,111,-58,85,-83,12,56,48,21,-66,22,44,-93,-81,-98,88,-77,-76,22,-48,-21,39,49,-32,-74,-53,-56,-20,34,42,-48,-40,-64,6,80,125,23,30,112,-97,97,79,21,-43,68,74,47,52,10,-56,-56,-30,-9,75,9,17,-84,-36,-95,-32,63,28,33,-54,-35,51,48,1,-3,-125,-122,95,54,26,-35,88,27,-32,37,-111,-6,11,-106,16,89,6,-47,-15,-64,123,-62,-49,-32,-30,-81,-26,77,104,-75,65,-32,-3,-117,84,-48,-47,2,19,-32,-56,-90,16,-94,21,-37,-77,55,-14,-57,41,-9,21,29,94,-117,12,24,34,38,-40,59,-16,-108,20,101,39,-5,29,102,-49,-69,-78,-33,-65,25,30,-79,5,51,91,-89,74,-82,96,-13,94,1,-43,-111,-14,-65,-57,71,-115,-47,3,-72,-41,7,-54,59,-39,-25,96,-66,51,-7,-3,46,52,71,45,18,-93,-78,-103,-71,-121,-100,-67,44,32,-104,-38,6,-5,6,2,84,29,18,34,37,21,-32,-13,73,45,-116,36,-1,-108,8,79,91,-56,88,-4,68,-56,-33,-41,-116,67,-112,-27,12,-91,5,-78,4,-82,-70,41,-43,-15,-1,28,-49,-8,1,-53,-40,43,-67,-76,-14,-82,65,31,105,4,38,-56,-48,41,97,-50,-68,42,35,95,-100,83,41,111,-11,94,-56,17,-118,-87,-49,89,-27,11,-14,79,114,-7,16,-44,-5,-121,-3,-28,-13,-19,-111,-95,-78,10,110,44,-119,-66,70,-40,89,15,34,-89,106,-8,-98,19,92,74,-40,4,104,29,-86,32,70,92,-59,-120,58,24,47,127,60,23,67,-57,-1,-26,-84,93,-94,59,-76,-104,-8,-48,-77,94,-17,-21,-90,68,2,80,82,-23,71,44,-87,1,43,55,20,11,102,80,43,-88,-61,-3,39,40,73,60,12,63,-76,-59,49,-16,-74,-5,-41,-23,-55,75,108,-59,85,112,53,17,-60,-91,74,74,-71,61,72,17,-19,30,77,77,71,99,115,-104,101,-90,-93,-65,26,-74,-12,-11,95,68,-6,-14,0,-90,41,-26,47,-27,60,33,69,-4,6,-91,11,-19,-42,23,14,92,-44,38,-41,57,-72,-40,-38,-64,17,-58,-43,38,-24,55,-115,-45,-56,-105,105,54,2,-58,-85,-17,44,-103,-42,-13,-8,112,23,7,-89,-73,45,-84,41,44,-70,40,14,-86,105,26,-13,-31,-63,-71,-61,-30,-48,-62,-60,-91,-36,33,-79,-68,57,40,30,37,-70,-59,-57,-24,55,73,-37,50,-45,32,34,-59,-72,-15,78,1,65,-25,-87,-19,-89,-25,56,32,-59,91,13,-19,63,-62,-40,83,-42,-20,0,89,-58,-121,-54,-86,-11,58,-35,-73,40,101,22,6,46,93,105,17,39,-105,42,85,-25,-69,-10,-96,-36,-50,-16,-31,7,-55,32,-56,1,-70,-11,18,-5,-66,-69,10,-56,49,-18,80,-76,23,-9,29,-57,70,51,-104,-44,86,20,18,-75,88,23,19,52,-8,-7,17,12,91,-126,5,93,-15,71,62,-99,-84,21,-68,-6,-69,-26,63,48,-56,39,-24,62,-61,-122,-79,-108,-86,-23,80,-14,-112,96,-50,-41,26,103,-21,-36,75,56,-35,-5,43,-15,-73,2,22,-9,28,-13,-52,-77,-71,-57,-102,46,-13,-21,36,47,-26,56,67,-91,15,110,44,97,42,22,-76,104,42,4,-25,54,44,-117,-83,-85,43,126,-14,65,89,-82,42,-63,-15,27,-11,-80,-72,-81,43,-56,11,30,-54,-20,97,-89,68,-35,45,10,-59,-105,-1,44,-30,-38,-17,51,7,-10,66,61,120,-64,81,-38,-93,78,-84,9,14,-17,-7,37,-39,-48,-28,-79,44,81,-30,89,-84,27,56,125,94,-67,-49,-43,65,90,27,83,90,-27,-109,5,-16,73,103,96,39,-61,61,35,32,2,70,-64,-95,43,-79,101,109,120,23,-77,-12,-87,36,5,2,-38,-3,-63,69,-117,-38,52,114,-71,103,-89,-48,-11,63,-122,-23,13,-60,-62,44,-62,85,-84,62,-88,86,-7,-55,94,-88,85,87,122,-36,30,110,40,-70,-116,-49,29,84,31,-16,47,10,93,68,-65,88,-15,-59,100,25,12,-92,79,-67,3,-86,74,36,-89,-77,85,-3,17,-20,85,29,-109,-49,34,86,7,-65,-85,25,-68,30,-27,96,-54,34,-31,-42,127,6,4,45,-125,15,-98,15,-28,-109,91,43,46,74,-126,-122,-2,44,-78,-25,63,-7,-23,-121,101,90,-64,-34,19,-102,-58,58,123,19,-21,-22,-87,51,-15,14,34,101,89,-23,-117,82,-35,74,-36,-107,15,86,-53,-93,67,78,-37,-78,8,51,68,-103,-125,6,44,76,75,-17,8,-52,-68,64,1,-22,-35,-3,15,81,-104,-52,79,47,60,79,-85,-13,-5,47,-109,-1,-43,-78,-103,52,92,-67,-36,-90,-33,-17,25,-64,-12,13,-77,88,-47,38,52,-21,-1,101,-62,-90,-37,55,-70,-77,-77,-7,54,79,-110,-93,4,28,26,-89,1,-71,7,-69,33,-71,42,84,50,69,-30,-75,8,125,-71,75,80,-78,68,-6,36,2,-33,-42,53,0,23,25,-87,80,58,26,96,-41,17,-69,-111,-25,-15,-32,93,3,-77,-41,-7,-109,21,-35,88,10,-58,63,-55,-10,74,-12,-84,102,-90,-31,49,121,-89,50,65,53,19,-70,-21,-126,10,-16,32,-63,-43,15,126,46,32,115,-41,25,-22,-7,6,79,55,122,91,86,-84,47,57,27,23,-55,-46,-1,28,-36,6,90,-39,-72,-25,-53,-39,39,-25,125,21,81,98,24,9,76,30,34,34,-91,-61,-66,32,19,-1,121,89,-4,53,29,-4,89,-38,69,-36,-95,59,-98,-2,-13,40,-5,26,96,54,-72,81,-7,-62,92,-82,78,65,9,-64,16,-65,-110,53,-33,15,-88,115,51,-69,18,-40,-12,-88,-101,-94,-11,-28,107,-84,-20,24,24,10,-71,-35,8,-70,-88,-89,4,81,-67,111,91,-26,14,2,3,79,54,-51,-16,9,-50,22,-18,-63,12,-36,-57,-9,94,-30,-24,-44,25,111,-24,-96,13,-48,16,-32,40,-9,108,-7,-74,41,-79,-77,-1,-3,14,-88,-98,40,55,-6,30,8,35,-6,-40,100,114,87,-4,123,55,-94,47,-37,-84,-7,8,-70,-87,75,73,64,21,-2,28,-98,-51,23,6,-76,-7,-123,42,-11,-48,-92,-70,-24,41,-8,-45,-37,-32,45,62,51,31,10,-47,-42,76,31,33,8,80,74,-68,-34,107,43,-47,69,-119,11,27,-1,-57,-10,-59,57,-84,-4,-59,-30,115,-57,-78,91,-85,4,9,96,-74,-88,-47,3,7,-20,40,-79,27,-19,17,-54,62,117,-89,-115,-28,-19,46,-5,-66,-64,8,42,24,75,-98,-26,-96,90,-32,-4,-28,56,1,-32,88,97,23,4,-66,30,-64,-10,48,-84,29,-47,42,89,-31,38,-107,-121,5,15,70,49,15,45,-65,44,-101,-32,-79,-18,98,82,-2,-44,62,102,-71,3,27,83,46,9,-86,-46,-36,-1,-84,26,72,-66,-14,-3,76,18,-11,-56,-29,81,-55,48,-6,67,42,-51,36,-65,71,5,76,-92,80,-20,-11,75,89,87,35,-45,27,-63,-33,-44,-77,108,58,-49,92,-58,-35,-120,-35,18,-53,-116,-46,7,-69,66,-98,114,-18,126,78,105,-71,-93,-90,21,-106,-60,23,37,-16,113,-41,-27,-33,-78,99,111,-4,8,61,-69,12,4,100,-80,51,-56,-90,45,0,38,58,83,102,-90,-58,-25,35,-2,121,73,65,-72,-16,87,-88,9,-11,32,122,54,-74,80,86,91,-41,-8,-33,-93,17,-92,30,53,-55,-58,14,-105,1,15,-75,-65,24,90,-63,-23,-32,-87,75,-16,-80,9,105,-63,37,37,-103,-70,-125,-120,-11,41,72,0,54,70,-117,15,121,68,109,81,65,68,50,54,-46,-102,54,52,-12,90,46,69,71,100,7,18,-71,45,-28,-43,54,-116,62,-43,-74,-40,-37,-58,86,90,-87,23,-52,27,54,-54,-22,37,71,-89,-122,118,-35,15,-78,-83,44,-11,0,35,-89,87,14,-43,-32,88,-113,-78,50,-38,32,39,-72,79,-16,57,-57,-1,39,62,61,88,-75,110,50,-58,23,-46,85,-89,31,61,-57,-55,-46,-12,-99,120,-32,-92,65,-54,88,33,66,-77,-7,-22,-70,60,-21,60,51,3,11,29,-80,-2,13,95,85,-94,119,-11,62,9,32,34,99,-61,88,-50,-79,-19,-31,-66,56,3,-76,4,4,-77,85,43,-18,-54,-3,61,-16,50,75,63,80,-62,-31,-55,105,9,-27,83,-62,-63,12,-98,109,76,16,-17,72,-104,-69,-16,-16,2,-28,-8,-64,-117,109,64,-18,16,-37,-10,95,-3,-18,-62,-1,-10,-35,-79,36,108,-49,68,-52,-56,-13,-41,82,33,-37,63,-4,64,91,-18,93,78,-84,-79,1,-38,-119,-70,54,-8,47,-47,65,-27,87,-6,106,121,-34,91,21,83,-74,38,-69,-95,-78,-31,-118,73,-62,20,66,113,-2,-80,-81,-51,35,0,-114,96,-67,-7,-65,-84,100,91,48,87,91,83,-8,-63,58,-55,-53,70,-79,-79,119,17,101,52,29,66,-20,92,-28,71,-81,-101,-22,-94,-82,91,67,79,-65,2,-92,88,0,74,-70,-46,-66,-21,98,12,113,72,-63,-83,63,57,-101,-44,-27,-80,89,-29,82,-21,21,-12,64,79,9,28,-36,-68,-35,96,-86,7,-54,37,-13,26,-99,45,-87,-41,-12,-109,-37,-63,-21,-84,50,-121,-100,-61,5,-15,78,53,-20,45,34,2,56,45,99,6,-65,-30,6,6,-65,-66,99,-1,-36,-26,-65,-79,71,84,34,-70,72,50,67,-69,118,-34,-85,-73,56,-61,90,-67,-60,8,-17,-93,-103,1,-90,5,-2,-47,-84,111,-43,27,54,21,-15,-54,28,68,18,-7,112,10,-102,9,-36,-114,-101,5,-64,-78,-79,0,-57,-33,-11,124,56,51,110,109,-37,-2,49,-53,7,-60,-104,80,-63,86,83,53,53,52,20,38,48,-41,63,-119,-54,37,83,8,119,71,20,27,54,-126,-122,46,-73,-101,10,-25,53,-41,53,44,31,106,-103,-26,66,-63,-18,-79,-76,-26,55,-33,-33,-58,60,81,50,-35,103,-7,-86,4,-87,-59,-99,-78,-15,43,6,50,53,-22,-59,57,31,-95,105,123,-99,-77,110,61,-72,69,124,-56,48,-3,53,-71,72,-48,69,67,50,17,-57,-108,-102,-58,-51,102,-114,-106,-55,63,104,-64,-113,-8,-30,-19,81,-118,52,-66,-91,54,0,55,-24,-65,-9,97,2,-83,-120,-89,23,51,-98,50,-4,-67,-19,-85,-64,-28,15,32,98,-84,-6,73,39,-64,7,55,-23,-124,94,-36,2,-53,69,-48,-9,21,-9,93,53,45,-60,-51,-83,-64,-84,-10,33,90,113,50,-25,-5,75,-106,13,-31,-42,30,-8,-99,71,-14,57,-37,-67,-66,8,53,107,30,7,-26,-1,26,-108,22,-79,-21,31,60,-18,-90,-7,61,-88,45,56,-19,41,-54,-19,27,75,30,-57,10,-94,-85,-69,15,-46,49,-81,59,-65,57,-126,79,35,-82,-10,-38,-12,-37,-74,-82,-107,-31,126,-97,-53,61,111,92,61,-84,-38,113,-103,1,-57,-59,59,48,-6,14,28,100,88,98,-72,-53,61,-75,42,76,40,14,-15,-60,-66,-32,-68,-81,-73,87,85,93,105,-80,-109,108,54,20,77,-57,-33,-91,42,51,100,-23,10,-83,-14,11,30,-79,-96,-114,-15,81,66,84,76,-51,-37,-97,95,-63,-94,3,-81,-103,93,-49,-26,29,122,-3,19,-8,-58,57,60,37,83,-99,-54,-62,-72,-91,77,76,-71,-61,7,34,21,54,53,-101,8,41,58,-68,-97,-91,34,2,-92,-5,75,-29,32,22,57,1,27,-18,-4,41,-100,-125,-98,69,2,-77,59,-1,-81,99,-49,-78,-58,-101,94,49,40,65,-42,-75,-72,-32,95,53,32,-1,-90,29,38,-101,105,-21,-46,-116,-83,83,-89,-66,-22,-22,-94,24,55,20,-33,-30,-61,-118,58,25,-83,16,96,104,-28,49,105,67,54,-123,-78,-74,94,-1,-16,-111,28,-34,30,67,-98,-89,-14,-39,11,-15,41,-101,-83,-8,-27,-117,9,43,-71,25,90,88,-84,-96,8,34,80,-15,-29,15,-92,-10,-112,83,-37,-16,83,-80,90,-7,17,40,-92,-60,-40,-108,-6,-61,-76,89,13,-90,37,1,-101,88,-33,-37,-38,-26,-86,11,87,-40,-47,49,9,-27,-81,-108,-89,-76,19,66,-63,-41,54,69,23,19,-18,-38,58,4,-103,-50,101,29,84,-109,120,-40,65,-11,-33,-57,26,79,-84,-6,-94,-93,-39,-14,119,-102,61,-5,-65,118,-37,-106,-66,43,14,63,84,46,70,-109,42,-32,-36,64,88,5,-124,-67,-44,107,-28,-65,56,39,-50,-56,79,-60,3,-79,119,84,-53,30,64,-97,-40,10,40,-42,7,-113,-45,-28,-50,69,-9,-51,85,-99,-12,44,105,-46,-64,-55,-63,-68,-50,-13,-15,81,31,76,3,99,89,-11,97,-90,-81,68,48,51,99,37,90,74,-40,38,-31,-42,9,8,-86,-11,-5,89,111,-31,-42,-90,86,15,45,20,-68,8,-44,117,-113,-42,85,-82,-86,-126,-46,-22,66,95,-2,73,-7,15,73,86,73,-25,-19,81,-21,75,-44,-78,-7,-119,120,45,105,-9,-55,99,10,123,121,-71,-53,3,-57,40,6,40,-68,-24,-124,-67,-51,113,-45,-122,7,-59,88,43,23,-93,91,102,-61,-78,-110,106,-16,-15,-15,-52,-51,-113,-13,13,49,-124,8,-111,-41,73,-51,-63,96,-97,-10,-55,-66,15,50,-15,40,-76,-78,-45,-64,-79,80,-50,71,87,79,37,-100,-54,-45,-53,-102,-25,-91,-57,31,-85,28,38,-9,-79,70,13,16,41,0,-23,110,48,-33,23,94,-107,-37,72,48,54,-2,-91,-53,-104,-56,40,-103,-60,-96,21,34,-32,82,-84,3,-7,-72,45,86,109,12,-27,18,58,55,-85,96,26,-79,84,-37,32,82,-22,-12,-3,-44,99,-70,60,-78,-100,-54,26,-127,12,93,77,5,54,121,-9,53,5,44,17,-54,-33,0,24,9,56,-99,106,-86,47,-46,-57,2,126,-16,22,-18,-62,-76,-20,91,-19,58,-19,104,-125,-7,-40,-82,-87,12,-29,-63,-19,87,-37,-12,-6,58,34,-58,107,80,41,82,-22,-20,112,-82,3,83,-62,-53,-14,64,-19,68,40,63,-57,26,-18,11,-99,51,-46,26,38,-125,-103,-86,50,-63,-72,-22,-74,30,9,32,-62,-30,62,-2,-66,43,-43,-67,-50,-89,-121,55,70,-9,-32,56,-22,-120,-7,-87,16,-52,81,48,-24,-77,72,21,26,-57,13,84,15,-37,90,-102,-102,-13,-23,-11,-109,-21,102,77,108,55,45,-51,-107,-53,8,-47,-46,-53,-9,-31,-74,-105,122,35,-36,85,-54,19,41,-49,-99,-120,64,21,68,3,-26,16,115,-16,-86,51,14,15,29,41,54,-97,43,73,-104,-16,-55,-120,23,15,14,23,12,-116,-57,-39,5,16,90,-67,-50,-1,21,-11,93,57,111,61,45,17,-87,26,29,47,57,-11,9,12,62,40,86,-20,-95,70,-49,-5,-112,73,10,24,-78,77,7,32,-116,96,52,-54,-89,-107,-9,124,-99,-98,75,67,16,-68,-51,70,68,-53,-74,20,87,-93,5,-48,77,-27,6,-16,119,26,74,114,-77,106,-103,40,6,-49,42,65,-106,2,98,76,-58,-100,-7,18,-35,-20,-120,66,-89,-54,101,118,86,79,-49,-46,-56,-23,-105,-22,-77,56,-95,-42,86,4,52,23,6,-117,-14,104,37,48,60,-61,-104,-103,44,-112,-30,12,46,-52,-92,-37,-30,-7,-47,10,28,-73,-36,107,126,-45,-26,-10,-81,4,94,86,13,-53,76,-9,51,33,65,90,-58,76,-68,-38,65,-14,67,-10,48,-42,-87,112,-77,81,-23,26,70,-75,33,-36,-24,-51,17,28,-45,-26,-9,57,-38,83,14,-106,105,20,107,-11,-78,109,-78,-36,-44,89,21,-87,-5,-14,-94,-83,-11,68,49,15,-35,63,73,-12,-3,59,-75,-34,30,-40,-78,56,90,46,-31,107,-30,97,70,80,80,-33,27,115,-71,-62,0,-26,-52,-75,9,16,-52,-101,-59,32,46,-55,-71,21,99,-51,19,44,37,49,30,-89,49,-10,-79,47,49,83,36,-87,-88,-1,44,7,107,-48,-53,-68,85,63,91,-8,-29,100,-62,-74,-15,1,23,-64,110,-87,4,-30,-46,-18,-59,74,-95,-40,64,-57,-58,16,36,98,-23,-38,-45,59,86,-50,92,94,-58,78,6,7,86,-7,92,-90,2,60,59,46,94,76,65,7,20,-98,-90,113,15,-83,-72,-69,-46,68,49,77,-38,-73,-122,-113,-96,-4,-80,-40,2,107,-103,25,1,-78,95,-52,-36,108,-92,-41,-14,61,32,34,30,85,-57,62,47,-45,16,-75,35,14,42,80,-62,43,77,-17,-43,69,22,24,13,74,97,25,90,-20,31,-31,41,69,29,31,-22,-20,-44,6,-68,-39,17,68,-13,17,33,-19,27,63,16,71,-116,-13,69,-37,-36,-16,-68,-86,12,-96,109,46,36,1,72,-25,51,79,59,79,-102,-70,76,125,-83,24,-45,75,87,-23,-112,-83,-84,-56,-63,64,28,-1,50,-46,-57,-28,-27,-76,-53,4,64,64,-76,-69,41,94,89,27,-55,42,16,-20,-6,39,60,-26,25,74,-87,22,104,6,-51,-78,126,74,-30,57,-36,4,83,-36,6,-85,58,5,-50,-88,-25,-101,88,46,-31,-58,-89,125,-50,-90,-48,-40,-47,-118,64,21,-15,82,68,-67,16,73,34,126,-31,-24,-65,72,53,-35,84,111,81,63,-120,13,-83,25,-38,27,41,42,-97,28,29,-118,-98,-25,-3,-43,-5,-12,-38,-3,-20,28,-34,27,-8,-31,-94,97,-45,-24,-47,89,-79,-45,-122,-1,20,-66,79,-18,25,-91,74,8,105,118,105,-113,1,-90,27,60,53,90,-45,65,45,55,78,120,-29,17,-14,-115,123,-24,-29,-109,16,-54,-87,48,7,-10,91,-85,-6,8,-22,39,97,28,32,51,66,-121,30,85,60,12,40,-6,53,41,22,-58,-112,-56,2,-39,76,-65,77,27,113,16,-23,-8,-93,16,-44,40,-126,102,13,87,24,-90,-24,-103,-56,80,126,-90,3,-57,8,-101,24,81,88,80,113,-2,-76,-77,-16,-56,14,16,93,-67,44,85,116,-127,45,-45,-52,-42,16,1,32,75,44,17,34,-64,-23,-83,118,80,82,-99,97,-55,23,123,43,-87,-82,32,-114,10,-88,-20,51,-35,92,-10,-45,82,-9,84,46,1,120,47,69,76,71,-93,71,-32,29,52,-65,-19,-15,10,-3,23,84,-103,-54,103,19,-33,-77,49,-77,70,81,-11,32,-89,57,29,-30,11,-61,-26,65,-42,55,85,13,-93,-66,81,-115,43,112,81,-59,-99,26,-79,25,-78,112,-23,63,73,-79,-103,-100,-25,-13,68,-69,-29,29,-88,78,45,45,22,76,-67,19,5,41,122,52,15,-84,39,69,-7,104,90,8,50,14,101,6,-83,-67,-13,-13,-2,-65,-87,34,85,-69,-95,61,9,-8,-119,-11,-97,-47,-18,58,83,47,-41,103,11,1,103,-85,9,-56,5,70,15,74,-41,-71,82,-99,102,-9,54,34,-31,-90,-126,17,-68,-78,16,49,-21,-126,-18,-103,-52,-16,-52,-67,-103,-46,-26,79,64,-86,73,75,52,-47,50,-65,61,15,-38,86,-79,-75,-103,15,53,59,5,110,-3,116,-91,-125,99,15,-46,-89,4,32,19,115,27,105,66,23,33,31,61,-92,-67,42,4,-41,-61,93,120,-74,69,69,45,63,-54,-118,-57,-10,-5,-31,-2,16,86,-39,-11,84,90,-101,44,-7,-21,-6,49,-79,-83,93,-14,51,72,38,-79,-40,8,-38,-66,99,-115,-34,-65,84,-1,-88,30,-25,37,-127,24,77,-119,-116,74,45,-75,-76,48,-11,103,-33,17,77,-86,26,-37,60,-61,72,-38,-3,51,116,-3,78,109,14,32,-33,-83,70,1,-87,49,-16,-4,13,84,-1,-72,-29,57,-99,71,75,98,-16,123,-65,90,-82,-9,109,-10,33,-49,-122,-2,17,102,104,-101,-111,91,13,-33,5,44,6,74,85,-32,-102,-58,54,-88,-38,54,85,66,9,-54,31,-26,14,32,-68,-47,-19,-42,89,17,92,-10,78,-57,-26,91,-68,83,67,-35,52,2,112,-52,-45,-102,26,89,-49,-45,54,-18,6,8,15,-16,-110,72,-80,-10,-18,-47,15,99,-120,-105,-6,10,-44,-23,-41,1,44,-60,-34,-56,28,32,-98,60,120,-48,-25,-49,63,97,46,-53,-3,39,-53,2,90,-74,-114,85,2,71,-54,-5,8,2,96,-18,63,32,2,-104,31,70,124,-48,37,-25,97,-13,-107,41,-13,-71,-13,16,-51,-116,28,-41,30,-83,-91,115,-3,-68,-100,66,57,-5,-86,-30,14,-106,18,14,55,-11,37,95,-62,-68,64,-43,62,80,-5,91,12,26,29,-88,-22,-20,15,-54,-18,6,64,-82,52,-22,28,41,-23,66,-86,-83,27,-40,34,0,78,-3,-2,-11,73,-104,7,-58,-55,67,17,-80,-69,-83,20,10,-34,110,-70,28,69,66,22,-3,43,-67,10,4,-78,-74,118,109,-5,26,-69,-78,27,81,72,-65,91,87,40,92,82,20,10,79,-38,-77,19,-5,9,-29,65,-26,-15,-34,-118,6,-75,42,-24,84,58,24,84,-66,-20,38,15,107,-27,22,-19,-64,-3,52,-90,-26,94,44,-17,-12,65,14,65,-41,-65,-50,59,-69,78,22,-12,2,-115,-65,-13,65,38,17,5,25,-118,-24,63,46,-71,-76,123,-102,-42,-55,-56,-73,-106,108,113,35,-107,18,-32,-103,56,104,-29,-58,-42,44,30,39,-83,84,78,41,-126,-60,-88,19,-7,-40,-59,6,62,11,2,-3,54,126,-4,17,-120,123,26,-17,71,-103,83,111,-3,26,8,80,25,-23,90,77,-53,54,-40,-95,75,81,-57,-117,-112,-90,-90,-43,30,110,-11,36,-42,35,-7,51,-6,99,-2,-65,51,103,-4,-66,70,-54,57,-57,-51,21,6,89,-40,-98,61,126,-2,-15,88,38,84,51,-48,68,26,-85,-25,14,-54,-10,-70,-65,-18,44,95,76,9,-104,3,-88,-50,-74,44,-126,42,114,-51,88,104,49,-108,-52,-72,-44,99,114,-43,-43,72,-4,77,107,109,-57,-24,-53,57,-8,89,85,44,37,83,-3,55,35,-30,62,-105,-84,68,24,-30,-39,56,60,-126,6,29,118,88,0,-34,-56,81,69,8,62,-46,-47,26,-125,39,29,-41,37,-54,62,-36,87,-9,77,58,-38,92,48,-90,85,38,-52,66,4,-27,-95,23,-38,-42,120,-61,91,42,64,85,-6,-30,27,35,76,17,-68,8,-45,-64,-25,-86,-25,-76,73,45,94,29,18,65,-74,-27,94,75,26,-33,78,-42,-54,102,121,17,-77,-90,69,-90,59,102,32,47,-19,28,61,23,102,65,96,-20,-4,31,74,-101,-14,-74,-40,39,41,-49,20,-97,35,94,-117,-123,-15,-79,-39,73,35,24,-57,53,-5,104,-77,-52,101,-97,47,30,76,102,-12,45,62,-21,86,53,-83,90,-1,89,-90,-4,24,107,-32,3,22,-23,-32,-31,-84,-89,8,-50,83,-66,-86,68,61,-41,-77,60,-45,-53,-44,42,-20,70,-82,-1,-106,121,10,116,6,32,-106,-46,-34,-126,58,108,-102,80,117,-22,65,72,82,27,-61,72,61,-8,-72,-71,-29,-2,-59,2,42,39,-118,-40,-89,36,54,48,-14,-7,-11,-127,4,-26,63,82,-46,-34,-1,-79,-7,76,-40,20,-8,-2,-95,-36,7,-44,2,76,73,44,125,-85,-67,-64,-47,51,122,65,-53,-50,25,114,-110,-81,-69,-94,-7,-56,16,121,-93,-28,12,43,76,28,-116,32,-63,46,-18,28,64,-74,-11,-114,-90,55,-81,-95,-90,56,75,-91,20,63,-52,-72,-40,-24,83,-23,16,45,-107,-18,-39,11,-33,11,50,55,44,34,-93,120,-47,10,-44,-28,-84,89,103,33,25,11,-28,79,-125,119,-50,-8,67,-77,30,48,-70,-87,12,-73,-19,76,-11,98,-11,-107,30,-24,-40,-25,58,118,84,-83,-82,-54,38,-81,10,84,107,-81,-62,-62,27,7,79,43,32,-126,116,-25,29,-58,-72,58,-21,49,-64,-118,-33,75,-84,10,-93,-74,56,19,7,57,37,65,-30,-77,106,-7,66,-105,-45,-106,3,-88,29,7,-63,-112,-87,-65,-27,-120,-24,19,-59,-1,-6,-27,-22,62,34,-76,104,42,-50,41,-90,-9,47,82,87,-100,-17,-106,-11,-74,70,9,67,66,57,51,2,-10,-20,-26,-61,-27,-65,-41,112,-5,-54,-90,65,58,72,-11,-37,38,76,91,-42,55,94,13,-45,90,57,67,57,-34,94,5,66,77,-35,-10,-16,35,84,-13,122,-44,56,-44,-81,-1,33,-123,70,72,-33,-75,90,13,-101,-57,-104,83,34,37,53,-102,102,-89,64,-62,-80,108,58,-89,-76,12,-16,47,-55,14,46,-7,54,-11,81,-44,-49,-73,-4,-89,5,-36,85,20,-49,20,-78,46,-28,-18,-21,34,-62,127,1,-120,-101,-31,97,6,-93,17,14,38,-52,45,85,81,80,23,70,50,-66,36,17,126,-74,122,-100,-53,-97,12,-57,61,-4,111,-58,57,-4,20,-89,104,-30,58,76,-21,-74,-75,42,39,54,-65,-95,22,-10,-18,42,-99,62,100,86,64,36,-48,15,-24,-24,44,-96,17,90,-23,82,-41,8,93,-96,-107,33,73,-15,-59,26,-72,0,-32,75,-96,-36,33,-86,-32,80,-44,-5,-41,54,-84,-68,-43,-87,15,8,53,-63,-11,100,3,13,-62,-94,-43,-13,74,39,46,61,-81,2,-96,-24,-42,-17,-24,-87,86,48,101,85,87,-42,87,73,22,-32,-52,-35,48,-56,-19,-56,-89,-78,65,-30,-1,-25,25,113,48,1,-101,94,-65,19,12,9,98,42,-24,38,48,75,-26,102,-37,-4,37,88,-38,42,-22,-53,54,-100,27,-76,41,-67,74,-5,-86,-53,-65,21,-34,-9,49,114,23,93,15,36,98,121,-14,-63,-89,22,-79,79,-45,-31,69,35,29,-71,-59,11,61,-23,100,-57,105,0,-37,-9,-26,5,-17,-81,-27,27,-44,83,-16,90,102,64,32,17,90,-39,-72,-37,-56,37,-89,42,58,-85,125,61,-46,-56,-98,89,-73,-81,79,-58,87,8,-29,127,30,104,-87,-23,83,107,-72,-95,-100,105,-30,-33,-61,-64,-81,-29,-38,-21,-19,-50,-16,-56,76,-24,-52,-61,-4,-69,-3,-90,28,18,25,-18,0,-44,84,-58,75,43,-80,68,-12,-21,84,-86,63,126,37,-80,77,93,-55,111,-34,-40,-10,23,-63,-3,57,26,21,17,-54,65,102,-89,92,74,97,-54,-81,-30,74,92,13,-5,-48,-92,-29,-95,100,-80,-48,-59,45,-70,1,49,-78,34,-7,100,-64,-6,32,-85,-51,86,101,-73,-67,-54,-63,117,-26,-71,4,-45,75,85,64,-117,58,43,-63,33,-99,-46,-33,-34,-74,57,67,-111,-11,108,-85,79,-109,47,25,-85,2,19,-89,-101,35,-60,58,-84,-126,37,-70,8,79,72,-122,-47,-18,24,84,72,-55,84,70,6,-23,-60,-87,-91,-60,-73,57,81,45,97,-44,54,68,-80,93,95,0,-90,-64,2,-73,-3,-72,-100,39,-85,66,122,-4,49,23,79,3,57,-96,55,49,9,-20,78,-14,87,-7,-3,-42,58,-103,-45,37,1,56,-120,19,84,-88,-79,12,-28,27,19,-9,-27,-98,-23,79,75,-7,-2,-85,85,92,66,107,37,-107,-68,-83,-60,75,69,85,49,-43,41,20,-31,59,-27,-73,58,-71,37,-21,-89,13,37,67,30,39,-87,16,68,-67,29,21,85,-31,-75,81,117,-41,45,-89,5,-53,45,106,12,4,114,75,75,110,45,95,89,20,-2,-43,3,-74,-14,61,-80,-3,-60,61,35,-92,16,35,-46,-28,-38,98,75,78,70,-36,30,102,-32,-65,22,43,98,-98,-75,75,72,14,-47,62,-6,57,-49,-80,-9,-111,36,30,29,-57,-86,4,79,-35,78,-24,56,89,86,-89,-55,-71,-31,12,11,35,23,-111,-88,-56,-42,52,4,-76,57,-21,-28,70,73,-12,21,53,9,-21,-36,74,-52,18,-13,38,-27,-50,89,-9,-33,-73,-52,-70,80,-65,79,24,40,77,64,-38,44,67,-26,74,66,-123,62,121,-78,-42,76,41,31,-106,-66,-43,18,-54,34,-11,102,58,-42,76,-93,39,22,-18,-21,0,78,-22,-17,-121,9,-12,77,-32,94,118,11,98,65,-39,95,45,-4,57,31,71,-24,-76,82,7,1,-32,81,32,45,82,33,18,48,-125,-5,0,89,59,114,-106,-15,60,-86,-105,-6,67,-18,-16,-122,-6,16,54,-107,-30,54,-77,-46,-58,68,-38,-5,57,-24,11,118,118,-17,9,94,65,80,21,-54,-79,-46,-116,0,69,69,76,-57,107,-16,-84,43,112,53,25,82,-70,-32,-19,-97,52,64,-21,99,-72,89,-2,46,-56,21,36,59,30,-86,-20,-71,-78,82,58,-40,-90,18,40,-71,80,-48,-83,28,52,-46,-73,8,118,-60,-71,11,-51,-22,51,78,60,125,-67,43,-67,33,-10,35,72,37,-75,-65,57,55,-83,-57,-67,44,-81,73,-102,-28,42,1,-107,-85,-100,-53,-12,64,-3,-81,65,-81,6,2,65,-32,64,-47,120,-93,-66,-79,51,-69,40,-37,-3,-29,-67,-60,-119,79,44,-124,-5,-77,-78,-3,-66,-88,-83,-36,-74,-108,115,34,-65,67,59,-68,61,-54,1,-49,51,-73,-85,90,92,-86,-32,-70,83,-69,-7,18,-2,79,6,111,-21,-1,122,118,-23,70,69,-41,-44,-25,100,108,-95,-4,15,16,-65,-12,71,64,-53,74,58,-55,107,21,-53,-14,-54,-121,-125,19,108,-63,-56,-65,-75,-16,40,108,-14,63,58,-68,-73,-9,-3,2,54,47,77,52,-77,76,-86,75,-37,10,-31,70,11,31,-56,41,-103,-68,10,-66,9,-93,-96,-104,-46,49,19,8,48,46,41,-13,-32,-57,-84,-81,-3,69,82,52,60,91,19,62,98,101,-56,-58,-30,-61,-37,-122,6,-48,26,73,-126,23,114,-30,16,-79,-57,63,57,3,53,9,21,-61,16,-26,-27,-70,97,25,-34,103,-100,69,13,58,-117,-69,83,38,-11,42,-97,84,-3,84,72,-6,-3,-47,36,82,95,-50,39,-17,65,73,-65,-71,-29,37,21,-9,-24,-19,70,68,77,125,61,98,18,34,54,15,-1,-106,108,1,101,-42,-22,-113,-56,42,-55,-83,75,54,45,54,79,-70,-72,8,69,-42,32,-108,62,-64,107,-47,-30,-65,45,-89,-100,-28,71,-41,-8,-122,23,-61,44,65,54,-109,-11,52,-71,75,121,54,-49,3,-25,22,-83,123,-110,64,1,62,61,-8,44,26,14,-55,-11,24,-36,114,47,7,-85,-18,10,62,-17,46,7,37,-24,-29,-38,-106,108,-33,-105,77,-89,-11,50,83,-71,10,-48,70,64,30,27,-99,-50,-87,65,-93,-10,-118,-22,45,6,57,-121,-91,-40,-4,-3,82,-41,-30,-17,101,49,-57,19,25,15,-69,-65,118,23,-78,95,118,-34,17,86,61,28,48,-27,-13,-86,115,-13,-20,-21,49,-57,-39,-17,79,-3,87,82,-52,-51,-24,-11,41,-101,-50,92,19,47,-9,-33,79,11,-7,-6,-37,79,-64,-77,-76,-39,-72,29,-23,-51,-90,98,58,52,-124,73,0,-92,104,49,55,-73,11,31,22,17,-48,-52,-55,-5,63,-39,10,30,-7,-84,65,-49,94,-10,-4,-49,119,11,14,88,-46,55,-122,62,-65,-24,-60,84,-17,26,-20,8,-84,-90,63,72,15,-2,73,-18,101,72,-23,-34,-39,106,-34,31,29,-5,80,